//Numpy array shape [5, 5, 1, 16]
//Min -0.117821194232
//Max 0.118523374200
//Number of zeros 0

#ifndef W2_H_
#define W2_H_

#ifndef __SYNTHESIS__
conv2d_3_weight_t w2[400];
#else
conv2d_3_weight_t w2[400] = {0.087675780057907, 0.045620337128639, 0.013374641537666, 0.087975010275841, 0.112034335732460, -0.044243216514587, -0.081472411751747, -0.005344226956367, 0.074981510639191, -0.008661814033985, -0.020771250128746, -0.098574973642826, 0.087214767932892, -0.106430001556873, -0.088691443204880, 0.098530441522598, 0.037445291876793, 0.067493304610252, -0.067339539527893, -0.018048755824566, -0.036986537277699, -0.012786991894245, 0.083684340119362, 0.069103002548218, -0.099579297006130, -0.053550235927105, 0.004929669201374, -0.117729298770428, 0.072962433099747, 0.083265453577042, -0.015700079500675, 0.078581869602203, -0.031305998563766, 0.080119371414185, -0.085606083273888, 0.058250501751900, 0.065396592020988, -0.103312745690346, -0.060531530529261, -0.053435847163200, -0.103446453809738, -0.046311296522617, 0.027502804994583, -0.018127307295799, -0.033953733742237, -0.015616253018379, -0.094406850636005, 0.035602703690529, -0.081889748573303, -0.070861831307411, -0.100207701325417, -0.022032029926777, 0.074337124824524, -0.001206956803799, -0.008892975747585, -0.096825495362282, 0.107616215944290, -0.047191314399242, -0.033180199563503, 0.093013525009155, 0.114128902554512, 0.084461331367493, 0.067591637372971, 0.060266882181168, -0.099842183291912, -0.090585216879845, -0.022274270653725, -0.066620200872421, -0.074842646718025, -0.095861710608006, 0.020218655467033, 0.080891773104668, -0.081779405474663, -0.109996080398560, -0.013277553021908, -0.113199681043625, -0.067949451506138, -0.083408743143082, 0.041676998138428, 0.085007309913635, 0.036373659968376, 0.076011329889297, 0.033501043915749, -0.110591605305672, -0.076361417770386, -0.014717906713486, 0.016402900218964, -0.031727127730846, 0.110455036163330, -0.062468398362398, -0.112221986055374, -0.049091778695583, -0.107595287263393, -0.036594137549400, 0.036640286445618, -0.006256684660912, -0.063255533576012, 0.086455374956131, -0.034292601048946, -0.020665049552917, 0.054815232753754, -0.012096405029297, -0.117821194231510, 0.073884785175323, -0.010745309293270, -0.060331504791975, 0.115306094288826, -0.034292258322239, -0.097233459353447, -0.038199335336685, 0.001217238605022, -0.100732177495956, 0.080462649464607, 0.090957060456276, 0.002587735652924, 0.018327310681343, 0.104376390576363, -0.103445127606392, -0.071613296866417, 0.103624552488327, 0.084575325250626, -0.046260051429272, -0.098100781440735, -0.116571828722954, 0.113670840859413, -0.111590571701527, -0.115855239331722, -0.044758141040802, -0.010913379490376, -0.070569597184658, -0.053107321262360, -0.021933786571026, 0.014972999691963, -0.023651137948036, -0.050687059760094, 0.020129472017288, 0.106081396341324, -0.009453989565372, -0.024677701294422, -0.098041638731956, -0.043679080903530, -0.020750403404236, 0.060736596584320, 0.054933398962021, -0.010873980820179, -0.064626395702362, -0.069961383938789, 0.057829663157463, -0.007031209766865, 0.027819767594337, -0.086402475833893, -0.053811393678188, -0.013600833714008, -0.099055990576744, 0.117779776453972, 0.095673352479935, -0.002592436969280, -0.110344491899014, -0.086952984333038, -0.071104466915131, 0.033231958746910, -0.023089729249477, 0.005899406969547, 0.114690914750099, -0.061930470168591, 0.040905907750130, 0.099889233708382, -0.084367968142033, 0.096958607435226, 0.049526363611221, -0.047538250684738, -0.085299685597420, -0.028475031256676, -0.024517901241779, -0.093745246529579, -0.001498572528362, 0.018396854400635, -0.092794343829155, 0.065449282526970, 0.023131996393204, -0.094674468040466, 0.070045948028564, -0.088623568415642, 0.082760557532310, -0.025735735893250, 0.029756382107735, -0.017224714159966, -0.022013507783413, 0.118236437439919, 0.014331057667732, -0.097822427749634, 0.056725874543190, -0.075945720076561, 0.031677842140198, -0.002881415188313, -0.116043902933598, 0.073218122124672, -0.051780253648758, -0.033926002681255, 0.057734817266464, 0.092806577682495, 0.017617195844650, -0.054048500955105, 0.031725317239761, -0.045117847621441, -0.064926311373711, 0.060170367360115, -0.066101960837841, -0.059233836829662, 0.093243688344955, 0.014360100030899, -0.050811961293221, 0.080613240599632, -0.016313843429089, -0.002810396254063, 0.003354698419571, -0.004907093942165, -0.068984195590019, -0.041226863861084, 0.090671196579933, -0.015542715787888, 0.061438381671906, -0.074184522032738, -0.005091682076454, -0.070278920233250, 0.065901458263397, 0.082511872053146, 0.031665459275246, -0.056902669370174, 0.064870238304138, 0.113397926092148, -0.070726931095123, -0.031322710216045, 0.095940381288528, -0.056937061250210, -0.021897301077843, -0.020272813737392, 0.013987213373184, -0.107309222221375, 0.103601023554802, -0.032234653830528, 0.001966245472431, -0.023805670440197, 0.064566418528557, 0.032509356737137, -0.060610454529524, -0.076587930321693, -0.011097230017185, 0.031287893652916, 0.077723518013954, 0.029005512595177, -0.005789779126644, 0.110901862382889, 0.079648524522781, -0.008791618049145, 0.007497772574425, 0.060071617364883, 0.009643763303757, -0.044408254325390, -0.023191370069981, -0.059785984456539, -0.016429707407951, -0.059459503740072, 0.003349117934704, -0.043296590447426, 0.035682931542397, 0.082250192761421, -0.101053021848202, -0.047745160758495, -0.029235735535622, -0.061948459595442, -0.043651148676872, -0.056667827069759, 0.058330282568932, -0.034597016870975, -0.104180388152599, -0.030366942286491, 0.011202082037926, 0.003449343144894, -0.100257478654385, 0.101835563778877, -0.057623058557510, -0.034913159906864, -0.046876981854439, -0.112441413104534, -0.022458828985691, -0.022937409579754, 0.037860348820686, 0.027908772230148, -0.055533617734909, 0.097881689667702, 0.017550483345985, -0.081614568829536, -0.025601774454117, -0.051142126321793, -0.103475861251354, -0.048205666244030, -0.066181674599648, -0.035444431006908, -0.077206611633301, 0.084621474146843, -0.093763455748558, -0.079101897776127, -0.020262472331524, -0.115990817546844, 0.071926862001419, -0.077422559261322, 0.101589173078537, -0.094111442565918, 0.059778675436974, -0.073383934795856, 0.111456632614136, 0.051039069890976, -0.044755302369595, 0.030913561582565, 0.049318805336952, -0.091044701635838, -0.097241558134556, 0.103101581335068, 0.086181014776230, -0.073515348136425, -0.040354408323765, -0.038900658488274, 0.083336621522903, -0.058594126254320, 0.028419598937035, -0.024669744074345, 0.062128230929375, -0.069758355617523, -0.102100551128387, 0.037556216120720, 0.083638876676559, 0.008966237306595, -0.107637748122215, 0.038193896412849, -0.026129305362701, 0.028254806995392, -0.055795796215534, 0.117743968963623, 0.075813263654709, -0.088722482323647, -0.018906734883785, 0.074279561638832, -0.099553883075714, -0.097883448004723, 0.086201384663582, -0.003512971103191, 0.050147384405136, 0.060272157192230, -0.058613222092390, -0.070877492427826, -0.044332221150398, -0.031152002513409, -0.033877447247505, -0.044244229793549, -0.026414453983307, 0.086338907480240, -0.102536037564278, -0.065199561417103, -0.055330589413643, 0.013784691691399, -0.009799793362617, -0.022502824664116, 0.093892380595207, 0.003788381814957, -0.032125085592270, 0.061792567372322, -0.111044995486736, -0.000231780111790, 0.097389578819275, 0.012144878506660, -0.096889942884445, -0.081237144768238, -0.065961450338364, -0.045098669826984, -0.019513867795467, 0.046987295150757, -0.057076718658209, 0.037252888083458, -0.069050654768944, 0.087744593620300, 0.020206183195114, 0.051364868879318, -0.093832641839981, -0.033725291490555, 0.118523374199867, 0.106854647397995, -0.000882059335709, -0.070153594017029, -0.104702532291412, -0.018557250499725, 0.076030701398849, -0.102176949381828, 0.081433340907097, 0.064802393317223, 0.017659351229668, 0.055864468216896, -0.073834978044033, -0.049931094050407, 0.091036513447762};
#endif

#endif
