//Numpy array shape [5, 5, 16, 32]
//Min -0.070704035461
//Max 0.070703648031
//Number of zeros 0

#ifndef W5_H_
#define W5_H_

#ifndef __SYNTHESIS__
conv2d_4_weight_t w5[12800];
#else
conv2d_4_weight_t w5[12800] = {0.058934845030308, -0.007484674453735, -0.049265369772911, -0.065465085208416, 0.015645615756512, 0.029847726225853, 0.062499247491360, -0.059369504451752, 0.060464732348919, 0.026315703988075, 0.029355786740780, 0.039610400795937, -0.009300678968430, -0.052406016737223, -0.029904656112194, 0.012432277202606, -0.024510230869055, -0.034865710884333, 0.016965135931969, 0.008584871888161, 0.008667789399624, -0.064497478306293, -0.046974688768387, 0.067996777594090, -0.046430587768555, 0.069235451519489, -0.067060224711895, 0.053335301578045, -0.054737631231546, 0.066435642540455, -0.031877703964710, -0.053604878485203, -0.010213244706392, -0.038552735000849, 0.027587875723839, 0.048974268138409, -0.037197511643171, 0.016876846551895, -0.050971910357475, -0.028408274054527, -0.014092676341534, 0.063254632055759, -0.060593616217375, 0.042436666786671, 0.005163833498955, 0.047373041510582, 0.016277767717838, 0.003407925367355, 0.055175386369228, -0.021641328930855, 0.020346343517303, -0.045675352215767, -0.011215649545193, 0.038787834346294, 0.018806934356689, -0.048913188278675, -0.047138318419456, -0.027666050940752, -0.010676775127649, 0.007167592644691, 0.061722479760647, -0.064531579613686, 0.015688814222813, 0.063651554286480, 0.002695493400097, -0.014365501701832, -0.000597678124905, -0.007756859064102, 0.019213184714317, 0.013590097427368, -0.008030220866203, -0.020758081227541, 0.060595579445362, -0.039973318576813, 0.038766995072365, -0.058566689491272, 0.040015958249569, -0.059614140540361, 0.065536819398403, 0.046282149851322, -0.013136129826307, -0.001100316643715, 0.002857759594917, 0.049448065459728, -0.027067769318819, 0.014465391635895, 0.027944862842560, -0.009324368089437, -0.012224305421114, -0.056961283087730, -0.028582677245140, -0.058826483786106, -0.058969918638468, -0.012831069529057, -0.008263058960438, 0.054123163223267, -0.042145483195782, -0.049126788973808, 0.001750946044922, 0.001746259629726, -0.030630949884653, -0.062980629503727, 0.019529066979885, -0.048984199762344, -0.009129580110312, -0.065850526094437, -0.027566064149141, -0.003983080387115, 0.027148522436619, -0.064827911555767, 0.053143724799156, -0.058209218084812, 0.031471639871597, -0.062585324048996, -0.004000529646873, -0.062761411070824, -0.003976501524448, -0.041801650077105, -0.025526106357574, 0.051112078130245, 0.008963994681835, 0.055610083043575, 0.066094793379307, 0.046441212296486, -0.002020455896854, -0.018217522650957, 0.011021077632904, -0.030741289258003, 0.034158773720264, -0.065084517002106, -0.050557997077703, 0.060761488974094, 0.064578838646412, 0.035401113331318, -0.004306517541409, 0.049107268452644, -0.021121725440025, -0.035351194441319, -0.023739129304886, -0.017491567879915, 0.045809544622898, -0.034562863409519, 0.010989136993885, -0.057916514575481, -0.032793063670397, 0.012251295149326, 0.062467239797115, -0.048178553581238, 0.015788696706295, -0.021675854921341, 0.024713717401028, -0.061836764216423, -0.018693175166845, 0.025356657803059, -0.026333302259445, -0.009347647428513, 0.039515115320683, 0.032036408782005, -0.012721758335829, -0.031926948577166, 0.060287125408649, 0.062899686396122, 0.045518696308136, -0.048722870647907, -0.034356947988272, -0.056867953389883, -0.034328408539295, 0.017367921769619, -0.046944595873356, -0.052857004106045, -0.045110665261745, 0.031601712107658, -0.051539294421673, 0.040834024548531, -0.003198184072971, 0.023422643542290, -0.043409585952759, -0.032135389745235, 0.039555393159389, 0.066093631088734, -0.061829023063183, -0.000997804105282, -0.020280726253986, -0.032643057405949, 0.029042586684227, -0.044109918177128, 0.054200477898121, -0.046532347798347, 0.048348672688007, -0.029231015592813, -0.050789602100849, 0.070514000952244, 0.027410186827183, -0.063843220472336, 0.001026831567287, 0.047918133437634, 0.033376075327396, -0.037780351936817, 0.061609782278538, 0.016365788877010, -0.027036026120186, 0.014038205146790, -0.064683951437473, 0.062099389731884, 0.031722992658615, -0.023103840649128, 0.026198349893093, 0.069515861570835, -0.056140042841434, 0.069303147494793, 0.041483759880066, 0.069058902561665, -0.003771588206291, 0.023011267185211, -0.058566320687532, 0.062878258526325, 0.053125247359276, 0.001701891422272, 0.052023507654667, -0.065464578568935, -0.034760970622301, -0.009530954062939, -0.027246318757534, 0.041569486260414, 0.067466758191586, -0.009168911725283, 0.067395247519016, 0.048531271517277, -0.037164635956287, 0.029538400471210, 0.035896554589272, -0.063022553920746, 0.019116297364235, -0.009118892252445, 0.053459875285625, 0.027314752340317, 0.023125283420086, -0.053529635071754, 0.034142911434174, -0.014745835214853, 0.031483478844166, -0.063890948891640, -0.011667966842651, 0.059037037193775, 0.039348483085632, -0.014134939759970, -0.028331350535154, -0.050770886242390, 0.053059257566929, 0.045533582568169, -0.004797510802746, 0.012528084218502, 0.025818921625614, -0.029866572469473, -0.004432514309883, -0.063504733145237, -0.002715185284615, -0.009827416390181, -0.026060950011015, -0.059229541569948, -0.060029167681932, -0.028262533247471, -0.035795945674181, 0.001291364431381, 0.052113972604275, 0.045996695756912, -0.010213546454906, 0.065861858427525, -0.058410275727510, 0.037141352891922, -0.035938300192356, -0.053364790976048, 0.041088797152042, 0.008068002760410, 0.048539839684963, 0.021798774600029, -0.028829000890255, 0.015671342611313, -0.027256757020950, -0.052665695548058, -0.004337653517723, -0.062285188585520, -0.060365702956915, 0.047955513000488, -0.017926439642906, 0.058528877794743, -0.024653665721416, 0.067015938460827, 0.040735080838203, 0.024525083601475, -0.034619726240635, 0.051203109323978, 0.045172624289989, -0.046045046299696, -0.009194150567055, -0.050612300634384, 0.027767963707447, 0.049796737730503, 0.033360682427883, -0.011192094534636, -0.000809051096439, 0.022615864872932, -0.000769600272179, -0.050403185188770, 0.008891724050045, -0.017936788499355, 0.001326814293861, 0.036431521177292, -0.033889085054398, 0.032462552189827, -0.022472884505987, -0.065193235874176, -0.058235112577677, -0.060979582369328, 0.017175413668156, 0.028047144412994, 0.035156443715096, -0.038049519062042, 0.041100226342678, -0.057952880859375, 0.046186827123165, 0.024765104055405, 0.041431330144405, 0.003849454224110, -0.048765525221825, -0.023787427693605, -0.048609059303999, 0.036991849541664, 0.069568328559399, -0.012515455484390, 0.047489151358604, -0.069759778678417, -0.062107380479574, 0.061453826725483, 0.020538397133350, -0.052632547914982, -0.007345519959927, -0.012724503874779, 0.017365984618664, 0.027044624090195, 0.001765534281731, -0.002451129257679, 0.007393181324005, -0.064102709293365, 0.047377273440361, -0.013094808906317, 0.013323865830898, -0.019399587064981, -0.069507084786892, -0.028424359858036, 0.023213520646095, -0.054950423538685, -0.011768817901611, -0.004592724144459, 0.054834179580212, 0.002958424389362, 0.057857997715473, -0.027471706271172, 0.028367273509502, -0.008548293262720, -0.043627977371216, 0.052839793264866, -0.034670792520046, -0.046204462647438, -0.025161299854517, -0.053399942815304, 0.009066797792912, -0.057933442294598, 0.066118516027927, 0.042722225189209, -0.058900676667690, 0.022092349827290, -0.046723052859306, 0.012564480304718, 0.009421810507774, 0.051006302237511, 0.065985672175884, -0.004105336964130, 0.055362276732922, -0.044058311730623, 0.027162618935108, 0.067107014358044, 0.023254409432411, -0.042986817657948, 0.005611598491669, -0.051784858107567, 0.052556581795216, 0.061572872102261, -0.018126230686903, -0.045566763728857, 0.028763137757778, 0.044144965708256, -0.054146043956280, 0.023390844464302, 0.008488692343235, -0.049595430493355, -0.061739470809698, 0.013365842401981, 0.018837653100491, 0.041205257177353, 0.005937077105045, 0.016692347824574, 0.024351105093956, 0.066142536699772, -0.056300673633814, -0.047417767345905, -0.020804613828659, -0.034183066338301, 0.018463119864464, 0.052731052041054, -0.070545546710491, -0.020799841731787, -0.030959557741880, -0.056341033428907, 0.070430196821690, -0.033249329775572, 0.027157187461853, 0.008684575557709, -0.057175070047379, 0.056687183678150, -0.055351205170155, 0.027622476220131, 0.003609575331211, 0.050431035459042, 0.011223889887333, 0.034165032207966, -0.047131035476923, 0.066534541547298, -0.053515844047070, -0.069945618510246, 0.047210358083248, 0.039115615189075, 0.022211156785488, 0.001572363078594, 0.037015147507191, 0.056768395006657, -0.000203855335712, -0.048358201980591, -0.066180601716042, 0.059442289173603, 0.020266346633434, 0.062274701893330, 0.046488530933857, -0.048530802130699, 0.058153115212917, 0.029129154980183, -0.069104596972466, 0.068594060838223, 0.017953462898731, 0.041633129119873, -0.053730964660645, -0.026188533753157, 0.019511595368385, 0.006028383970261, 0.005737975239754, 0.011471077799797, -0.026509996503592, -0.016387235373259, -0.048709958791733, -0.009956452995539, 0.043889522552490, -0.042167112231255, -0.060245670378208, -0.028880152851343, -0.061746720224619, -0.066792726516724, 0.068472139537334, -0.031231742352247, -0.022741984575987, 0.025333732366562, 0.053317941725254, 0.032047115266323, -0.027274914085865, -0.063765302300453, 0.017627447843552, 0.061640076339245, 0.034306287765503, 0.030763559043407, 0.030439637601376, -0.051011394709349, -0.065514646470547, -0.058943636715412, -0.065213859081268, -0.012913439422846, -0.061920367181301, -0.045378215610981, -0.011679347604513, 0.018889173865318, -0.050934083759785, -0.016688670963049, 0.002623610198498, -0.046862810850143, 0.008543334901333, -0.003851935267448, -0.067991621792316, 0.038371756672859, -0.047167368233204, 0.067982621490955, -0.058474272489548, -0.019136220216751, 0.012886971235275, 0.056298919022083, 0.049711555242538, 0.050551675260067, 0.025193013250828, 0.034430891275406, -0.056615121662617, -0.013809971511364, 0.016184322535992, 0.024038895964622, -0.050750657916069, 0.019793309271336, -0.037015032023191, 0.066196210682392, -0.007294252514839, 0.000565998256207, 0.061631001532078, 0.043426498770714, -0.051763918250799, 0.031200334429741, -0.046461172401905, 0.004846468567848, 0.022825337946415, -0.046579234302044, 0.051435574889183, 0.038212627172470, 0.018040455877781, 0.027006201446056, 0.029671840369701, 0.058995164930820, -0.062465813010931, 0.045525811612606, -0.021982211619616, 0.050530448555946, 0.054672129452229, -0.065124653279781, -0.006153255701065, -0.062341764569283, -0.009773414582014, 0.014614857733250, 0.027837723493576, -0.046929068863392, 0.015548229217529, 0.066535912454128, -0.022496927529573, -0.057763203978539, -0.050490327179432, -0.066810920834541, -0.018082346767187, -0.046131230890751, -0.006369538605213, 0.059142656624317, 0.021683141589165, -0.057528495788574, 0.037161417305470, -0.057195011526346, 0.032985053956509, 0.062467999756336, 0.052889980375767, -0.069792725145817, 0.053418889641762, 0.000414997339249, -0.029662869870663, 0.058184735476971, 0.031913325190544, -0.020530760288239, -0.007054723799229, 0.066205911338329, -0.039545007050037, 0.062493987381458, -0.008787568658590, 0.017937734723091, -0.053107410669327, 0.015286140143871, 0.059789635241032, 0.070534177124500, 0.054526574909687, 0.040223166346550, 0.055437050759792, -0.055595487356186, 0.026930063962936, -0.056815840303898, 0.033066146075726, 0.035984471440315, -0.067193947732449, 0.035505719482899, 0.028372868895531, 0.021938465535641, 0.020436771214008, -0.059255708009005, 0.069073669612408, -0.023982636630535, -0.018052779138088, 0.043680779635906, -0.052107147872448, 0.003657028079033, 0.039594709873199, 0.019816957414150, 0.019003659486771, 0.019338808953762, -0.042018100619316, 0.053724251687527, 0.039643950760365, -0.004242435097694, -0.029381580650806, -0.028086457401514, 0.054208517074585, -0.069861017167568, -0.063650578260422, -0.001697845757008, 0.061912633478642, -0.009589672088623, 0.022512249648571, 0.031489297747612, 0.034546829760075, 0.067033715546131, -0.001743428409100, 0.062423832714558, 0.056171305477619, -0.039232902228832, 0.025016851723194, 0.056757964193821, -0.042853735387325, -0.059036865830421, 0.031625106930733, 0.035476744174957, -0.028371557593346, 0.011801384389400, 0.018110565841198, -0.060390975326300, -0.021934114396572, 0.012404225766659, -0.020105279982090, 0.061054326593876, 0.066520594060421, 0.008068948984146, -0.047998808324337, -0.005939044058323, -0.006936497986317, -0.069584637880325, 0.057032935321331, 0.052846536040306, -0.068360842764378, -0.030159797519445, 0.018711097538471, 0.042556874454021, -0.046095013618469, -0.009586386382580, 0.014917708933353, -0.000695861876011, 0.004778236150742, -0.069106422364712, -0.048406146466732, -0.027893576771021, -0.018819849938154, 0.068680264055729, -0.010115377604961, -0.069858066737652, 0.030690930783749, 0.003920346498489, 0.032598130404949, 0.047330610454082, 0.055789999663830, -0.022760782390833, -0.018433362245560, 0.029569879174232, -0.001274541020393, -0.028735384345055, 0.030043318867683, 0.037311069667339, 0.022386066615582, 0.056533403694630, -0.069934420287609, 0.067580439150333, 0.020162194967270, -0.005990281701088, 0.001549422740936, 0.007976204156876, -0.007055282592773, 0.049447648227215, -0.004382938146591, -0.011220656335354, 0.020005404949188, -0.016990695148706, 0.014701612293720, -0.030864931643009, 0.041243374347687, 0.055864401161671, 0.061735384166241, 0.051079452037811, -0.035836994647980, 0.005726590752602, -0.069805942475796, 0.051040761172771, -0.028655812144279, 0.036188669502735, 0.058546207845211, -0.007968522608280, -0.005584746599197, 0.032667078077793, -0.037930935621262, 0.034494683146477, -0.054462529718876, 0.014336742460728, -0.010468099266291, -0.007341712713242, 0.061790041625500, 0.027570664882660, 0.052000463008881, -0.005964890122414, -0.055356044322252, 0.014682479202747, -0.000111669301987, 0.045407854020596, -0.032424449920654, 0.033128589391708, -0.002567268908024, 0.060197956860065, 0.043858602643013, 0.005540303885937, 0.020606182515621, -0.054036766290665, -0.001033201813698, -0.061346814036369, 0.011687442660332, -0.025092802941799, -0.011652592569590, 0.007986016571522, -0.009580940008163, -0.022843979299068, 0.017724096775055, 0.062503270804882, 0.000279419124126, -0.005864933133125, 0.007120877504349, -0.030815400183201, 0.054935254156590, 0.037269160151482, -0.027182187885046, 0.018692366778851, -0.015065137296915, -0.020721483975649, 0.011930122971535, 0.007227495312691, -0.049005776643753, 0.029875524342060, -0.030461248010397, -0.069087401032448, 0.023386426270008, 0.001390680670738, 0.056302361190319, 0.019034869968891, -0.022074546664953, -0.047299470752478, -0.023661173880100, -0.030695702880621, -0.018885616213083, -0.006332106888294, 0.020003892481327, -0.065994799137115, 0.028539352118969, 0.067844860255718, -0.045147590339184, -0.046818271279335, 0.046712584793568, -0.027887675911188, -0.007314570248127, -0.031833481043577, -0.056724518537521, -0.032501544803381, -0.022014446556568, -0.036053106188774, -0.037095144391060, 0.025886476039886, -0.002576351165771, 0.038527078926563, 0.012395694851875, -0.007630385458469, 0.059553839266300, 0.051553875207901, 0.042486824095249, -0.068167403340340, 0.060630895197392, 0.053858563303947, 0.012707442045212, 0.062405623495579, -0.033611506223679, 0.056587450206280, -0.009429901838303, -0.054494172334671, -0.032372944056988, 0.013738773763180, -0.018769916146994, 0.027151726186275, -0.055315211415291, -0.027049846947193, 0.011692225933075, -0.066358245909214, -0.001510001718998, 0.050180122256279, 0.011018872261047, 0.057595528662205, 0.022044993937016, 0.054508380591869, 0.031995110213757, 0.016284748911858, 0.007341742515564, 0.043715603649616, 0.015821576118469, -0.027512673288584, 0.013224974274635, 0.065060056746006, 0.032182209193707, 0.040287047624588, -0.064710520207882, -0.064009957015514, -0.011529136449099, 0.005859471857548, 0.022478953003883, -0.069354616105556, -0.067570120096207, 0.012348756194115, -0.007850930094719, -0.063529901206493, -0.058216433972120, -0.016774244606495, 0.042404301464558, 0.043960496783257, -0.030992466956377, -0.012061435729265, 0.025896623730659, -0.050390943884850, 0.016967207193375, 0.002900801599026, 0.029926203191280, -0.064726382493973, -0.006872348487377, -0.030969437211752, -0.056823428720236, 0.001634709537029, 0.028676010668278, 0.065594322979450, -0.013305947184563, -0.014728572219610, 0.010755136609077, 0.023796685039997, 0.026823654770851, -0.012462858110666, -0.001881130039692, 0.062018774449825, 0.012787759304047, 0.023321390151978, -0.012376844882965, -0.016992531716824, -0.022040795534849, -0.024038758128881, 0.038877636194229, 0.038956433534622, -0.021138768643141, 0.055529393255711, 0.024719633162022, -0.065211646258831, 0.037462264299393, -0.034226682037115, -0.055626947432756, 0.002333320677280, 0.015665814280510, 0.048547975718975, 0.027006164193153, 0.026460774242878, 0.050859294831753, -0.052929818630219, 0.011429652571678, 0.068603925406933, 0.029375463724136, 0.006828077137470, 0.008005268871784, -0.021382868289948, 0.003912039101124, -0.040214400738478, -0.019659936428070, 0.027237974107265, 0.004384972155094, -0.001185454428196, 0.069244273006916, 0.060709021985531, -0.038333371281624, -0.059297397732735, 0.055138908326626, -0.040668860077858, 0.030368320643902, 0.025421932339668, 0.017340481281281, -0.015100982040167, -0.060648608952761, 0.067808218300343, 0.040994368493557, 0.026920072734356, -0.004848137497902, -0.025840740650892, -0.059145078063011, -0.068318359553814, 0.007625192403793, 0.008072726428509, 0.039025537669659, -0.067695543169975, -0.054927647113800, 0.047069706022739, -0.056790418922901, 0.043456099927425, -0.069917596876621, -0.037052527070045, 0.001852728426456, 0.034994043409824, -0.042247600853443, 0.061576627194881, 0.007178887724876, -0.023362454026937, 0.011225648224354, -0.017689201980829, -0.040978219360113, 0.036210872232914, 0.065307594835758, 0.070191435515881, -0.006705768406391, -0.040225949138403, -0.042854681611061, 0.010112613439560, 0.065218605101109, -0.045671842992306, -0.063484877347946, -0.039748307317495, -0.038237713277340, -0.010284386575222, -0.057879578322172, -0.070118755102158, -0.001595221459866, 0.008925944566727, -0.024749860167503, -0.040714010596275, -0.028300244361162, -0.004696510732174, -0.064191035926342, -0.030927795916796, -0.021865110844374, -0.001899622380733, 0.046248868107796, 0.062556289136410, -0.049878098070621, -0.006299369037151, 0.037550598382950, -0.014762438833714, 0.052965894341469, 0.005139991641045, 0.013640813529491, -0.060361064970493, 0.046716257929802, 0.043134234845638, -0.052199162542820, 0.008665323257446, -0.031674489378929, -0.005309842526913, 0.060474447906017, -0.033599164336920, 0.042508944869041, -0.028260525316000, -0.026496157050133, 0.031315870583057, 0.039907135069370, -0.042151622474194, -0.000718198716640, -0.034489914774895, -0.006559260189533, -0.035590622574091, -0.013141606003046, -0.022190790623426, -0.023973330855370, -0.066755995154381, -0.051268085837364, 0.051425345242023, 0.040839947760105, -0.015106223523617, 0.050366900861263, -0.003457777202129, 0.014077670872211, 0.007332488894463, -0.025567814707756, 0.037166610360146, -0.054716929793358, -0.027667045593262, 0.069475732743740, -0.016818128526211, 0.067543692886829, 0.019207939505577, -0.012203957885504, 0.061892651021481, 0.036378681659698, 0.002066358923912, -0.035714160650969, -0.036783628165722, -0.010135542601347, -0.015525788068771, -0.056502725929022, 0.041008479893208, -0.045523941516876, 0.056029655039310, 0.023123465478420, 0.013966619968414, -0.052238509058952, 0.058831252157688, 0.068025253713131, -0.047254256904125, -0.063853658735752, -0.020543739199638, 0.024952754378319, 0.022434666752815, 0.044895142316818, -0.058915920555592, 0.036682106554508, 0.060821913182735, 0.040180400013924, 0.013546235859394, -0.047775931656361, 0.025792352855206, 0.038220159709454, 0.042755767703056, -0.030875433236361, -0.053697854280472, 0.020689077675343, -0.046940430998802, 0.024101354181767, -0.051479157060385, 0.035228513181210, 0.011178292334080, -0.042085316032171, 0.003162629902363, -0.068422593176365, 0.023548103868961, 0.015177853405476, -0.037253953516483, -0.009643200784922, -0.001551441848278, 0.023844733834267, -0.059541650116444, 0.062416039407253, 0.056177727878094, -0.049086950719357, -0.046372525393963, 0.043906331062317, 0.009051606059074, 0.047707304358482, 0.029181197285652, -0.053302835673094, 0.043690957129002, -0.015165615826845, -0.020493872463703, 0.045701161026955, 0.009091578423977, -0.025243975222111, 0.041598588228226, -0.039583478122950, 0.053979828953743, 0.001749008893967, -0.047615706920624, -0.048498362302780, -0.048519723117352, -0.033206138759851, -0.037965428084135, 0.068439029157162, -0.051815420389175, -0.034534353762865, -0.058712940663099, -0.026980914175510, -0.065907694399357, 0.060258649289608, 0.068105392158031, -0.047003213316202, -0.040142178535461, -0.062903851270676, 0.000104255974293, 0.023014977574348, 0.028101682662964, 0.032699517905712, -0.068615071475506, 0.037727653980255, 0.014139138162136, -0.033904004842043, -0.056362155824900, 0.047369047999382, 0.035252705216408, -0.017281927168369, 0.037609420716763, 0.056886903941631, 0.000127151608467, -0.032065272331238, -0.033777397125959, 0.038227163255215, -0.002346299588680, 0.035368204116821, 0.014761008322239, 0.033203184604645, 0.066322349011898, 0.056710921227932, -0.000182919204235, -0.066806532442570, 0.037146195769310, 0.053713649511337, 0.017211675643921, -0.006121136248112, -0.067172691226006, 0.027842395007610, 0.021668672561646, 0.043759085237980, -0.025388620793819, 0.009042151272297, -0.035340994596481, 0.053184978663921, -0.006738491356373, -0.054590709507465, 0.024125397205353, -0.031124621629715, -0.031159639358521, -0.007128313183784, 0.024101726710796, -0.059301529079676, 0.046240352094173, 0.027923263609409, 0.004003666341305, 0.043318502604961, 0.000644944608212, 0.008939243853092, 0.047175608575344, 0.067936025559902, 0.066065154969692, 0.022230930626392, 0.025834232568741, -0.047460474073887, 0.069495759904385, -0.063484147191048, 0.015637226402760, 0.060286842286587, 0.003300540149212, 0.041123695671558, -0.012079626321793, -0.018505770713091, -0.047202564775944, -0.042446464300156, -0.048682257533073, 0.070188768208027, 0.005323268473148, -0.068586595356464, -0.033719234168530, 0.012187421321869, -0.045399151742458, 0.016331396996975, 0.048996374011040, 0.009069681167603, -0.009191941469908, -0.032383836805820, -0.065196439623833, 0.043653786182404, 0.040425322949886, -0.050978422164917, 0.048309594392776, -0.017818491905928, 0.066715709865093, -0.002779446542263, -0.061152651906013, 0.018870644271374, 0.043593063950539, -0.056023042649031, -0.034946650266647, 0.019339129328728, 0.016777381300926, -0.067850127816200, -0.049372557550669, 0.034123942255974, -0.031129445880651, -0.042776897549629, 0.026768557727337, -0.012654136866331, -0.009956434369087, -0.024972818791866, 0.047073870897293, -0.008619386702776, 0.003881253302097, 0.064659185707569, 0.020644098520279, 0.042567290365696, 0.014300592243671, -0.011250697076321, 0.023512095212936, 0.024944476783276, 0.020687460899353, 0.053540661931038, 0.006446361541748, 0.055370934307575, -0.054632991552353, -0.013151619583368, -0.043062716722488, -0.057907935231924, -0.053582705557346, 0.057647801935673, 0.029862798750401, 0.017948806285858, 0.019803658127785, 0.014834105968475, -0.068799510598183, -0.051287189126015, -0.058045551180840, 0.045759491622448, -0.041034899652004, 0.050738349556923, -0.038855619728565, 0.058278225362301, 0.059317044913769, 0.052247695624828, 0.004840157926083, -0.060426801443100, 0.069617010653019, -0.044425461441278, 0.053480505943298, -0.061534654349089, 0.009240262210369, 0.022171892225742, 0.057531870901585, -0.062183734029531, -0.008073046803474, -0.022262893617153, -0.025574170053005, 0.043199226260185, -0.028035089373589, 0.036792412400246, -0.040903516113758, -0.030953302979469, 0.043368279933929, 0.037680618464947, 0.068571947515011, -0.065037615597248, 0.042159914970398, -0.003056474030018, 0.022653140127659, 0.018981292843819, -0.020825855433941, -0.014779973775148, 0.019376814365387, -0.016481794416904, 0.065140850841999, -0.017729055136442, -0.030073765665293, 0.067095108330250, 0.015000857412815, 0.064504258334637, -0.045275695621967, 0.000826634466648, 0.060483612120152, -0.040672924369574, 0.003860570490360, -0.001356557011604, -0.006241761147976, -0.036833833903074, -0.060854353010654, 0.008576750755310, -0.052756544202566, -0.014025829732418, -0.024671636521816, -0.016230802983046, -0.019341595470905, -0.056762736290693, -0.020498357713223, 0.057016022503376, -0.007639653980732, -0.009600225836039, 0.019218072295189, 0.054755546152592, -0.019948288798332, 0.031341344118118, 0.033567808568478, 0.057723678648472, 0.041921094059944, -0.053532183170319, 0.031488552689552, -0.029075916856527, -0.002181589603424, 0.068619377911091, -0.064036980271339, 0.037577606737614, 0.007010944187641, 0.032724469900131, -0.032432068139315, 0.033155694603920, 0.007037140429020, -0.052159711718559, 0.010837182402611, -0.025560647249222, -0.045333623886108, -0.055416464805603, 0.034712195396423, -0.029519908130169, 0.005018360912800, 0.070170752704144, 0.034283243119717, -0.012227982282639, 0.010998003184795, 0.014919765293598, -0.031525876373053, -0.013111717998981, 0.038021177053452, -0.024022676050663, 0.002543307840824, 0.052154317498207, -0.013058342039585, 0.068236924707890, 0.019178062677383, 0.026427879929543, -0.057479538023472, -0.034351218491793, 0.054967083036900, 0.001605659723282, 0.046550199389458, -0.001984305679798, -0.039248984307051, 0.044831655919552, -0.055244371294975, -0.051553301513195, 0.007287509739399, 0.010946884751320, -0.016951244324446, -0.045589424669743, 0.038358710706234, 0.066404692828655, -0.059207390993834, 0.026841275393963, -0.029571797698736, 0.016852639615536, 0.038361623883247, 0.019819863140583, 0.049406513571739, -0.049882803112268, -0.018923547118902, -0.024700820446014, -0.035677410662174, -0.032061513513327, -0.000767461955547, -0.057483498007059, -0.008798524737358, 0.039786033332348, -0.041948236525059, -0.031026083976030, 0.012965127825737, 0.049048326909542, 0.014354795217514, 0.069491960108280, 0.064001522958279, -0.033066749572754, -0.053468689322472, -0.051220901310444, 0.020742401480675, 0.061222143471241, -0.049038872122765, -0.050546042621136, -0.030309706926346, 0.030554659664631, -0.063470862805843, 0.014504835009575, -0.035740174353123, -0.064051881432533, -0.020177163183689, -0.006300367414951, 0.033798739314079, -0.014643806964159, 0.028762929141521, 0.053945250809193, 0.052899487316608, -0.023595359176397, -0.016791135072708, -0.031063679605722, -0.002925634384155, -0.002382561564445, -0.054723434150219, 0.019926220178604, 0.000193946063519, -0.043793544173241, -0.050974793732166, 0.043143063783646, 0.002203740179539, -0.005170576274395, -0.069292575120926, 0.035053387284279, -0.014302853494883, -0.013299152255058, 0.020026922225952, 0.016603030264378, 0.064718209207058, -0.059925943613052, 0.032192543148994, 0.010101050138474, 0.061179481446743, -0.064882330596447, 0.007677063345909, 0.055699698626995, 0.014705605804920, 0.055741362273693, -0.048437468707561, 0.020489856600761, 0.044173389673233, 0.063084401190281, 0.029377870261669, -0.053197551518679, -0.047852471470833, -0.046842277050018, -0.014510285109282, 0.034515403211117, -0.055698141455650, 0.002562440931797, -0.058429595082998, 0.022606186568737, -0.056280054152012, -0.067349910736084, 0.035528577864170, 0.067207522690296, -0.045487612485886, -0.059180751442909, -0.049635671079159, -0.061021406203508, 0.026240766048431, -0.065687589347363, 0.044150426983833, -0.010526478290558, 0.004201889038086, -0.025958850979805, -0.051138035953045, -0.003805741667747, -0.043687686324120, -0.017794366925955, 0.054254963994026, 0.004642136394978, 0.025116942822933, -0.005156263709068, -0.050953097641468, 0.067214645445347, 0.015786558389664, -0.045453675091267, 0.015902526676655, -0.024107441306114, 0.029072090983391, -0.040193699300289, 0.055488176643848, 0.050523959100246, -0.023705039173365, 0.044494263827801, -0.002575591206551, 0.055679224431515, 0.018287144601345, -0.034147005528212, 0.028777904808521, 0.064398981630802, -0.049793012440205, -0.045728795230389, 0.023375570774078, -0.054806146770716, 0.064882241189480, -0.023289557546377, -0.050908371806145, -0.027348604053259, 0.037112459540367, -0.037026144564152, 0.055550701916218, 0.054121255874634, -0.024024091660976, -0.026406839489937, 0.049890607595444, 0.031502008438110, -0.056958347558975, 0.044731378555298, 0.041926391422749, -0.050023019313812, -0.007433302700520, 0.000190250575542, -0.017100747674704, 0.038226351141930, -0.024601370096207, -0.032300975173712, -0.012974470853806, -0.004587091505527, -0.019709788262844, -0.016272932291031, 0.012714624404907, -0.067681081593037, 0.023093521595001, 0.062546662986279, -0.053609259426594, 0.047887153923512, 0.027067080140114, 0.030249364674091, 0.061923317611217, -0.003101669251919, -0.033816728740931, 0.025032028555870, 0.000467963516712, -0.020693294703960, 0.021315887570381, 0.005970306694508, -0.022054739296436, -0.001515112817287, -0.010201577097178, -0.014323454350233, 0.031058773398399, 0.070574693381786, -0.014099232852459, -0.036266759037971, -0.060514226555824, -0.053987786173820, -0.006824515759945, -0.040156863629818, -0.005929656326771, -0.035892292857170, -0.061627089977264, 0.023212209343910, 0.056117959320545, -0.000328741967678, -0.058554619550705, -0.052207574248314, -0.012198884040117, -0.068498514592648, 0.026560038328171, -0.056927043944597, -0.054756343364716, 0.063444696366787, -0.059277705848217, -0.001452125608921, 0.029361583292484, -0.013648245483637, -0.015062592923641, -0.033553630113602, 0.060414262115955, 0.028879545629025, -0.044403713196516, -0.008171901106834, -0.065332002937794, 0.039505422115326, -0.052220892161131, -0.000938221812248, 0.041151344776154, 0.013334117829800, 0.068359158933163, 0.023387864232063, 0.017658807337284, -0.070098690688610, 0.053642943501472, 0.064195312559605, -0.002314992249012, -0.032687090337276, -0.028983596712351, -0.039959564805031, -0.042236119508743, 0.053867436945438, -0.061147391796112, 0.014782503247261, 0.046773225069046, -0.055999357253313, -0.064509801566601, 0.012481756508350, -0.040985282510519, -0.000101469457150, -0.031942490488291, -0.059516511857510, -0.064426161348820, 0.020732797682285, -0.005180552601814, -0.052232053130865, 0.051181532442570, 0.056396521627903, 0.028475083410740, -0.055987488478422, 0.061098836362362, -0.035931318998337, 0.058200858533382, -0.053287763148546, -0.070635594427586, 0.050279930233955, -0.030755300074816, -0.014910846948624, -0.013758517801762, 0.013523258268833, 0.025038413703442, 0.046557232737541, -0.044151894748211, 0.008385725319386, -0.023701667785645, 0.052802942693233, -0.030930392444134, -0.009595740586519, 0.059563182294369, 0.028941348195076, 0.050456963479519, -0.052460201084614, 0.031885392963886, -0.065614067018032, 0.065997131168842, 0.016824789345264, 0.000486895442009, -0.048861972987652, -0.056203112006187, 0.010668799281120, -0.064086869359016, -0.053056918084621, -0.028536181896925, 0.054849006235600, -0.006986871361732, -0.046663828194141, -0.058706652373075, -0.012831188738346, -0.027634289115667, 0.049491055309772, 0.005578555166721, 0.040076829493046, -0.017019808292389, -0.006711483001709, 0.004967562854290, -0.019253794103861, -0.006155379116535, -0.018357601016760, -0.063294321298599, 0.058865346014500, -0.003528401255608, -0.064538277685642, -0.007941327989101, -0.039889179170132, 0.040016345679760, -0.026625428348780, -0.056755907833576, -0.036495581269264, -0.065631866455078, 0.036182276904583, 0.022613942623138, 0.021961912512779, 0.036627233028412, -0.002390958368778, 0.032820813357830, 0.014459945261478, -0.020990110933781, -0.060188367962837, -0.013671509921551, -0.060951206833124, -0.057497914880514, 0.052798897027969, -0.006703048944473, 0.000028759241104, 0.024660609662533, 0.028348423540592, -0.006238073110580, 0.031567603349686, 0.043899498879910, 0.042843349277973, 0.022477671504021, 0.001788258552551, 0.024783357977867, -0.036111608147621, 0.022406682372093, 0.026987656950951, -0.054781869053841, -0.042363837361336, 0.017738379538059, -0.001687608659267, 0.032516583800316, 0.020514219999313, 0.066480822861195, -0.003585986793041, 0.016703419387341, -0.017913423478603, -0.059085972607136, -0.023009281605482, -0.022234182804823, 0.027638249099255, -0.063657000660896, -0.024716649204493, -0.067711628973484, -0.048808060586452, -0.012923739850521, -0.052038751542568, 0.069451533257961, 0.066371105611324, 0.005709514021873, 0.012257486581802, -0.063434518873692, -0.046814493834972, -0.051423002034426, 0.049450345337391, -0.038431100547314, -0.060797538608313, -0.065780326724052, 0.059221215546131, -0.044561713933945, -0.002043463289738, -0.016989074647427, -0.033860679715872, 0.067332111299038, 0.015400677919388, 0.033089675009251, -0.053512591868639, -0.026527091860771, -0.004965998232365, 0.043388634920120, 0.050461173057556, 0.006322145462036, -0.057609468698502, -0.056903660297394, 0.029178701341152, -0.029163207858801, -0.019848216325045, 0.016866900026798, -0.050430830568075, 0.005371056497097, -0.044707000255585, 0.053715571761131, 0.034315004944801, 0.058791033923626, -0.026481743901968, 0.063536189496517, 0.019156701862812, 0.025704152882099, 0.053974807262421, 0.045122943818569, -0.027060031890869, 0.066803865134716, -0.006529845297337, -0.036722060292959, -0.039208609610796, 0.049675725400448, -0.053935810923576, 0.006435163319111, -0.009497642517090, 0.015610687434673, 0.041657105088234, -0.065255180001259, 0.007421605288982, 0.043727137148380, 0.043552748858929, 0.000368565320969, -0.005581170320511, -0.013969674706459, 0.057573713362217, 0.041833817958832, 0.029592685401440, -0.051774691790342, -0.007348373532295, 0.014234714210033, 0.039431415498257, 0.060705505311489, 0.068860732018948, 0.047120198607445, 0.005903124809265, -0.022635571658611, -0.067656852304935, -0.035595104098320, 0.046621210873127, 0.000744871795177, 0.060664556920528, -0.000535279512405, -0.014522101730108, 0.015663959085941, 0.015848904848099, 0.057781420648098, 0.037824422121048, 0.044160224497318, -0.005752541124821, -0.067699357867241, 0.016549549996853, 0.033780395984650, -0.031691968441010, 0.005546055734158, 0.001382634043694, -0.070125482976437, 0.022273160517216, 0.049276463687420, -0.037240855395794, 0.018370851874352, 0.068437106907368, 0.059474132955074, -0.028753392398357, 0.017606928944588, 0.056689448654652, -0.008258558809757, 0.069955103099346, -0.059291429817677, 0.027241498231888, 0.014567673206329, 0.069757066667080, -0.006643913686275, -0.049399346113205, 0.047976836562157, -0.069109387695789, -0.028328955173492, 0.036370255053043, 0.061056725680828, 0.066851906478405, -0.019688531756401, -0.023138012737036, -0.042879633605480, -0.020974833518267, 0.059572331607342, 0.007242448627949, 0.027472212910652, 0.053077936172485, 0.032520107924938, 0.012210682034492, -0.026359971612692, -0.006589844822884, 0.040099777281284, -0.058924652636051, -0.025896340608597, -0.018816899508238, -0.018000297248363, 0.058027885854244, -0.038490206003189, 0.055572979152203, -0.047517187893391, -0.004736632108688, -0.024480305612087, -0.043185248970985, -0.038145817816257, -0.052566934376955, -0.059900604188442, 0.043720245361328, 0.053038537502289, 0.008445978164673, -0.006730951368809, -0.069005116820335, -0.006458833813667, -0.041794840246439, 0.007972314953804, 0.009779348969460, 0.042248979210854, 0.042561642825603, -0.031771611422300, -0.069899387657642, -0.045470282435417, 0.040521956980228, -0.070465102791786, -0.040809445083141, -0.059048190712929, -0.056525722146034, -0.062274061143398, -0.032447461038828, 0.044659748673439, 0.031661070883274, -0.000199303030968, 0.014335930347443, 0.024501062929630, 0.031857542693615, -0.015662662684917, -0.028084892779589, -0.004362218081951, 0.008856028318405, 0.042410589754581, -0.047384962439537, -0.012527137994766, 0.010737210512161, -0.067992039024830, 0.006979987025261, -0.012321967631578, -0.001882143318653, 0.055499441921711, -0.000292450189590, -0.008793283253908, 0.035248138010502, -0.065144851803780, 0.036412656307220, -0.038902875036001, 0.010574832558632, -0.034299798309803, -0.037167150527239, 0.042580105364323, 0.000809319317341, 0.005149550735950, 0.068350799381733, -0.024496607482433, 0.022401437163353, -0.063335828483105, 0.063885264098644, -0.041410356760025, -0.021753977984190, -0.033324502408504, -0.013538699597120, 0.021067522466183, -0.021677087992430, -0.035968407988548, 0.049348637461662, -0.026102505624294, -0.059523001313210, 0.021944142878056, 0.017251141369343, 0.052546486258507, 0.057742826640606, -0.053225267678499, -0.006583541631699, 0.067727170884609, -0.016620002686977, 0.063349612057209, -0.004965066909790, 0.036080837249756, 0.007734164595604, -0.064259484410286, 0.017945908010006, -0.005629315972328, 0.012206941843033, -0.051638267934322, -0.069159291684628, 0.064354009926319, -0.031855802983046, -0.051606051623821, 0.054592497646809, 0.030374743044376, -0.033563069999218, -0.059105258435011, -0.015994593501091, 0.031053662300110, 0.046778485178947, -0.031773261725903, -0.012458726763725, -0.050994385033846, 0.022381581366062, 0.008615508675575, 0.021218575537205, -0.022199891507626, -0.019256778061390, 0.059169299900532, -0.066298224031925, 0.060599319636822, -0.025185745209455, -0.027850233018398, -0.039552830159664, -0.053227189928293, -0.056316927075386, 0.003075927495956, 0.028034314513206, 0.027545884251595, 0.057031981647015, -0.008896425366402, -0.007273599505424, -0.000990062952042, -0.047977223992348, -0.005189083516598, 0.022219821810722, 0.024862103164196, -0.016029980033636, -0.064152836799622, 0.064541913568974, 0.031245924532413, 0.065480701625347, -0.061826057732105, -0.017183016985655, -0.006858557462692, -0.044272385537624, 0.067450813949108, -0.030210390686989, -0.023899979889393, 0.041538923978806, 0.045190744102001, 0.028252564370632, -0.001055069267750, 0.024984635412693, 0.021960616111755, 0.039990633726120, 0.000372223556042, -0.065518759191036, 0.040866985917091, 0.055811367928982, -0.040479198098183, 0.001929700374603, 0.036666885018349, -0.069773942232132, 0.034248784184456, 0.058455608785152, 0.040218129754066, -0.013248372823000, 0.061629168689251, 0.022712670266628, -0.037951722741127, 0.025993496179581, -0.030543874949217, -0.001530878245831, 0.023885078728199, -0.023114714771509, -0.023176588118076, -0.019921012222767, 0.036937937140465, 0.060628436505795, 0.021139323711395, 0.036837898194790, 0.035299755632877, -0.066654503345490, 0.001437947154045, -0.059250108897686, -0.045084655284882, -0.007170327007771, 0.028041869401932, 0.011087469756603, 0.010222889482975, -0.053193554282188, 0.061907775700092, 0.048679322004318, -0.045136936008930, -0.040965709835291, -0.025321692228317, -0.041149877011776, 0.022518083453178, -0.051924481987953, 0.020054109394550, -0.055770736187696, -0.049414467066526, -0.004496611654758, -0.048182398080826, -0.009722772985697, 0.003695473074913, 0.053619645535946, -0.060790847986937, 0.047670751810074, 0.019870743155479, 0.046092875301838, 0.010328285396099, 0.059563748538494, -0.015001613646746, 0.017752267420292, -0.053820669651031, 0.041193589568138, -0.059932500123978, 0.070694811642170, 0.022266030311584, -0.031010691076517, 0.035126939415932, -0.050619967281818, 0.022913217544556, -0.022604435682297, -0.043286435306072, 0.061718784272671, 0.049914933741093, -0.004621401429176, 0.013164803385735, 0.056436382234097, 0.010127149522305, 0.026008285582066, -0.034376233816147, 0.041888862848282, 0.058124683797359, -0.012707799673080, 0.017497904598713, 0.046231977641582, -0.013083916157484, 0.046235248446465, 0.046128697693348, -0.051735293120146, 0.043419346213341, 0.047476150095463, -0.048744283616543, -0.021104816347361, -0.044091053307056, 0.009473614394665, -0.069708004593849, -0.032192859798670, 0.001308269798756, 0.032713472843170, 0.021870709955692, -0.051071144640446, -0.037778295576572, -0.054896101355553, -0.010510094463825, 0.029436171054840, -0.008183330297470, -0.027641203254461, -0.002873525023460, 0.000595368444920, -0.022759381681681, 0.019173666834831, -0.002207703888416, 0.034076213836670, -0.042086228728294, 0.045835085213184, 0.058814190328121, -0.005869604647160, 0.004172824323177, 0.043266385793686, 0.017622224986553, 0.023212246596813, -0.016749531030655, 0.054382063448429, -0.035765834152699, -0.066358394920826, 0.012118853628635, -0.028960634022951, 0.054191157221794, -0.050861891359091, 0.058095656335354, -0.063798010349274, -0.051830306649208, -0.066163994371891, 0.050242908298969, -0.020009100437164, 0.064847432076931, -0.053295552730560, 0.019142977893353, 0.026430204510689, -0.044087678194046, 0.045746751129627, -0.051978413015604, -0.028778847306967, -0.013852946460247, -0.029893361032009, 0.004794843494892, 0.002186238765717, 0.034245617687702, 0.014005228877068, 0.044764086604118, 0.061386831104755, 0.041749641299248, 0.060233570635319, 0.024446018040180, 0.042713589966297, 0.051845602691174, 0.025681242346764, 0.012194484472275, 0.059925280511379, -0.069741033017635, 0.030312806367874, 0.048635035753250, -0.036129646003246, -0.004185922443867, 0.064791925251484, 0.060707069933414, -0.018189840018749, -0.052384994924068, -0.063131175935268, 0.043325036764145, 0.050170145928860, -0.038337145000696, -0.030784379690886, 0.069553650915623, 0.010307244956493, 0.053919069468975, 0.002210497856140, -0.002838186919689, -0.008939128369093, 0.001171544194221, 0.056760810315609, -0.051336921751499, 0.041633807122707, -0.039602510631084, 0.013053722679615, 0.013344652950764, 0.062326006591320, 0.025888703763485, -0.003560125827789, 0.051702551543713, 0.012518309056759, -0.053847491741180, 0.017131634056568, -0.016794290393591, 0.061180762946606, -0.054053030908108, -0.031041037291288, 0.040699928998947, -0.040208160877228, 0.019557282328606, -0.003196150064468, -0.004716977477074, -0.014816995710135, 0.012225501239300, -0.026892505586147, -0.048586603254080, 0.018716722726822, 0.030766494572163, 0.028803527355194, -0.004439175128937, 0.033360630273819, 0.065627284348011, 0.035670213401318, -0.039265472441912, -0.018096931278706, 0.043407566845417, -0.041631832718849, 0.006100587546825, 0.033257149159908, -0.051565490663052, -0.059730313718319, 0.006236098706722, -0.022825200110674, -0.066366389393806, -0.051692690700293, 0.049573630094528, -0.037745118141174, -0.068510308861732, 0.023231834173203, -0.028064914047718, 0.011154048144817, -0.070288740098476, 0.050274603068829, -0.025037810206413, -0.001806415617466, 0.048210717737675, -0.038555417209864, -0.065182849764824, -0.012409500777721, 0.012997634708881, -0.010054551064968, 0.000796422362328, 0.013888485729694, 0.063474856317043, 0.037758484482765, 0.003693260252476, 0.042027994990349, 0.034348249435425, -0.020965900272131, 0.043925344944000, 0.014457501471043, -0.017146721482277, 0.063010148704052, -0.006095901131630, 0.000240184366703, -0.008021846413612, 0.016718022525311, -0.046599477529526, -0.055482350289822, -0.045106925070286, 0.011235915124416, -0.012995492666960, 0.042148672044277, -0.011621065437794, 0.017318867146969, -0.052993901073933, -0.013461299240589, -0.031099032610655, -0.018954280763865, 0.015678122639656, 0.030623510479927, 0.006828516721725, 0.038333743810654, 0.034135781228542, -0.032577525824308, -0.010384157299995, -0.065437301993370, 0.027779795229435, -0.030617158859968, -0.001573912799358, -0.007470950484276, -0.061458602547646, 0.019193470478058, -0.038080234080553, 0.023326508700848, -0.016921725124121, -0.062023136764765, 0.035069666802883, -0.069991789758205, -0.011334132403135, -0.064803615212440, 0.036122448742390, 0.027129590511322, 0.046432293951511, -0.046346917748451, 0.006802655756474, -0.043128363788128, -0.067314237356186, -0.016454350203276, 0.057372786104679, 0.010832346975803, -0.010746672749519, 0.064850829541683, 0.022211268544197, 0.056393377482891, 0.023516222834587, -0.044586345553398, -0.047986835241318, -0.015900000929832, 0.034888051450253, 0.013457693159580, -0.033567048609257, -0.052885718643665, 0.068461246788502, -0.040101699531078, -0.062198095023632, 0.001113146543503, 0.021518751978874, -0.023162137717009, 0.033767312765121, 0.044672235846519, 0.052518822252750, -0.004622764885426, -0.048035170882940, -0.051862843334675, 0.064832009375095, -0.035401314496994, 0.002495884895325, 0.047183431684971, 0.001586981117725, -0.024313017725945, 0.051297962665558, -0.070182107388973, -0.043876677751541, 0.047793462872505, -0.032620970159769, -0.006135284900665, -0.063588738441467, 0.017971448600292, -0.064509883522987, 0.001320406794548, -0.015102513134480, 0.021247610449791, -0.062197033315897, -0.005274876952171, -0.006095059216022, -0.004820197820663, 0.052871339023113, 0.067833967506886, 0.054643742740154, -0.050999965518713, -0.067338801920414, -0.067013323307037, 0.065574832260609, -0.032639887183905, -0.053451158106327, -0.029682964086533, -0.035071928054094, 0.051021985709667, 0.026486866176128, 0.036532975733280, -0.011509850621223, -0.060316592454910, 0.008456796407700, 0.062312938272953, 0.034147024154663, -0.002392053604126, -0.050090804696083, -0.016692917793989, -0.024883821606636, 0.008360654115677, 0.023567557334900, 0.063034735620022, -0.023634266108274, 0.000167444348335, 0.018955968320370, 0.012641057372093, -0.043994788080454, 0.063867352902889, 0.068208046257496, -0.021544121205807, -0.019820246845484, -0.023417752236128, -0.048816017806530, -0.031374823302031, -0.054438471794128, 0.005426608026028, -0.064646460115910, 0.009177237749100, 0.029408335685730, 0.026940807700157, 0.004605218768120, 0.014554724097252, -0.051324628293514, -0.007870860397816, -0.032347522675991, -0.070209115743637, 0.070290423929691, 0.040394805371761, 0.027047507464886, 0.059941686689854, 0.033519893884659, 0.026449106633663, -0.038453504443169, -0.048214495182037, -0.029135070741177, 0.023549824953079, 0.048530004918575, -0.044114381074905, -0.023783367127180, 0.017095282673836, 0.006652556359768, 0.051288567483425, 0.068546228110790, 0.007151648402214, 0.038456827402115, 0.020059049129486, 0.005044758319855, 0.058214537799358, -0.050495751202106, -0.019612040370703, 0.045769743621349, 0.028583839535713, -0.064096353948116, 0.026697739958763, -0.053771372884512, -0.035802163183689, 0.067729376256466, -0.020033393055201, 0.038597680628300, -0.061043474823236, 0.015896625816822, -0.047428406774998, -0.001823022961617, -0.015637356787920, 0.059930481016636, 0.020977817475796, 0.019574835896492, -0.065171405673027, -0.068651355803013, -0.041108049452305, -0.000032685697079, 0.069806344807148, 0.027031570672989, 0.068142212927341, -0.030999649316072, -0.054797023534775, -0.005653120577335, 0.066317029297352, 0.053813979029655, -0.015600573271513, -0.067472606897354, 0.057951070368290, 0.021768189966679, 0.062301434576511, -0.020649190992117, -0.007803492248058, -0.004437744617462, -0.022608548402786, -0.045273590832949, -0.029949281364679, 0.024510718882084, -0.041946738958359, -0.041382275521755, 0.017976932227612, 0.059108398854733, -0.002450518310070, 0.005454473197460, 0.066672019660473, 0.000907927751541, 0.068395383656025, 0.035638853907585, -0.063303217291832, -0.045242249965668, -0.039831355214119, 0.069888420403004, -0.028809174895287, 0.032207325100899, -0.048919983208179, -0.010245341807604, 0.038455359637737, 0.052265226840973, 0.070324160158634, -0.047547649592161, 0.005207397043705, 0.006589323282242, -0.014530260115862, 0.006699576973915, -0.004531845450401, -0.035190258175135, 0.017797566950321, -0.039747919887304, 0.046363055706024, 0.014011450111866, 0.010835602879524, -0.027201190590858, 0.012127771973610, 0.054469577968121, 0.029187977313995, -0.030209530144930, -0.040697690099478, -0.046436995267868, 0.026304237544537, 0.037825822830200, 0.046837642788887, -0.008432187139988, 0.062859378755093, 0.030875988304615, 0.042650267481804, 0.042690373957157, 0.051084190607071, -0.057529859244823, 0.026773564517498, 0.025586627423763, -0.022766668349504, 0.019297271966934, -0.045923039317131, 0.056211896240711, 0.044805824756622, 0.037950001657009, 0.042098216712475, -0.013005558401346, 0.067131496965885, -0.047281634062529, 0.008386433124542, 0.038513638079166, -0.028866868466139, -0.066537804901600, 0.038437239825726, -0.001981034874916, -0.018016498535872, 0.001211352646351, -0.004878208041191, 0.036472655832767, -0.053264312446117, -0.056557685136795, 0.041233710944653, -0.069839760661125, -0.049759212881327, -0.057672418653965, -0.052226267755032, -0.041292905807495, 0.066837660968304, -0.062251184135675, 0.058475889265537, -0.058719296008348, -0.005015932023525, 0.048417359590530, 0.021090231835842, 0.021882459521294, -0.030718564987183, -0.020979706197977, 0.067324064671993, 0.001052103936672, 0.044530965387821, -0.004455931484699, 0.060619600117207, -0.001552082598209, 0.051682017743587, -0.050111308693886, 0.057428173720837, 0.060244016349316, -0.061702754348516, 0.051473677158356, -0.041639231145382, -0.049748994410038, -0.063143834471703, 0.036389216780663, 0.045366212725639, -0.043355133384466, -0.010022468864918, -0.020883813500404, -0.056167270988226, -0.060362212359905, -0.032576870173216, 0.012312747538090, -0.053142979741096, -0.004693895578384, -0.018315959721804, -0.039197430014610, 0.017099365592003, 0.004471525549889, -0.043848082423210, -0.015905495733023, 0.048301517963409, -0.029918786138296, 0.029325544834137, 0.009647361934185, -0.006856888532639, 0.003680124878883, 0.025208741426468, 0.059681467711926, -0.013505116105080, -0.041431501507759, 0.050815634429455, -0.018082533031702, -0.028849739581347, 0.041736237704754, -0.050308838486671, 0.006374090909958, -0.047341939061880, 0.006509430706501, -0.009443119168282, 0.002277866005898, 0.054546751081944, -0.024595435708761, 0.001976385712624, 0.054023228585720, 0.035750307142735, 0.018511250615120, -0.041240558028221, -0.056482814252377, -0.069944903254509, 0.015406005084515, -0.021277215331793, 0.054286405444145, 0.051958113908768, -0.048091679811478, 0.017348907887936, 0.039317548274994, 0.068768329918385, 0.004191130399704, -0.002629019320011, -0.002163045108318, -0.017834793776274, -0.055697873234749, 0.065828047692776, 0.042890593409538, -0.038172148168087, 0.044789589941502, -0.041321903467178, -0.044322438538074, -0.067901529371738, 0.037777096033096, -0.064509853720665, 0.002179563045502, 0.069553993642330, 0.048925936222076, -0.019836653023958, 0.038822002708912, -0.003600232303143, -0.062436901032925, -0.032381374388933, 0.030478514730930, -0.067053109407425, -0.058874648064375, -0.034831337630749, 0.050652794539928, 0.019326962530613, 0.066178627312183, 0.020525820553303, 0.023627527058125, 0.067928709089756, 0.035568572580814, -0.048102825880051, -0.001881033182144, -0.011208482086658, -0.006688736379147, 0.033750705420971, -0.046259626746178, 0.039209768176079, 0.024454258382320, -0.015276480466127, -0.039648771286011, 0.015389837324619, 0.059746079146862, 0.035202465951443, 0.002876892685890, -0.059463743120432, -0.027122508734465, -0.033331770449877, -0.059369504451752, 0.058712430298328, 0.060180880129337, -0.009694248437881, -0.008108057081699, 0.032610148191452, -0.035564087331295, -0.023858133703470, -0.053788855671883, -0.066027894616127, -0.036108452826738, -0.067655004560947, 0.002745971083641, 0.029338926076889, -0.036756470799446, 0.005462251603603, 0.059368036687374, 0.028241492807865, -0.000306323170662, 0.038532555103302, -0.051614232361317, 0.063798762857914, -0.010778754949570, 0.060818292200565, -0.004464231431484, -0.065656080842018, 0.039333887398243, 0.017037831246853, 0.032415837049484, 0.064774371683598, 0.060829930007458, 0.045299753546715, 0.026497878134251, -0.022791970521212, 0.010898284614086, 0.048745125532150, -0.045813608914614, 0.042867392301559, 0.013337403535843, -0.040618471801281, -0.006397739052773, 0.019947715103626, 0.008824117481709, 0.018204540014267, -0.012008700519800, -0.035661831498146, 0.020844362676144, 0.041491486132145, -0.052553750574589, 0.067507691681385, 0.001715376973152, -0.066611178219318, 0.062519453465939, -0.009955879300833, 0.040489599108696, -0.006740920245647, 0.007027566432953, -0.029247216880322, 0.012931697070599, -0.056623920798302, 0.014168977737427, -0.011161934584379, 0.036628767848015, -0.048434332013130, 0.024661585688591, 0.042057923972607, -0.036191113293171, 0.063049845397472, -0.034686502069235, -0.038163062185049, 0.040824502706528, 0.025212906301022, -0.018253192305565, -0.009766925126314, -0.008404232561588, -0.044627025723457, 0.026311792433262, 0.062782607972622, 0.042125508189201, -0.045658156275749, -0.048584107309580, -0.014651980251074, 0.038773752748966, 0.031253002583981, -0.063662365078926, -0.056501898914576, 0.019674018025398, 0.061773218214512, 0.049317881464958, -0.001800835132599, -0.027473744004965, -0.013239234685898, -0.064778663218021, 0.046295873820782, 0.070192240178585, 0.014182277023792, -0.000850930809975, 0.053122870624065, -0.070495128631592, -0.034016825258732, -0.063799612224102, -0.001733548939228, -0.028517182916403, 0.059854276478291, 0.032569959759712, -0.035470113158226, -0.064396597445011, -0.015513751655817, 0.010879568755627, 0.052930593490601, -0.061913266777992, 0.060361258685589, -0.055980913341045, -0.053064607083797, 0.060566030442715, 0.057336546480656, 0.015043407678604, -0.028253715485334, 0.005366995930672, -0.000368699431419, 0.038959011435509, -0.066218733787537, -0.060336858034134, 0.030979350209236, 0.017873480916023, 0.065306209027767, -0.022069204598665, 0.055655993521214, -0.011838376522064, 0.048202596604824, 0.055279709398746, 0.051876634359360, 0.065031848847866, 0.062668643891811, -0.058660004287958, 0.057205431163311, 0.002121776342392, -0.056826613843441, -0.028150994330645, 0.009942576289177, -0.012773428112268, 0.001838833093643, -0.015813581645489, -0.002548635005951, 0.016542501747608, 0.002632983028889, 0.002471156418324, -0.051683772355318, -0.069232657551765, -0.018248844891787, 0.004812851548195, 0.008419342339039, -0.032698251307011, -0.002496995031834, -0.069810152053833, 0.029704675078392, 0.040626347064972, 0.018706999719143, 0.059769101440907, -0.027680721133947, -0.039539881050587, 0.070691518485546, 0.066594801843166, 0.049493618309498, 0.002562932670116, 0.019066981971264, -0.003408432006836, 0.021123543381691, 0.055697016417980, 0.066901691257954, 0.038858182728291, -0.024784944951534, -0.026942189782858, 0.001932345330715, -0.020112831145525, 0.029883079230785, 0.019555009901524, -0.006391607224941, -0.063725970685482, 0.016357392072678, 0.026583030819893, 0.036311216652393, -0.050074703991413, 0.037223488092422, 0.065432347357273, -0.034188952296972, -0.040391687303782, 0.052031919360161, 0.039361618459225, -0.053053446114063, -0.045910127460957, -0.031278457492590, -0.008226796984673, -0.043481454253197, -0.030818030238152, 0.047247797250748, 0.020501405000687, -0.019123729318380, -0.011721409857273, -0.027079738676548, 0.061982057988644, 0.037768214941025, 0.024755574762821, 0.061298720538616, -0.022469580173492, 0.018066264688969, -0.009803745895624, 0.014037750661373, 0.003678441047668, -0.032392803579569, 0.032258167862892, 0.024990722537041, -0.022042870521545, -0.014786716550589, 0.057019568979740, -0.025225952267647, -0.019594136625528, -0.054420519620180, 0.008283525705338, 0.038312703371048, -0.020891483873129, 0.016463994979858, -0.019903648644686, 0.015544705092907, -0.005744613707066, -0.023947469890118, -0.026664052158594, 0.056929700076580, -0.002012260258198, -0.022839885205030, 0.005697071552277, -0.016145464032888, -0.042871337383986, -0.069931469857693, -0.054506853222847, 0.037982791662216, -0.009447149932384, -0.055889051407576, -0.019070051610470, -0.028806850314140, -0.006580807268620, 0.019567281007767, 0.050457336008549, 0.014587700366974, 0.039532080292702, 0.062599755823612, 0.047237128019333, -0.062677629292011, 0.057875804603100, 0.036636136472225, -0.012775115668774, 0.005921617150307, -0.038353297859430, 0.069050945341587, 0.013374559581280, 0.010112397372723, 0.039987631142139, 0.064985446631908, 0.006022043526173, 0.052891902625561, -0.001569986343384, 0.020220004022121, 0.049953982234001, -0.008729405701160, -0.035805366933346, 0.009790040552616, 0.026472337543964, -0.040012802928686, 0.061840154230595, -0.040881671011448, 0.052049390971661, -0.064443700015545, -0.001274786889553, 0.054271757602692, -0.070528253912926, 0.034358598291874, 0.053978361189365, -0.039960894733667, -0.027587354183197, -0.022894136607647, -0.021266102790833, 0.013868607580662, 0.064775340259075, 0.019558176398277, 0.010561883449554, 0.066406406462193, 0.051502525806427, 0.023916885256767, 0.060228057205677, -0.004031226038933, -0.023385684937239, -0.027429439127445, -0.021211344748735, 0.034029588103294, -0.025227788835764, 0.018721073865891, -0.068308241665363, 0.056171886622906, -0.061820074915886, -0.008322536945343, 0.047656401991844, 0.049768887460232, 0.044878639280796, -0.039274256676435, 0.019637428224087, -0.059676080942154, 0.018810845911503, -0.036790896207094, 0.069301359355450, -0.059100437909365, 0.016850478947163, -0.064478479325771, -0.017901554703712, -0.068537794053555, -0.014400869607925, 0.023179315030575, -0.066885568201542, -0.035016950219870, -0.028512276709080, 0.020177938044071, -0.020025823265314, -0.007363393902779, -0.045820198953152, 0.027992911636829, -0.045681234449148, -0.062052488327026, 0.067204602062702, -0.026393167674541, 0.009312883019447, -0.063812725245953, 0.011291496455669, 0.046235583722591, -0.029808476567268, 0.043619729578495, -0.019728753715754, -0.053251042962074, 0.028152979910374, -0.011038798838854, -0.029857367277145, -0.049796875566244, 0.048866003751755, 0.039743334054947, -0.059040959924459, -0.064462475478649, -0.066653624176979, -0.013797815889120, 0.069809086620808, -0.059770658612251, 0.051481701433659, -0.038462910801172, 0.032699599862099, 0.069252945482731, -0.022600792348385, 0.048542901873589, -0.053546577692032, 0.055103875696659, 0.043760739266872, 0.055703155696392, 0.037531383335590, -0.051118195056915, 0.062476463615894, 0.021111473441124, -0.043070137500763, 0.048324666917324, 0.018213994801044, 0.052085585892200, 0.065714217722416, 0.060427345335484, 0.038156554102898, -0.033404853194952, -0.034034930169582, 0.019104003906250, -0.023586623370647, -0.005966760218143, 0.046208254992962, -0.043020032346249, 0.039332248270512, 0.069541715085506, 0.042258456349373, -0.027548093348742, 0.032707571983337, -0.008505519479513, 0.059405349195004, 0.044695220887661, 0.020486705005169, 0.020849660038948, -0.007320456206799, 0.039931878447533, 0.032182946801186, -0.033779673278332, -0.064761482179165, -0.011903956532478, -0.060776636004448, -0.041793592274189, -0.061863988637924, -0.053661707788706, 0.016420364379883, 0.044760964810848, -0.051148187369108, -0.059603080153465, 0.066859252750874, -0.002158612012863, -0.062946453690529, 0.055361844599247, -0.043433494865894, 0.010782852768898, -0.000706315040588, 0.056771092116833, 0.061272628605366, -0.052755601704121, -0.031043834984303, -0.056335419416428, 0.047671392560005, -0.070098504424095, -0.012478217482567, 0.012175820767879, 0.027101792395115, 0.026662923395634, -0.019919730722904, -0.029010452330112, -0.040360920131207, -0.052398227155209, 0.068147726356983, 0.011796347796917, -0.044456668198109, 0.059804491698742, -0.034017380326986, -0.014164712280035, -0.015775110572577, -0.003486402332783, 0.049920260906219, 0.034390985965729, -0.019769839942455, 0.028557881712914, -0.057127915322781, 0.019324027001858, 0.031803578138351, 0.018651165068150, 0.026129074394703, -0.010800365358591, 0.049493364989758, -0.019033685326576, 0.011082798242569, 0.057492293417454, 0.021478593349457, -0.031289905309677, 0.003200195729733, 0.062281973659992, 0.053791671991348, -0.022479105740786, -0.050332374870777, 0.045278884470463, -0.023034181445837, 0.044281102716923, 0.014679074287415, 0.025604866445065, 0.006366737186909, -0.052166439592838, 0.001139804720879, 0.006672725081444, -0.011991858482361, 0.003937609493732, -0.041743773967028, 0.030783332884312, 0.012447446584702, 0.037328332662582, -0.026317503303289, -0.054629854857922, 0.063868574798107, -0.003932759165764, -0.061060670763254, -0.069743886590004, -0.048001319169998, -0.013228278607130, 0.046245291829109, -0.040816560387611, -0.041275031864643, 0.047546252608299, 0.034703932702541, -0.042084053158760, -0.038253746926785, 0.067599333822727, 0.040812328457832, -0.057179875671864, -0.008489251136780, -0.026855584233999, 0.052493870258331, -0.037095263600349, -0.016166724264622, 0.006954215466976, 0.002008095383644, -0.018810931593180, -0.043861314654350, -0.052864104509354, 0.049173690378666, -0.007669545710087, -0.040585711598396, 0.033303633332253, -0.050963751971722, -0.008369773626328, -0.065956652164459, 0.017169550061226, -0.025978241115808, -0.041735261678696, -0.026298504322767, -0.062434539198875, -0.055188637226820, -0.044016234576702, -0.038562681525946, -0.012721017003059, 0.046914353966713, 0.043388158082962, 0.019265614449978, 0.015387475490570, -0.039644002914429, 0.030659340322018, -0.030402749776840, -0.000994279980659, 0.030544191598892, -0.031868144869804, 0.053323030471802, 0.015100657939911, -0.017787739634514, 0.060168214142323, 0.021762780845165, 0.012800827622414, 0.036432094871998, 0.027305677533150, 0.052297025918961, 0.049734830856323, 0.049489907920361, -0.012966141104698, -0.052098684012890, 0.045298203825951, -0.060050815343857, -0.064389988780022, 0.049624189734459, -0.066247969865799, -0.039872877299786, 0.067696399986744, 0.057498700916767, 0.039215371012688, -0.062861286103725, 0.057372547686100, -0.048698075115681, -0.054154150187969, -0.050002366304398, 0.047929868102074, 0.016471154987812, -0.026385784149170, -0.031909652054310, 0.040368892252445, -0.010301820933819, 0.003572195768356, 0.010852359235287, -0.062031142413616, -0.036258429288864, 0.000967368483543, 0.043574631214142, 0.031685814261436, -0.035785000771284, -0.066486455500126, -0.003366217017174, 0.042188473045826, 0.018023781478405, -0.014518477022648, -0.054340101778507, -0.046423170715570, 0.059189356863499, 0.066719852387905, 0.062470577657223, -0.022281169891357, 0.011895529925823, -0.014251217246056, 0.011050567030907, 0.012380637228489, -0.012071348726749, 0.025115139782429, 0.009094111621380, -0.013292729854584, -0.044663183391094, 0.063353456556797, 0.052757643163204, -0.019416529685259, -0.019396789371967, 0.018881633877754, -0.067526809871197, 0.009649403393269, -0.007467828691006, -0.044964335858822, -0.055752512067556, 0.029338791966438, 0.008400641381741, -0.048936285078526, 0.010191224515438, -0.068891353905201, 0.048623755574226, 0.031963735818863, 0.038823112845421, -0.060020014643669, -0.069437287747860, -0.038412015885115, -0.052650555968285, -0.004353113472462, 0.032691240310669, -0.017021190375090, -0.044149480760098, -0.037048127502203, 0.048670426011086, 0.054636947810650, -0.056340359151363, 0.030252844095230, -0.049963455647230, 0.066249080002308, 0.056547857820988, -0.037797782570124, 0.029216110706329, 0.019248820841312, 0.026465319097042, 0.059962414205074, -0.017053980380297, 0.008789807558060, -0.055481441318989, 0.014840528368950, -0.041843697428703, -0.068101435899734, -0.017009627074003, -0.038720414042473, 0.002860508859158, -0.005449265241623, -0.015223696827888, 0.023679159581661, -0.000080041587353, 0.042289927601814, 0.047995835542679, 0.005735866725445, 0.057741634547710, 0.050591796636581, 0.023463644087315, -0.050941482186317, 0.040701955556870, -0.052601713687181, 0.061484105885029, 0.032341994345188, 0.011742800474167, -0.037891503423452, -0.042752500623465, -0.037326313555241, 0.035952188074589, 0.025203764438629, 0.034592434763908, -0.033191759139299, 0.034771606326103, -0.051505271345377, -0.000338874757290, 0.054886512458324, 0.041464462876320, -0.014926746487617, -0.055664744228125, -0.017758693546057, 0.010392434895039, -0.001428946852684, -0.054696783423424, 0.040979109704494, 0.032563991844654, 0.050632193684578, 0.028163857758045, -0.006692714989185, -0.068567581474781, -0.049058429896832, -0.051004044711590, -0.037904094904661, 0.016664996743202, -0.030832543969154, 0.019692659378052, 0.050198465585709, 0.003455854952335, -0.055921435356140, 0.026557557284832, 0.034456670284271, 0.064474545419216, 0.039169073104858, 0.068106867372990, 0.033516421914101, 0.068013660609722, -0.039750479161739, 0.062153689563274, -0.035532072186470, -0.002662464976311, -0.018980227410793, -0.016742601990700, -0.038286738097668, -0.011120211333036, 0.028846167027950, 0.001661054790020, 0.064606733620167, -0.044753093272448, -0.042955767363310, 0.040016561746597, 0.020630426704884, 0.054815284907818, -0.065503269433975, 0.026255495846272, -0.014685109257698, -0.000875927507877, 0.070415802299976, 0.040634654462337, 0.016377337276936, 0.035048142075539, -0.049439031630754, 0.035442672669888, -0.011383779346943, 0.042876377701759, 0.012820869684219, 0.051197968423367, -0.044293910264969, -0.027275335043669, 0.000144124031067, 0.045555822551250, 0.042397536337376, -0.053199559450150, 0.043248280882835, -0.064936295151711, 0.027703039348125, 0.017295703291893, 0.038094192743301, 0.000184364616871, -0.035218466073275, 0.026500470936298, 0.050791844725609, 0.063422374427319, -0.025718867778778, 0.005450226366520, -0.057456254959106, -0.042443022131920, 0.065663285553455, 0.031001247465611, 0.024411693215370, -0.052462797611952, -0.025697946548462, 0.055682532489300, -0.008316401392221, 0.042159207165241, 0.024714067578316, 0.011255487799644, -0.038933154195547, -0.054832108318806, -0.046921178698540, 0.025400541722775, 0.005482360720634, 0.037511572241783, 0.004234969615936, -0.034004382789135, -0.004759579896927, -0.034345399588346, 0.056739367544651, 0.007061533629894, 0.031358592212200, 0.005363002419472, -0.047929972410202, -0.041882790625095, -0.032560497522354, -0.036487337201834, 0.060512520372868, -0.004364036023617, -0.017987180501223, -0.045864135026932, 0.063641168177128, 0.018551543354988, -0.041370570659637, -0.069608777761459, 0.063726998865604, -0.058220952749252, 0.049544483423233, 0.057099573314190, 0.069813869893551, 0.019222989678383, -0.062882021069527, -0.015312135219574, -0.020452249795198, 0.061276711523533, -0.068560637533665, -0.048998005688190, -0.018885616213083, -0.039324462413788, -0.003419779241085, -0.028676260262728, -0.038169302046299, 0.002411559224129, -0.042742639780045, 0.061821810901165, 0.031398743391037, 0.011461615562439, 0.041783794760704, 0.054074510931969, 0.017693534493446, 0.010876990854740, 0.004120983183384, -0.040377795696259, 0.061283446848392, -0.069865398108959, -0.047771971672773, -0.055730879306793, -0.046121533960104, 0.056718058884144, -0.058219399303198, 0.056848622858524, 0.066921763122082, 0.066390000283718, -0.025096714496613, 0.048469416797161, 0.006704248487949, -0.052260156720877, -0.033858116716146, 0.062108464539051, -0.044572316110134, -0.062285963445902, 0.022636547684669, 0.011598236858845, -0.041421569883823, -0.040162764489651, -0.047949023544788, -0.009859226644039, -0.012571901082993, -0.062604241073132, -0.063758186995983, -0.066084757447243, -0.023205853998661, 0.047196514904499, -0.067841455340385, 0.070273347198963, -0.000068157911301, -0.066326498985291, -0.001248002052307, 0.015400223433971, -0.064009621739388, -0.045973584055901, 0.004640251398087, 0.019929558038712, -0.016308270394802, 0.012358620762825, 0.024521626532078, -0.001554057002068, 0.019795805215836, -0.002238944172859, -0.058295279741287, -0.024282064288855, 0.013995707035065, 0.054565228521824, 0.026757009327412, -0.021128300577402, 0.063460983335972, -0.059256970882416, -0.069429077208042, -0.053281508386135, 0.065213032066822, -0.002000950276852, 0.037333205342293, -0.012928038835526, 0.069344051182270, 0.066158421337605, 0.068915106356144, -0.052164044231176, 0.042796753346920, 0.069024868309498, 0.028683781623840, 0.005903832614422, 0.014752984046936, -0.053607270121574, 0.004515983164310, 0.061516039073467, 0.058270953595638, 0.009858854115009, 0.040183566510677, -0.022497989237309, 0.026719450950623, -0.056985460221767, -0.036178097128868, -0.018264304846525, 0.002473309636116, -0.064123027026653, 0.023469120264053, -0.065040662884712, -0.064361512660980, 0.028662338852882, 0.036505699157715, 0.034034304320812, 0.038136422634125, -0.030985809862614, -0.026380591094494, 0.032462447881699, -0.036475181579590, 0.047662943601608, -0.069220989942551, 0.026113264262676, 0.062889106571674, -0.067591562867165, -0.029457427561283, 0.003400541841984, 0.061002321541309, 0.016155965626240, -0.066505387425423, -0.022775974124670, 0.017556875944138, 0.019161731004715, -0.035196445882320, -0.015709009021521, 0.048980034887791, -0.050364658236504, -0.070519752800465, -0.023007106035948, 0.028252586722374, 0.005848295986652, 0.040090508759022, 0.011221781373024, 0.047369822859764, 0.007540680468082, 0.001174315810204, -0.003000602126122, -0.003045782446861, 0.046485207974911, 0.020464062690735, -0.053120035678148, -0.048546142876148, -0.004065148532391, 0.028539538383484, -0.039944000542164, 0.014140635728836, 0.020165681838989, -0.018175695091486, 0.052828818559647, -0.065722905099392, -0.021197926253080, 0.044000789523125, 0.063582785427570, -0.058284088969231, -0.027433451265097, -0.038870707154274, 0.039616554975510, 0.003097139298916, 0.057741858065128, 0.029065646231174, -0.057251356542110, -0.044286746531725, 0.067343227565289, -0.054693832993507, 0.011007376015186, 0.056310586631298, -0.069920644164085, -0.000163376331329, -0.036362279206514, -0.043210521340370, 0.018014796078205, 0.024681381881237, 0.017066217958927, 0.016416549682617, 0.045348614454269, 0.050382763147354, 0.045177578926086, -0.026180680841208, -0.065862357616425, -0.056712061166763, -0.018844481557608, 0.038110494613647, -0.008046224713326, -0.008014932274818, 0.011528998613358, -0.004375264048576, 0.002998277544975, 0.002373442053795, -0.058669812977314, 0.012225434184074, -0.066045820713043, 0.055234365165234, 0.048847690224648, 0.020941928029060, 0.043309919536114, -0.022102668881416, 0.065228424966335, 0.021714583039284, -0.016884230077267, -0.069934777915478, -0.048323757946491, 0.012565828859806, 0.051322087645531, 0.013283982872963, 0.037137359380722, 0.047422796487808, 0.042230874300003, 0.009657226502895, -0.028659250587225, -0.069773271679878, 0.000924751162529, -0.046153295785189, -0.029058903455734, -0.050298251211643, 0.066991232335567, 0.029971741139889, 0.067189343273640, 0.003165006637573, 0.025487311184406, 0.012330584228039, -0.053064435720444, 0.050690434873104, -0.016454856842756, -0.005591183900833, -0.061475209891796, -0.043442461639643, 0.036817871034145, -0.033350382000208, -0.025339193642139, -0.013467133045197, -0.056227471679449, -0.069101884961128, 0.055405877530575, 0.037762485444546, -0.009321164339781, 0.057273142039776, 0.055283956229687, -0.061674650758505, -0.002729699015617, 0.050164565443993, 0.065340273082256, 0.065563313663006, 0.017415702342987, 0.027221739292145, -0.040138181298971, 0.018185958266258, -0.035205751657486, -0.029117960482836, 0.013380222022533, -0.041580211371183, 0.054007932543755, 0.009621873497963, -0.021817501634359, -0.020086903125048, -0.020306404680014, 0.036140248179436, -0.046722076833248, 0.045455731451511, 0.051196113228798, 0.003159224987030, 0.035282693803310, -0.001061342656612, -0.010015979409218, 0.002339079976082, -0.058385103940964, 0.021831259131432, -0.003381595015526, 0.059534378349781, -0.067367538809776, -0.063931800425053, -0.028359334915876, 0.049902513623238, -0.014014385640621, -0.065819926559925, -0.067724496126175, 0.023310713469982, 0.066846065223217, 0.045622467994690, 0.004279457032681, 0.010048687458038, 0.014159791171551, 0.002146199345589, -0.047445587813854, 0.001279458403587, -0.041985496878624, -0.010226007550955, -0.048182364553213, -0.046134904026985, 0.069973222911358, -0.001055710017681, 0.052239723503590, 0.049595005810261, -0.026016980409622, -0.027659680694342, -0.068209469318390, 0.054204307496548, -0.053524713963270, 0.052531123161316, -0.005188748240471, 0.038347713649273, -0.003064736723900, 0.020780384540558, 0.030129522085190, 0.019593618810177, -0.012821275740862, 0.011214435100555, -0.047653168439865, -0.035967785865068, 0.024526096880436, 0.053114272654057, 0.012763671576977, -0.067787475883961, -0.044523037970066, -0.044926568865776, -0.005386434495449, 0.042877390980721, 0.067205406725407, 0.025162279605865, -0.068862274289131, 0.013737663626671, 0.055895872414112, -0.016502212733030, -0.053127419203520, -0.003082334995270, 0.065583311021328, -0.018090456724167, 0.052243232727051, 0.047093711793423, -0.031822573393583, 0.021116867661476, -0.059118948876858, 0.055120460689068, 0.027735695242882, -0.062048964202404, 0.051117062568665, -0.056929875165224, -0.003997460007668, 0.052816055715084, 0.059265352785587, -0.010169900953770, 0.063524864614010, 0.007280647754669, -0.028043974190950, 0.054426617920399, -0.008123181760311, 0.035186283290386, 0.037831336259842, 0.036067031323910, -0.059375640004873, 0.058424003422260, 0.055784992873669, 0.030660197138786, -0.002283446490765, -0.041337460279465, -0.047507241368294, 0.041949346661568, 0.034249104559422, -0.051918059587479, 0.050653554499149, 0.032035514712334, 0.003471672534943, -0.023388974368572, -0.026835270226002, -0.005699954926968, -0.057544730603695, 0.001856416463852, 0.001888483762741, -0.054333373904228, 0.045394554734230, 0.029715284705162, 0.010617382824421, 0.015658445656300, 0.036635629832745, -0.048625156283379, -0.012958843261003, 0.041784048080444, -0.069277487695217, 0.013661853969097, -0.067976497113705, -0.038840293884277, 0.017776578664780, 0.003036901354790, 0.038636051118374, 0.042232491075993, 0.063497729599476, 0.015567764639854, -0.043256208300591, -0.005916945636272, -0.004153653979301, 0.067965842783451, -0.066009216010571, -0.009629596024752, 0.002420209348202, -0.061469748616219, -0.023469928652048, 0.039039477705956, -0.063822083175182, 0.014122411608696, 0.059248037636280, 0.058276988565922, 0.045749105513096, -0.032288551330566, -0.024077095091343, -0.025861002504826, 0.044010452926159, 0.014798656105995, -0.023991588503122, 0.062027655541897, 0.020240858197212, -0.016805518418550, 0.033642545342445, -0.060169938951731, -0.053903244435787, 0.026551067829132, 0.018212988972664, 0.016147337853909, -0.026968538761139, 0.063948161900043, -0.032763190567493, -0.005154758691788, 0.011471360921860, -0.013007175177336, 0.022502340376377, 0.056512020528316, -0.002032473683357, 0.048726156353951, 0.044826529920101, -0.055542130023241, -0.042303215712309, 0.004899926483631, -0.015462871640921, 0.032445080578327, -0.025570612400770, -0.027111198753119, -0.065176039934158, 0.022719278931618, -0.067334316670895, -0.016028817743063, -0.014123611152172, 0.028900586068630, -0.040691435337067, -0.042154774069786, 0.044754207134247, -0.065687216818333, -0.069876581430435, 0.006607241928577, -0.016900077462196, 0.048750281333923, -0.041880548000336, -0.007068954408169, 0.003277286887169, -0.057211518287659, 0.046064116060734, 0.008839577436447, -0.005729675292969, 0.064981304109097, 0.035308219492435, 0.054417513310909, 0.066916458308697, -0.023154772818089, 0.038122937083244, 0.040657870471478, 0.008984461426735, 0.026580974459648, 0.038232252001762, 0.038161277770996, -0.037872705608606, -0.034533105790615, -0.016436461359262, 0.049224860966206, 0.016609638929367, -0.056708335876465, -0.002681687474251, 0.002918183803558, 0.023077994585037, -0.047570005059242, 0.046823836863041, -0.049247145652771, -0.004851959645748, 0.049997024238110, 0.066359646618366, 0.003723457455635, -0.008097626268864, 0.030643403530121, 0.029845446348190, -0.042037539184093, 0.036590173840523, -0.017714370042086, -0.070347473025322, 0.059940926730633, -0.054444275796413, 0.007372155785561, -0.053459569811821, 0.014936506748199, 0.020102024078369, 0.057142056524754, -0.055299382656813, 0.038774751126766, -0.006061322987080, 0.045675672590733, -0.049795895814896, -0.056669086217880, -0.011302758008242, -0.052372351288795, 0.022088371217251, 0.012345671653748, -0.047816343605518, 0.033896252512932, -0.015455029904842, 0.014912165701389, 0.021879509091377, -0.058285959064960, 0.016205057501793, -0.019791133701801, -0.064362660050392, -0.062712438404560, -0.043468624353409, -0.026454180479050, 0.063293360173702, -0.051950022578239, 0.004676833748817, -0.014993015676737, -0.060475587844849, 0.031511381268501, -0.022634997963905, 0.009323306381702, -0.028039775788784, -0.010485984385014, -0.038261853158474, -0.021928466856480, -0.054042644798756, 0.044029615819454, -0.062050666660070, 0.049057617783546, -0.009831156581640, 0.060104556381702, 0.004195518791676, 0.017375007271767, -0.067224279046059, 0.048449307680130, -0.067245163023472, -0.055361032485962, 0.007450267672539, 0.039466381072998, -0.058369643986225, -0.027124129235744, 0.012804485857487, 0.016506850719452, -0.052751488983631, -0.049794681370258, 0.045631550252438, 0.007781036198139, 0.042339190840721, 0.043795533478260, 0.003260716795921, -0.017550941556692, -0.049447122961283, -0.017566822469234, -0.005531214177608, -0.031018681824207, -0.038699492812157, 0.058192335069180, -0.039626032114029, -0.064444452524185, 0.061658717691898, -0.036924771964550, -0.029345858842134, -0.028653096407652, -0.067648440599442, -0.046195395290852, 0.009722501039505, -0.039498139172792, 0.039439707994461, -0.023058120161295, -0.004116699099541, -0.055201146751642, 0.011910848319530, 0.016402326524258, -0.054140999913216, -0.029748577624559, 0.017775736749172, -0.033238943666220, 0.068823046982288, 0.019254706799984, -0.055679682642221, -0.024785246700048, -0.000181987881660, -0.004400216042995, -0.055462911725044, -0.059871152043343, 0.000238873064518, -0.001942969858646, 0.005100511014462, -0.037440057843924, 0.054077327251434, 0.006205298006535, -0.006603874266148, 0.050503522157669, 0.054449208080769, -0.017499338835478, 0.060511089861393, 0.057886771857738, -0.003062322735786, -0.038104631006718, 0.056105174124241, 0.007293783128262, 0.038802832365036, 0.037069402635098, -0.001843236386776, 0.005264766514301, 0.033345393836498, -0.010543171316385, -0.048976190388203, 0.056887798011303, 0.003347538411617, -0.065625667572021, -0.026709303259850, -0.043521665036678, 0.028418488800526, 0.038956314325333, 0.045889325439930, 0.017525404691696, 0.026541538536549, -0.051304180175066, 0.038771413266659, 0.019076995551586, 0.048151053488255, 0.012406699359417, 0.007598996162415, 0.020748473703861, 0.011941686272621, -0.016796380281448, 0.009335152804852, 0.051314450800419, -0.001660875976086, -0.023031532764435, -0.038283247500658, 0.051198698580265, -0.015037879347801, -0.007062450051308, 0.046142607927322, -0.044563785195351, 0.022781871259212, -0.037487633526325, -0.062175218015909, 0.040278226137161, -0.022604871541262, -0.067488670349121, 0.046513535082340, 0.031303390860558, -0.037255253642797, -0.022525519132614, 0.069910563528538, -0.005945049226284, -0.002168655395508, 0.063486553728580, 0.021631754934788, 0.014791958034039, -0.015819650143385, 0.041905634105206, 0.011619329452515, -0.026505883783102, 0.014625914394855, 0.037333339452744, -0.051066759973764, -0.068684481084347, -0.018297750502825, -0.030908763408661, -0.066805422306061, 0.055202893912792, -0.042810223996639, 0.006423838436604, -0.030500005930662, -0.062401868402958, 0.004484809935093, -0.025201961398125, 0.056712545454502, -0.057999040931463, 0.005499958992004, 0.065522424876690, -0.058806002140045, -0.066256925463676, 0.018020324409008, 0.031339198350906, 0.021992817521095, 0.061109311878681, 0.006335511803627, -0.030055373907089, 0.018102645874023, -0.052931994199753, -0.033253815025091, 0.006609842181206, 0.064814843237400, -0.045120768249035, -0.033196713775396, -0.012378562241793, 0.030096344649792, -0.013874508440495, 0.064867921173573, -0.006327137351036, 0.040047079324722, -0.045751027762890, 0.041033364832401, 0.040215037763119, -0.042100302875042, -0.020349156111479, 0.043276384472847, 0.062610648572445, -0.045917443931103, 0.009620353579521, -0.062386021018028, 0.052873373031616, 0.013583034276962, 0.012258477509022, 0.067434154450893, 0.068385489284992, -0.016394753009081, 0.017366252839565, -0.062285508960485, 0.059294514358044, 0.064011074602604, -0.030968915671110, 0.033168792724609, 0.064236350357533, 0.005244567990303, 0.069229148328304, -0.001015432178974, 0.065545983612537, 0.067752324044704, 0.018568791449070, -0.036753892898560, -0.062424611300230, -0.053764224052429, 0.067395888268948, 0.042237952351570, 0.011071205139160, -0.019817348569632, -0.004304356873035, -0.068726606667042, -0.003406241536140, 0.001170195639133, 0.063264094293118, -0.050668470561504, 0.068472005426884, 0.033857494592667, -0.021268077194691, -0.019363071769476, 0.065896205604076, -0.058673541992903, -0.060126714408398, 0.024132139980793, 0.065228275954723, -0.038559056818485, -0.013335533440113, -0.008393038064241, -0.033832423388958, -0.049526073038578, 0.055614314973354, -0.001538611948490, -0.030287351459265, 0.063473947346210, -0.069131240248680, 0.016949646174908, -0.004350870847702, -0.025376737117767, 0.066359214484692, 0.051460847258568, 0.026851452887058, 0.035437360405922, -0.069639392197132, -0.043855365365744, 0.001649104058743, -0.058020990341902, -0.039992202073336, -0.020091235637665, 0.069474227726460, 0.063284896314144, 0.053569592535496, -0.040965288877487, 0.032590150833130, 0.047083325684071, 0.065714173018932, 0.006319887936115, 0.036796376109123, 0.050719819962978, 0.035790383815765, 0.011620998382568, -0.039894033223391, 0.019650548696518, 0.013670951128006, 0.026190526783466, 0.000548720359802, 0.067738853394985, -0.044893205165863, -0.022896613925695, -0.059038430452347, 0.014724627137184, 0.026737928390503, 0.023877099156380, -0.029760025441647, 0.061453722417355, -0.002589702606201, -0.033872142434120, 0.070286042988300, -0.058739475905895, 0.013224668800831, -0.052093356847763, 0.021471276879311, 0.006379872560501, -0.009184539318085, -0.042692787945271, -0.032753195613623, 0.009253337979317, -0.034193791449070, 0.051161468029022, -0.009357072412968, 0.033525884151459, -0.025087442249060, -0.046551771461964, -0.020474400371313, -0.022655636072159, -0.064444877207279, 0.012009240686893, 0.043934822082520, -0.004114985466003, -0.058127418160439, 0.038221441209316, 0.017633631825447, 0.014807589352131, 0.067597545683384, -0.033360209316015, -0.022200044244528, -0.024243965744972, -0.007051371037960, 0.041172385215759, 0.065700434148312, 0.045999154448509, -0.019981652498245, 0.008847028017044, 0.052894636988640, 0.047329448163509, 0.068303726613522, 0.020238213241100, 0.024440787732601, 0.021028146147728, 0.017923973500729, 0.057845748960972, -0.045842237770557, 0.040343858301640, 0.042354688048363, -0.061118312180042, 0.018915273249149, -0.025394506752491, -0.047519698739052, -0.016356568783522, 0.005263261497021, -0.011703725904226, -0.052688520401716, -0.058956075459719, -0.017938710749149, -0.055135495960712, 0.016809903085232, -0.017706397920847, 0.017939232289791, 0.058626957237720, 0.006612673401833, -0.058204665780067, -0.001716122031212, -0.044232375919819, -0.007242731750011, 0.043221816420555, -0.035110030323267, 0.045412272214890, 0.005045972764492, -0.038072630763054, -0.061646562069654, 0.058522202074528, 0.012597590684891, -0.064333960413933, 0.060166396200657, -0.056451793760061, 0.049538634717464, 0.050809919834137, -0.020495306700468, 0.054882295429707, -0.002549782395363, 0.038921490311623, -0.069886557757854, -0.010242778807878, -0.067760691046715, 0.020479507744312, 0.060493387281895, 0.040535204112530, 0.045384995639324, 0.005315594375134, 0.023879192769527, -0.044762551784515, -0.070165857672691, -0.033459659665823, 0.051061108708382, 0.007294289767742, 0.055747695267200, 0.068703792989254, -0.047779221087694, -0.018754724413157, 0.020789206027985, -0.036081343889236, -0.032387595623732, 0.003718957304955, -0.067902624607086, -0.069462813436985, -0.009525392204523, 0.020855724811554, -0.070518255233765, -0.006115861237049, -0.047068774700165, 0.038409605622292, 0.029711283743382, 0.036486074328423, -0.068781383335590, 0.065031938254833, 0.064972437918186, -0.040422134101391, -0.044930599629879, -0.038049466907978, 0.009516656398773, -0.010688424110413, 0.034304179251194, -0.067113012075424, -0.035072248429060, 0.012071110308170, -0.057253159582615, -0.020573142915964, 0.019706584513187, 0.051253281533718, -0.065343834459782, -0.023939058184624, 0.020457208156586, 0.034138694405556, -0.006034404039383, -0.017689909785986, -0.018670514225960, 0.045174159109592, -0.035913821309805, -0.005964301526546, -0.057984337210655, -0.028090253472328, -0.070161640644073, 0.029794298112392, -0.008214034140110, 0.017013557255268, 0.010972239077091, -0.046709701418877, 0.070605032145977, 0.017719887197018, 0.050586789846420, -0.037407081574202, -0.063422076404095, -0.050496868789196, -0.045301593840122, -0.022675041109324, 0.010985799133778, -0.023796785622835, 0.000023841857910, -0.045659132301807, 0.005531825125217, 0.016630604863167, 0.063342131674290, 0.035375468432903, 0.028330251574516, -0.047714129090309, -0.004363477230072, 0.049669891595840, 0.008046947419643, 0.030538931488991, 0.032492458820343, 0.041230022907257, 0.030560374259949, -0.052327521145344, -0.033492669463158, -0.001156136393547, -0.067630603909492, -0.047005236148834, -0.015683937817812, 0.018318168818951, -0.054985202848911, 0.004824213683605, -0.038124963641167, -0.070704035460949, -0.068111553788185, -0.068594187498093, -0.047456409782171, -0.013258945196867, 0.039375439286232, -0.001813463866711, 0.031042218208313, -0.035706676542759, -0.010688997805119, -0.030346963554621, -0.052791088819504, 0.017873302102089, -0.034778095781803, 0.018301710486412, -0.011881332844496, 0.004350632429123, 0.000228554010391, -0.033141855150461, -0.070429496467113, 0.037906065583229, -0.017432291060686, -0.045238051563501, 0.002812594175339, 0.044434398412704, 0.064484648406506, -0.049543321132660, 0.009986817836761, -0.035599287599325, 0.000794127583504, 0.041816197335720, 0.029392689466476, 0.048554301261902, 0.060925237834454, -0.065021798014641, 0.070294074714184, 0.016882106661797, 0.041204243898392, -0.066335767507553, 0.006115391850471, -0.058431044220924, 0.058243475854397, 0.010912895202637, -0.067076101899147, 0.058775208890438, 0.069713510572910, 0.016456104815006, -0.062171660363674, 0.065243132412434, -0.046379219740629, -0.019303798675537, -0.065563961863518, -0.048364236950874, 0.004961356520653, 0.002152301371098, 0.014094494283199, 0.049731396138668, -0.030703946948051, 0.043054275214672, -0.004054896533489, -0.067353852093220, -0.004033923149109, -0.041044659912586, 0.051016822457314, 0.035723954439163, 0.061394117772579, -0.064633473753929, -0.032892432063818, 0.005730085074902, -0.046884693205357, 0.040969401597977, 0.050303414463997, -0.014666866511106, -0.026751078665257, -0.013215534389019, -0.007326640188694, -0.018829476088285, -0.049516342580318, -0.004920810461044, 0.002653822302818, -0.064063094556332, 0.024108536541462, 0.047874391078949, 0.030740365386009, -0.063527002930641, -0.007067315280437, -0.055283080786467, 0.039625860750675, -0.033065315335989, 0.023246869444847, -0.032438389956951, 0.044018678367138, 0.017181232571602, 0.035438254475594, -0.014259744435549, -0.044747732579708, -0.034799389541149, -0.038975823670626, -0.049475312232971, -0.063347950577736, -0.047632530331612, 0.015854448080063, -0.060920573771000, -0.023349709808826, 0.040269464254379, 0.016634099185467, 0.011393204331398, 0.052563205361366, -0.009554810822010, 0.055357761681080, -0.063591152429581, 0.013625167310238, -0.012489274144173, 0.013407669961452, 0.011459410190582, -0.052087016403675, -0.007288135588169, 0.040143407881260, 0.056683398783207, -0.044181682169437, 0.025682449340820, -0.031540460884571, 0.037762261927128, -0.008790854364634, -0.046084716916084, -0.046149618923664, 0.055078588426113, 0.022765502333641, 0.052374966442585, 0.070172838866711, -0.058728449046612, 0.004674471914768, -0.059023648500443, -0.050485268235207, 0.068130724132061, -0.003285564482212, -0.015310838818550, 0.042467400431633, -0.063157074153423, 0.004768677055836, -0.026372380554676, -0.038993068039417, -0.052706710994244, -0.065686658024788, -0.062448095530272, 0.030852638185024, 0.063590593636036, -0.000674419105053, -0.014175772666931, -0.015304110944271, -0.049911461770535, -0.037798322737217, 0.031224459409714, -0.040671490132809, 0.012755289673805, 0.068003214895725, 0.030601039528847, -0.050232909619808, 0.052944533526897, 0.006219968199730, -0.056817982345819, 0.031657762825489, -0.054645568132401, -0.066100813448429, 0.019129425287247, -0.052560966461897, -0.034390363842249, -0.028585478663445, -0.046160005033016, -0.066829897463322, 0.019094482064247, 0.028013527393341, 0.017671518027782, -0.038107950240374, 0.041516758501530, -0.016823776066303, 0.026568241417408, 0.044098734855652, -0.067551508545876, 0.006815046072006, -0.020651619881392, -0.046909041702747, 0.069564603269100, -0.068390920758247, -0.013799130916595, -0.005374230444431, -0.070412114262581, 0.052064068615437, -0.067783124744892, 0.062938727438450, -0.049481295049191, 0.063894934952259, 0.054389141499996, -0.065547846257687, 0.030854731798172, -0.000197902321815, -0.038810234516859, -0.006463907659054, 0.001119390130043, 0.032749399542809, 0.004682026803493, 0.058265633881092, -0.012172602117062, -0.059356048703194, 0.068584538996220, 0.025890268385410, 0.051333278417587, 0.070429407060146, 0.011823706328869, 0.061398945748806, -0.034153766930103, 0.039524875581264, 0.026719234883785, -0.041105568408966, -0.045919902622700, 0.045947112143040, 0.025272734463215, -0.062716469168663, 0.043845117092133, -0.049640864133835, -0.011375755071640, -0.010138727724552, -0.048437535762787, 0.060363180935383, 0.003799974918365, 0.063284315168858, 0.000847741961479, 0.011230655014515, 0.030595578253269, -0.017538264393806, 0.038675852119923, -0.008825752884150, 0.070245333015919, 0.024483524262905, 0.055669941008091, -0.008688099682331, -0.045711901038885, -0.034818120300770, 0.060669980943203, 0.055702172219753, 0.027607604861259, 0.002486139535904, 0.004358403384686, 0.033048458397388, -0.053621433675289, -0.020567797124386, 0.032812267541885, 0.030024908483028, 0.012350648641586, -0.065407514572144, 0.052585273981094, -0.050218239426613, 0.026263184845448, -0.033301390707493, 0.048954203724861, -0.027850907295942, -0.014521140605211, -0.012573078274727, 0.047973655164242, 0.014754399657249, 0.001450508832932, 0.049089781939983, 0.019636303186417, 0.060780592262745, -0.037337657064199, -0.030272379517555, 0.024659231305122, -0.055012192577124, -0.006894722580910, 0.043062232434750, -0.027870398014784, -0.000024698674679, -0.027191665023565, 0.045917980372906, 0.062066368758678, -0.026858046650887, -0.040707908570766, -0.066680431365967, -0.055091176182032, 0.047045141458511, -0.054212599992752, 0.040730752050877, -0.033232554793358, -0.027737349271774, 0.061895616352558, -0.034215573221445, -0.068102076649666, 0.066890649497509, 0.007763244211674, 0.001085653901100, -0.006338670849800, -0.049968279898167, 0.052447341382504, -0.061018828302622, 0.004390403628349, 0.013237580657005, -0.029298350214958, -0.060171440243721, -0.019493255764246, -0.064211636781693, 0.014504417777061, 0.009147785604000, -0.042996902018785, -0.032468128949404, -0.065049991011620, -0.011544309556484, -0.016225628554821, -0.014057390391827, -0.059720214456320, -0.020079720765352, 0.012459956109524, -0.013147927820683, 0.063987620174885, -0.009223029017448, 0.050772525370121, -0.014978047460318, 0.038415469229221, 0.064533688127995, -0.047871455550194, 0.000477679073811, 0.052523389458656, 0.060362316668034, 0.030124999582767, -0.043415959924459, 0.035828568041325, -0.027637343853712, -0.048810787498951, -0.068043224513531, -0.030539877712727, -0.005078613758087, -0.039935775101185, -0.038282994180918, 0.029721334576607, -0.012404207140207, -0.029678665101528, -0.066168814897537, 0.058382384479046, -0.040176399052143, -0.065351977944374, 0.020141288638115, 0.013375930488110, -0.045091651380062, 0.037410929799080, -0.070149153470993, 0.018257781863213, -0.016934990882874, -0.043982833623886, 0.065876506268978, 0.003899373114109, 0.026433192193508, 0.064502246677876, -0.010993197560310, 0.035705193877220, 0.053052075207233, -0.058576148003340, 0.043479159474373, 0.057491578161716, -0.022032670676708, 0.019899234175682, 0.007423914968967, 0.028128117322922, 0.010174117982388, -0.023421205580235, -0.008940137922764, 0.061862491071224, 0.051212988793850, 0.064234696328640, -0.030393593013287, 0.024435594677925, -0.014440100640059, -0.047803025692701, 0.050582237541676, -0.039791330695152, -0.058050002902746, 0.002588592469692, 0.049249231815338, -0.052844949066639, 0.054497219622135, 0.056098081171513, -0.058686994016171, 0.019450888037682, -0.027544435113668, 0.046331055462360, 0.004512593150139, -0.036391764879227, -0.060568783432245, -0.027783337980509, 0.034467153251171, 0.043799020349979, 0.016885139048100, 0.057792954146862, 0.018873952329159, -0.050507184118032, -0.010977551341057, 0.044529445469379, 0.035972759127617, -0.066263362765312, -0.063116557896137, 0.033066309988499, 0.060813494026661, 0.050073675811291, 0.036046043038368, 0.031238771975040, 0.019312381744385, -0.031848151236773, 0.065704010426998, -0.028491187840700, -0.027375392615795, 0.025166623294353, 0.046335637569427, -0.042720451951027, -0.038803879171610, -0.008877106010914, 0.007270216941833, -0.051535330712795, 0.024603307247162, -0.066771499812603, 0.012701354920864, -0.026545062661171, -0.022155757993460, -0.016815431416035, -0.044835802167654, 0.014503963291645, -0.060230258852243, 0.022639736533165, -0.005547299981117, 0.009721845388412, -0.027511004358530, -0.049817778170109, -0.009509325027466, -0.031755629926920, -0.051078695803881, -0.068422190845013, -0.047349575906992, 0.043319106101990, -0.041749104857445, -0.021015666425228, 0.029157042503357, 0.059422977268696, -0.038562361150980, -0.007261566817760, -0.037102885544300, -0.027365949004889, -0.050297714769840, 0.031868398189545, -0.041224136948586, -0.010379858314991, -0.002787843346596, -0.016850598156452, 0.026463791728020, 0.057505868375301, -0.042748976498842, -0.063990719616413, -0.039369761943817, 0.066541142761707, -0.052412979304790, 0.069443725049496, 0.069113008677959, 0.023046992719173, 0.046989239752293, 0.053123943507671, 0.052465595304966, -0.020129621028900, 0.014537811279297, -0.035248961299658, -0.063151694834232, -0.008639547973871, 0.057317979633808, 0.008481971919537, -0.043900296092033, -0.003570713102818, 0.038736984133720, 0.031155101954937, 0.004228085279465, -0.058513820171356, 0.062680505216122, 0.046352736651897, 0.027109578251839, 0.002816624939442, -0.045636121183634, 0.003168970346451, -0.032991997897625, -0.005988866090775, 0.018085733056068, -0.048378869891167, -0.014666445553303, 0.038337260484695, -0.028040368109941, 0.016907259821892, 0.011933445930481, 0.011188536882401, 0.002355448901653, 0.047817133367062, -0.039787791669369, 0.039165265858173, 0.019745208323002, 0.033313930034637, 0.068288125097752, 0.006727360188961, -0.025553449988365, 0.023685485124588, 0.005391947925091, -0.004560723900795, -0.023596640676260, 0.047232560813427, -0.013137172907591, 0.063936538994312, 0.045506559312344, -0.069041058421135, 0.046405032277107, 0.052084170281887, 0.049427703022957, -0.069601632654667, 0.037956036627293, -0.028033725917339, 0.009820282459259, -0.050278715789318, -0.041778385639191, -0.046853844076395, 0.041373692452908, 0.015451729297638, -0.017890628427267, 0.013697490096092, 0.054553039371967, 0.052832104265690, 0.050730794668198, 0.047633238136768, -0.014960344880819, 0.067924268543720, 0.054541848599911, -0.069120898842812, -0.014813285320997, 0.002763994038105, 0.027938604354858, -0.026622090488672, 0.034280851483345, -0.070656798779964, 0.032114431262016, 0.003291279077530, -0.000952959060669, -0.030203763395548, 0.032543249428272, 0.044807039201260, 0.060365714132786, 0.048595368862152, -0.019888542592525, -0.014889590442181, -0.046594440937042, -0.034826986491680, -0.041996672749519, 0.065847150981426, 0.070223517715931, 0.017262607812881, 0.034448474645615, 0.037613280117512, 0.064746029675007, -0.012140382081270, 0.061181925237179, -0.032835699617863, -0.032855510711670, 0.017304316163063, -0.044659730046988, -0.047389246523380, -0.060110107064247, -0.016265600919724, 0.032904654741287, -0.066449448466301, 0.046728536486626, -0.065290428698063, -0.012779887765646, -0.056641355156898, 0.032949835062027, -0.015793014317751, -0.029166582971811, -0.053167052567005, -0.063360773026943, -0.063733793795109, 0.058091975748539, 0.050112321972847, 0.029569014906883, -0.002742528915405, -0.059721060097218, 0.050826758146286, -0.050471395254135, -0.045760150998831, -0.006612114608288, 0.000809825956821, -0.066988892853260, -0.061788395047188, 0.030300095677376, -0.065252274274826, 0.017519854009151, -0.017515372484922, 0.043869271874428, -0.057115405797958, -0.011127039790154, -0.034817613661289, -0.053521089255810, 0.020651586353779, 0.066884435713291, -0.019613713026047, -0.015733655542135, 0.065964885056019, 0.006602503359318, 0.005417957901955, 0.051337309181690, 0.041391626000404, -0.045702155679464, 0.025062993168831, 0.014281444251537, 0.001165695488453, 0.064327739179134, -0.059704892337322, -0.022490974515676, -0.070191346108913, 0.012911215424538, -0.065594680607319, -0.005933649837971, 0.021932110190392, 0.030480921268463, 0.022603981196880, -0.017906796187162, -0.044023551046848, -0.027270410209894, -0.000367097556591, -0.015536610037088, -0.052668005228043, -0.031947229057550, -0.049072403460741, -0.004277907311916, -0.048712097108364, 0.042555756866932, -0.051775265485048, 0.063650928437710, 0.020174212753773, 0.035889647901058, 0.049667470157146, -0.061407506465912, -0.030984882265329, -0.002000764012337, 0.050110667943954, -0.053970340639353, 0.004820719361305, -0.020720891654491, -0.015058107674122, -0.040150489658117, -0.022677887231112, -0.056197885423899, -0.057991825044155, -0.019876841455698, -0.062232606112957, -0.057945158332586, 0.056645192205906, 0.044401943683624, -0.031143944710493, 0.037641838192940, -0.031028546392918, -0.048302009701729, -0.048603545874357, 0.018368624150753, 0.058494187891483, -0.036367673426867, 0.035083763301373, -0.031136676669121, -0.001478187739849, -0.056272044777870, -0.066600300371647, 0.041939169168472, -0.069547124207020, 0.051422245800495, -0.015190366655588, 0.054922737181187, -0.021639745682478, -0.021924369037151, 0.048544779419899, -0.020997628569603, -0.065448261797428, -0.000805608928204, -0.013994928449392, -0.058327816426754, 0.062246121466160, 0.048905536532402, 0.002987369894981, -0.035326529294252, -0.042494848370552, -0.044204019010067, -0.007407359778881, -0.048107154667377, -0.003749266266823, 0.026800759136677, -0.032567325979471, -0.015333294868469, -0.038155306130648, 0.012074939906597, 0.064035095274448, 0.059013165533543, 0.038777917623520, 0.023422151803970, -0.033567540347576, -0.011421021074057, -0.030413672327995, -0.052802398800850, -0.015202976763248, -0.020641654729843, -0.039042059332132, -0.064918085932732, -0.031777072697878, -0.012737113982439, 0.039868541061878, 0.057684011757374, 0.020256668329239, -0.057600095868111, 0.015535108745098, 