//Numpy array shape [1568, 128]
//Min -0.059477876872
//Max 0.059476215392
//Number of zeros 0

#ifndef W9_H_
#define W9_H_

#ifndef __SYNTHESIS__
dense_2_weight_t w9[200704];
#else
dense_2_weight_t w9[200704] = {0.018991041928530, 0.037885051220655, -0.019990030676126, -0.025824565440416, -0.048234164714813, 0.045599486678839, 0.035279374569654, -0.047235276550055, 0.057530317455530, 0.033970933407545, -0.025171522051096, -0.016355317085981, 0.049152206629515, 0.017683755606413, -0.027249444276094, 0.053579058498144, -0.017749510705471, -0.024467881768942, -0.003213427960873, -0.017016418278217, -0.000936165452003, -0.021886706352234, -0.044601820409298, -0.018743433058262, 0.041950065642595, 0.022997435182333, 0.029961805790663, 0.036890592426062, 0.024679530411959, -0.013196587562561, 0.024380613118410, -0.052107751369476, 0.032940056174994, 0.055613573640585, 0.024684976786375, 0.010700304061174, 0.051749404519796, -0.053204473108053, 0.009661879390478, -0.017689965665340, -0.005722261965275, -0.018939215689898, -0.004572734236717, 0.054994653910398, 0.017782863229513, 0.039975751191378, 0.037043172866106, 0.016921062022448, 0.034463290125132, -0.055034883320332, 0.039718564599752, -0.021786376833916, -0.016660716384649, 0.006395857781172, 0.001893017441034, 0.049670215696096, 0.049774590879679, 0.009937029331923, 0.025979813188314, 0.011207539588213, 0.036190312355757, 0.053795371204615, 0.053213644772768, 0.032644953578711, 0.034881617873907, -0.000412877649069, 0.003013107925653, -0.017450094223022, 0.010342400521040, -0.034068018198013, 0.032281380146742, -0.058138731867075, -0.035968847572803, 0.038791645318270, 0.042800251394510, -0.028114475309849, -0.044929228723049, 0.007550816982985, 0.018232952803373, 0.001977026462555, 0.031241808086634, 0.010849084705114, 0.020704802125692, -0.003359902650118, -0.052193686366081, -0.017555870115757, 0.006620775908232, 0.022852081805468, -0.033319521695375, -0.045120242983103, -0.019928712397814, 0.049214135855436, 0.028448764234781, -0.037764899432659, -0.034348770976067, 0.011479597538710, -0.035670541226864, -0.039021886885166, -0.057121668010950, 0.043075833469629, 0.046678353101015, 0.003732349723577, 0.019818384200335, -0.004051104187965, 0.057579535990953, -0.005019545555115, -0.024293713271618, 0.050645504146814, -0.053527016192675, -0.037310369312763, 0.001689240336418, -0.013647951185703, -0.050891473889351, 0.025366749614477, 0.033161077648401, -0.023276817053556, 0.034598309546709, -0.024408660829067, 0.043009605258703, 0.011868651956320, 0.031545210629702, -0.029989697039127, 0.048871409147978, -0.016330063343048, -0.013183966279030, -0.022415924817324, -0.031870365142822, 0.045410271733999, 0.058319296687841, 0.018901508301497, -0.047467190772295, -0.050348758697510, -0.011449590325356, 0.030161779373884, 0.031801674515009, -0.024073611944914, 0.038294579833746, 0.048986133188009, 0.029143709689379, 0.023480992764235, 0.034030791372061, -0.023654963821173, 0.004762683063745, -0.048385560512543, -0.030859779566526, 0.000993553549051, 0.007851008325815, 0.030217427760363, -0.050730846822262, -0.028725175186992, -0.029821200296283, 0.033266786485910, 0.053756732493639, -0.001955442130566, -0.003340940922499, -0.006405681371689, -0.019452251493931, 0.003394264727831, -0.050325330346823, -0.025673735886812, -0.043585516512394, -0.044433251023293, -0.038756493479013, -0.044418573379517, 0.057369489222765, -0.000531513243914, 0.058613676577806, -0.004214581102133, 0.054186340421438, 0.018719796091318, 0.003840502351522, 0.043017473071814, -0.055327050387859, -0.005711317062378, -0.047043565660715, -0.025178939104080, -0.016240440309048, 0.019366484135389, 0.020893182605505, 0.041093442589045, -0.052556760609150, -0.030736973509192, -0.005822222679853, -0.007008951157331, -0.039716027677059, -0.021372593939304, -0.009364802390337, 0.034831937402487, 0.031655464321375, 0.011993993073702, 0.041463691741228, -0.045861490070820, -0.007803205400705, -0.053451701998711, 0.006137277930975, 0.045972641557455, 0.034261200577021, 0.056095596402884, -0.023376308381557, -0.034637957811356, -0.019215360283852, -0.052553754299879, -0.017147604376078, -0.011370331048965, 0.029499407857656, -0.047895211726427, -0.032841302454472, -0.048623897135258, -0.041616350412369, -0.006853912025690, 0.018246989697218, -0.052720606327057, -0.026079166680574, -0.045505225658417, -0.020736441016197, 0.000991143286228, -0.056040477007627, -0.034250624477863, 0.055793698877096, -0.001208648085594, 0.045395832508802, 0.006509970873594, -0.053878162056208, 0.053532462567091, -0.001987248659134, -0.032141089439392, 0.046190824359655, 0.052497368305922, -0.057731840759516, -0.052227281033993, -0.041311971843243, 0.008560705929995, 0.025367248803377, 0.036895055323839, 0.000117246061563, -0.054077729582787, -0.042899861931801, -0.006065737456083, -0.008013479411602, 0.003061253577471, -0.021631281822920, -0.057298772037029, 0.055058706551790, 0.011273194104433, 0.006090711802244, 0.038091372698545, 0.020323667675257, 0.056201029568911, -0.018709883093834, 0.034436989575624, -0.031028218567371, -0.036228980869055, -0.001759588718414, -0.020292337983847, 0.050823476165533, 0.049638833850622, -0.036002229899168, -0.031104398891330, 0.017444606870413, -0.016186553984880, -0.046123001724482, -0.047139186412096, -0.041619978845119, -0.039325118064880, -0.054711062461138, -0.013620086014271, -0.057099957019091, -0.010725203901529, 0.005396943539381, 0.030129875987768, 0.027693208307028, 0.037244532257318, -0.006080161780119, 0.053340185433626, -0.044081963598728, 0.025599043816328, 0.036694649606943, 0.055707212537527, 0.029171165078878, -0.057331856340170, -0.005860667675734, -0.019448675215244, -0.023736827075481, -0.009968597441912, 0.051658321171999, -0.014387000352144, -0.047022052109241, -0.009153693914413, 0.046273741871119, 0.013676013797522, -0.044091746211052, -0.056705035269260, -0.001607246696949, -0.010102249681950, -0.040687575936317, -0.034050315618515, -0.023565921932459, -0.058136165142059, -0.017288066446781, 0.022943381220102, -0.038236964493990, 0.040255766361952, -0.055805981159210, -0.001179605722427, 0.027541998773813, 0.011923868209124, -0.000850226730108, -0.019915793091059, -0.026256356388330, 0.030293736606836, -0.017882596701384, -0.010202068835497, 0.016397375613451, 0.058008711785078, 0.008202906697989, -0.012185562402010, -0.024756208062172, 0.012877177447081, -0.002139270305634, -0.000653766095638, 0.013608712702990, -0.026389714330435, -0.017261378467083, -0.043324589729309, -0.033015653491020, 0.009280737489462, 0.052948791533709, -0.022731389850378, -0.040714547038078, 0.029332030564547, 0.044144582003355, 0.026981186121702, -0.015429366379976, -0.013931356370449, 0.058359075337648, -0.017396405339241, 0.008072171360254, -0.014821998775005, 0.013774644583464, 0.007282722741365, 0.024212952703238, 0.050574574619532, -0.050174787640572, -0.005814254283905, -0.035641282796860, -0.039131153374910, 0.004766602069139, 0.034172561019659, 0.032008629292250, -0.031175445765257, 0.057116758078337, 0.035787414759398, -0.022565405815840, -0.036142632365227, 0.045014467090368, 0.025264289230108, 0.003201384097338, -0.005496121942997, -0.017007183283567, -0.032277766615152, -0.019622549414635, -0.040663622319698, -0.012462981045246, 0.017734680324793, -0.027992449700832, -0.059273146092892, 0.007724236696959, 0.012824151664972, -0.006496284157038, 0.001051709055901, -0.031985908746719, 0.044522758573294, -0.047537159174681, 0.031273785978556, 0.021218378096819, 0.005980227142572, 0.027446884661913, -0.003060627728701, 0.048792507499456, 0.038505125790834, -0.031574934720993, 0.035085093230009, -0.048097502440214, 0.001995079219341, -0.038952346891165, -0.034522555768490, -0.012530371546745, 0.021330621093512, 0.004918914288282, -0.032564587891102, 0.043188381940126, -0.026419989764690, 0.009170439094305, -0.024589028209448, -0.047439366579056, 0.038076538592577, 0.046284276992083, -0.026831548660994, -0.025476537644863, -0.015857826918364, -0.033476702868938, 0.004865866154432, 0.057395402342081, 0.009157788008451, 0.041154664009809, -0.046276070177555, -0.040676541626453, -0.046627428382635, 0.039132978767157, -0.017444197088480, -0.041752956807613, 0.001598894596100, 0.048511993139982, 0.018934730440378, 0.016085188835859, 0.035977538675070, -0.025172032415867, 0.004657592624426, 0.016752485185862, -0.038854271173477, -0.055964127182961, 0.030420254915953, 0.005492459982634, 0.055018175393343, 0.043071929365396, -0.030121877789497, -0.027600321918726, 0.039039541035891, -0.006539352238178, 0.005609098821878, -0.051774062216282, 0.015819903463125, -0.028369987383485, 0.043287638574839, -0.010441102087498, -0.021908361464739, 0.046698007732630, -0.030305095016956, 0.046486090868711, 0.000102825462818, -0.046537250280380, -0.023699305951595, -0.006654500961304, -0.028125494718552, -0.012404102832079, 0.025026749819517, -0.034227676689625, 0.002522222697735, -0.050138257443905, -0.042474959045649, 0.008225161582232, 0.044655989855528, 0.015855927020311, 0.021610449999571, -0.017550509423018, -0.040465813130140, 0.029409077018499, -0.028669672086835, 0.047228369861841, -0.043792758136988, -0.039072230458260, -0.006525296717882, -0.024658288806677, 0.024222139269114, -0.054707489907742, -0.028065014630556, 0.058088053017855, 0.050587620586157, -0.017569344490767, 0.049210172146559, 0.036433611065149, 0.015651438385248, -0.045316547155380, 0.039381045848131, 0.016400169581175, -0.017023548483849, -0.008083336055279, 0.057262394577265, 0.031068179756403, -0.034109890460968, 0.018715340644121, 0.019540127366781, -0.009369935840368, -0.020471002906561, 0.022712912410498, -0.059206496924162, 0.037260014563799, 0.025230567902327, 0.035020064562559, 0.009334582835436, -0.008529379963875, 0.057400431483984, 0.058073502033949, 0.040569152683020, 0.034763995558023, 0.051692362874746, 0.048908423632383, -0.011834912002087, 0.021416459232569, -0.015856534242630, -0.034766137599945, -0.027955353260040, -0.055052183568478, 0.041766833513975, -0.006707038730383, 0.030893597751856, -0.030480852350593, 0.055971909314394, -0.058582592755556, -0.021779656410217, 0.016776662319899, -0.039093431085348, 0.006387714296579, 0.053082700818777, 0.017253506928682, -0.031672243028879, -0.054354485124350, 0.013323660939932, 0.010910432785749, 0.025440420955420, 0.043024767190218, 0.025783028453588, -0.047858215868473, 0.048634331673384, -0.027663424611092, 0.010114502161741, 0.051330637186766, -0.010736860334873, 0.019472602754831, 0.008585292845964, 0.049814324826002, 0.058314416557550, 0.004009652882814, 0.045539062470198, 0.055103387683630, 0.038195852190256, 0.022650945931673, -0.039358813315630, 0.011010084301233, 0.035086046904325, -0.025687504559755, 0.044381465762854, -0.043424822390079, 0.033865187317133, 0.051045190542936, 0.055027510970831, 0.054978143423796, -0.038174510002136, 0.054866354912519, -0.047568853944540, -0.054986424744129, 0.002918932586908, -0.042095944285393, -0.039616324007511, 0.047129120677710, 0.004391577094793, 0.014190550893545, -0.039819888770580, -0.048094511032104, -0.049942091107368, -0.013936489820480, -0.058460697531700, -0.058173503726721, -0.012713104486465, 0.049689050763845, -0.025188494473696, -0.018288753926754, 0.025040674954653, 0.031908821314573, 0.057619314640760, 0.022980902343988, -0.006253875792027, -0.054010953754187, -0.025456186383963, 0.033054325729609, -0.010501965880394, -0.005979958921671, -0.041440702974796, -0.026910435408354, -0.012797564268112, -0.050469066947699, -0.006896313279867, 0.049859005957842, 0.048620220273733, 0.022875200957060, -0.016813829541206, -0.041847981512547, 0.012539926916361, -0.011177558451891, -0.003882620483637, 0.054406370967627, 0.051574874669313, 0.040156256407499, -0.023636355996132, -0.017192501574755, 0.004858266562223, -0.059159472584724, -0.019009992480278, -0.026587210595608, -0.008382480591536, 0.017943773418665, 0.025477882474661, 0.019488763064146, -0.027768138796091, -0.024728126823902, -0.016019657254219, 0.011819940060377, -0.043668165802956, 0.000671818852425, 0.001494463533163, 0.006040271371603, 0.037211444228888, 0.018282104283571, 0.040877681225538, -0.040707711130381, 0.035024885088205, 0.007381554692984, -0.045127134770155, -0.043526910245419, -0.045104715973139, -0.044414844363928, 0.010836664587259, 0.000212755054235, 0.026075068861246, 0.025805618613958, 0.003780450671911, -0.009512767195702, -0.014852955937386, 0.052571002393961, -0.047529090195894, -0.000023923814297, 0.046011853963137, 0.015813339501619, -0.050364088267088, 0.000401291996241, -0.012120697647333, 0.038118708878756, 0.002838995307684, -0.020116794854403, 0.013652954250574, 0.022759910672903, 0.046679187566042, 0.045335058122873, 0.003889035433531, -0.017196472734213, 0.056087624281645, -0.009734727442265, 0.010872814804316, -0.015275146812201, -0.034053862094879, -0.028615614399314, 0.032425459474325, -0.039721786975861, 0.050822939723730, -0.003496702760458, 0.012014482170343, -0.037699878215790, 0.050421971827745, -0.017131552100182, -0.046984404325485, 0.002888571470976, 0.041311163455248, 0.040309328585863, -0.032505951821804, 0.025978196412325, 0.037234988063574, -0.046956196427345, 0.013644132763147, -0.037906892597675, -0.053442016243935, -0.002418901771307, -0.027242537587881, -0.016436390578747, -0.026420615613461, -0.036696609109640, 0.014260750263929, -0.010930057615042, 0.001161031424999, -0.044068407267332, -0.058066383004189, -0.016212459653616, -0.033567078411579, -0.037300515919924, 0.047387894243002, 0.048188019543886, 0.044168625026941, -0.012091357260942, 0.021793145686388, 0.011600103229284, -0.041947118937969, 0.015309508889914, 0.056768778711557, -0.058685064315796, -0.030475506559014, -0.017735172063112, -0.020013544708490, 0.054794002324343, -0.022090967744589, 0.034781765192747, -0.025200292468071, 0.001079048961401, -0.048859879374504, -0.035599410533905, -0.025135532021523, -0.027031470090151, -0.054879844188690, -0.011859089136124, 0.027109425514936, -0.033133368939161, -0.036874748766422, -0.004049103707075, -0.002665534615517, -0.054411150515079, 0.024011027067900, -0.006486922502518, -0.019716382026672, -0.019520912319422, 0.009684812277555, -0.058644112199545, -0.005161993205547, 0.046448152512312, 0.036711554974318, 0.000067118555307, -0.054541841149330, -0.020889014005661, -0.048732351511717, 0.006759155541658, -0.017615884542465, -0.033773876726627, -0.056033059954643, -0.037907615303993, 0.052667696028948, -0.021758131682873, -0.023436989635229, -0.017930615693331, -0.045738644897938, -0.009541850537062, 0.011113148182631, 0.054532524198294, -0.047376718372107, -0.043978739529848, -0.016084775328636, -0.020831353962421, -0.037116207182407, -0.047118596732616, 0.022904556244612, 0.010290782898664, 0.051998589187860, -0.029178168624640, 0.055892366915941, -0.043787352740765, -0.023933701217175, 0.055606584995985, 0.043441582471132, 0.024874191731215, 0.017417889088392, -0.017031602561474, -0.057059910148382, 0.006106298416853, -0.051171220839024, 0.047122839838266, -0.005640581250191, -0.017213515937328, 0.039745535701513, -0.035726934671402, -0.031787164509296, 0.042624976485968, 0.018302310258150, -0.000462878495455, 0.019741255789995, -0.026872389018536, 0.040185768157244, 0.032181169837713, 0.018812026828527, 0.028394419699907, 0.031894285231829, -0.056663155555725, 0.049456667155027, -0.053704872727394, -0.016489043831825, -0.019210353493690, 0.044421676546335, 0.009336981922388, -0.050378240644932, 0.043034311383963, -0.028935790061951, 0.004388328641653, 0.037865441292524, 0.009575318545103, 0.035638090223074, -0.011549267917871, -0.029853193089366, 0.026563089340925, -0.021800488233566, -0.000386670231819, -0.044248007237911, 0.054868992418051, 0.029491271823645, 0.026136759668589, -0.006932884454727, -0.036425724625587, -0.018617194145918, 0.013835702091455, -0.034836776554585, 0.002345189452171, -0.040605835616589, 0.013388168066740, 0.013286765664816, 0.004347499459982, 0.011933613568544, 0.009627703577280, 0.054730843752623, 0.020922269672155, -0.030765730887651, -0.000676695257425, -0.050117425620556, 0.021939348429441, 0.029974300414324, -0.018529981374741, -0.047522950917482, 0.022220637649298, -0.033733204007149, -0.027423769235611, 0.012950208038092, 0.002523157745600, 0.002651721239090, -0.024793829768896, 0.000507362186909, -0.027221236377954, 0.016689319163561, 0.058808151632547, 0.029338870197535, -0.036402229219675, 0.020862836390734, 0.008814204484224, 0.040394585579634, -0.005430210381746, 0.043050888925791, 0.004195023328066, 0.021842252463102, 0.047409165650606, 0.054388534277678, -0.035391118377447, 0.058046754449606, -0.057201746851206, 0.026984941214323, 0.042376983910799, -0.003193773329258, 0.026194643229246, -0.046981580555439, -0.031449377536774, 0.023499835282564, 0.007034663110971, -0.057634729892015, 0.019270505756140, 0.037181299179792, 0.059103999286890, 0.051567334681749, 0.041653800755739, -0.010641068220139, 0.042610768228769, 0.046594131737947, -0.009899478405714, 0.033983509987593, 0.036444816738367, -0.022307395935059, -0.044169686734676, 0.057294804602861, -0.006086017936468, -0.054138794541359, -0.056023627519608, -0.012555114924908, 0.025476325303316, 0.044746618717909, -0.055255550891161, -0.026619531214237, -0.047342684119940, -0.004219744354486, -0.041423462331295, 0.033547688275576, -0.042110979557037, -0.034504741430283, 0.010818157345057, 0.010195914655924, 0.016017939895391, -0.027991838753223, -0.059162251651287, -0.059395369142294, 0.001095302402973, -0.025359403342009, 0.032368045300245, -0.011816050857306, -0.001626815646887, -0.033226750791073, 0.057119835168123, 0.039031889289618, 0.007140319794416, 0.026111911982298, -0.029006935656071, 0.006066124886274, 0.042905364185572, -0.024252716451883, -0.017143405973911, -0.017303481698036, -0.002194970846176, 0.021405804902315, -0.050271555781364, 0.048090528696775, -0.014986313879490, 0.019440349191427, 0.013493124395609, -0.005903154611588, 0.048839811235666, -0.045656561851501, -0.026896934956312, -0.016862682998180, -0.046087477356195, -0.030919453129172, -0.021630872040987, -0.003596819937229, -0.042388245463371, -0.020314957946539, 0.034458484500647, 0.055363181978464, 0.000543907284737, -0.009726159274578, 0.023096736520529, 0.011793520301580, 0.042720999568701, 0.006361339241266, -0.013630222529173, 0.050647918134928, -0.035387631505728, 0.023710321635008, 0.054051522165537, -0.001683510839939, 0.049635712057352, -0.037978716194630, 0.011930692940950, 0.021578531712294, 0.053620968014002, 0.001690074801445, 0.052286986261606, 0.017619911581278, 0.016330655664206, 0.048588771373034, 0.044812563806772, -0.012072894722223, -0.007997754961252, -0.020434431731701, 0.043975409120321, 0.006267193704844, 0.046001855283976, 0.036895383149385, 0.030825573951006, -0.029641726985574, 0.016134511679411, 0.043610434979200, 0.021154690533876, -0.033386498689651, 0.019352559000254, 0.033139351755381, -0.019266255199909, 0.058981571346521, 0.012397464364767, -0.046350404620171, 0.055625114589930, 0.002389445900917, -0.028219260275364, -0.047471389174461, 0.010579880326986, -0.023817218840122, -0.031986348330975, 0.040863599628210, -0.031704235821962, 0.057332482188940, -0.007272940129042, 0.023066285997629, -0.042128406465054, 0.011849489063025, -0.028207290917635, -0.033558767288923, 0.035030629485846, 0.010593246668577, 0.024083156138659, 0.017687965184450, -0.016115691512823, -0.036840021610260, 0.018248561769724, -0.020324245095253, 0.036079358309507, -0.034166317433119, 0.000866506248713, -0.049468450248241, 0.018290694802999, 0.042129296809435, -0.046864956617355, -0.052171681076288, -0.030993064865470, 0.035528529435396, 0.037345018237829, -0.012163467705250, 0.037841957062483, 0.001807153224945, -0.010599743574858, -0.053646590560675, 0.001812059432268, -0.047683663666248, -0.047400653362274, -0.014813475310802, 0.010421205312014, -0.007322005927563, -0.006771050393581, -0.022204615175724, 0.019433300942183, 0.025436688214540, -0.047080550342798, 0.005841229110956, 0.021898817270994, -0.011328812688589, 0.025771360844374, -0.019992738962173, -0.010231610387564, 0.012560997158289, 0.054669808596373, 0.018836598843336, 0.019622970372438, -0.048623882234097, 0.045173775404692, -0.041159570217133, 0.040670368820429, -0.041048474609852, 0.042908567935228, 0.051131170243025, 0.038190085440874, 0.011794116348028, -0.010352969169617, -0.021155018359423, 0.058350879698992, 0.026274058967829, -0.033842168748379, -0.022223688662052, -0.033633954823017, -0.023824069648981, 0.004276197403669, 0.055439759045839, -0.003470979630947, 0.022608105093241, 0.026454333215952, 0.003894504159689, 0.034363400191069, 0.024588387459517, 0.018545623868704, -0.020642407238483, 0.047366846352816, 0.052487518638372, -0.023994695395231, -0.055510409176350, -0.026003554463387, 0.036687675863504, 0.027408909052610, -0.047462042421103, 0.002918720245361, 0.037064876407385, -0.027449592947960, 0.022851321846247, -0.023651503026485, 0.028102327138186, -0.024782922118902, -0.058560527861118, -0.004949688911438, 0.015378143638372, -0.029408423230052, 0.018132921308279, 0.041281457990408, 0.020903546363115, -0.031218938529491, -0.053044255822897, 0.019058089703321, -0.040356211364269, -0.039389699697495, 0.001960985362530, 0.057741712778807, -0.016094516962767, 0.058955866843462, -0.046826072037220, -0.047634270042181, -0.023228004574776, -0.013911161571741, 0.006040621548891, 0.039782624691725, -0.039878711104393, -0.032217979431152, -0.040720175951719, 0.001401651650667, -0.035506621003151, -0.023884125053883, -0.044038824737072, -0.026620041579008, 0.004599463194609, 0.004331078380346, -0.003327116370201, -0.022580720484257, 0.045109678059816, -0.014266405254602, 0.018387679010630, -0.012537915259600, 0.052922148257494, -0.018561165779829, 0.056162189692259, 0.037571582943201, 0.043448161333799, -0.003914669156075, -0.006017964333296, -0.029553139582276, 0.041439000517130, -0.028460517525673, -0.050314951688051, -0.034337028861046, 0.021510858088732, 0.037542071193457, 0.037370722740889, 0.006899874657393, -0.009991809725761, -0.014296751469374, -0.054825048893690, 0.056131403893232, 0.051763240247965, 0.055671516805887, 0.015451159328222, -0.004876770079136, -0.027719072997570, -0.009409982711077, 0.035580705851316, -0.005895994603634, -0.009634908288717, -0.053276866674423, 0.017770897597075, 0.039917979389429, 0.053641315549612, -0.045304324477911, 0.016801986843348, 0.004247795790434, -0.045674871653318, -0.010111682116985, -0.022847417742014, 0.029835026711226, 0.025721881538630, 0.056666549295187, 0.005421329289675, -0.030250426381826, 0.006209265440702, 0.027510132640600, -0.030706059187651, 0.045904997736216, 0.019107427448034, -0.009584125131369, 0.029330503195524, -0.024328596889973, -0.006451159715652, -0.003040619194508, -0.046086199581623, 0.056423660367727, -0.049108427017927, -0.027793735265732, 0.017166588455439, 0.046351287513971, 0.001837145537138, -0.001593120396137, 0.035829905420542, -0.033694081008434, -0.005033157765865, -0.011518992483616, -0.012226518243551, 0.050381768494844, -0.001070756465197, 0.042275179177523, -0.022443886846304, 0.032442945986986, 0.017013709992170, -0.045916654169559, 0.013060141354799, -0.031191866844893, 0.032320667058229, -0.020897310227156, -0.012071110308170, 0.020535867661238, -0.007656872272491, -0.050377659499645, -0.058012608438730, -0.038918323814869, 0.035931464284658, -0.047141827642918, -0.030870215967298, 0.007645968347788, 0.010392080992460, 0.024627145379782, -0.058928452432156, -0.046576052904129, -0.014960572123528, 0.011406425386667, 0.020663540810347, -0.028077449649572, 0.047852460294962, 0.002626437693834, 0.025537218898535, -0.048375319689512, 0.041602578014135, 0.028883267194033, 0.006992500275373, -0.013068605214357, 0.012537177652121, -0.036443024873734, -0.004113953560591, -0.020023711025715, 0.048969183117151, 0.020123969763517, -0.000173758715391, -0.038125373423100, -0.056564260274172, -0.048385046422482, -0.040341928601265, 0.041203018277884, 0.056444007903337, -0.028515823185444, -0.050926316529512, -0.009916424751282, -0.000405032187700, -0.046950101852417, 0.056182067841291, 0.052842479199171, 0.010368224233389, 0.022676538676023, -0.041579097509384, -0.021669812500477, 0.032021548599005, -0.042637627571821, -0.039125524461269, 0.005515027791262, 0.043873507529497, -0.016760565340519, 0.047362308949232, -0.042259596288204, 0.004569415003061, -0.058192733675241, -0.031121769919991, 0.056449491530657, -0.028701337054372, 0.055817309767008, -0.004149604588747, -0.028306145220995, 0.039724964648485, -0.019777629524469, 0.000390611588955, -0.030461523681879, 0.057052720338106, -0.055179893970490, 0.007080633193254, -0.044862873852253, -0.004357427358627, -0.020893804728985, -0.049218896776438, -0.043432861566544, 0.051728043705225, 0.054001037031412, 0.018417019397020, -0.055446241050959, -0.031881526112556, -0.012243248522282, -0.027537569403648, -0.028505316004157, -0.036387875676155, 0.006213586777449, -0.039780382066965, -0.023040223866701, 0.026391047984362, -0.043709278106689, -0.057454876601696, -0.007432915270329, 0.038542289286852, -0.030245875939727, -0.029090559110045, 0.022684406489134, 0.023660492151976, -0.034139174968004, -0.022403188049793, 0.044042330235243, 0.010405991226435, -0.025956064462662, 0.036910299211740, 0.005809109658003, -0.052638370543718, -0.042530491948128, -0.013371862471104, 0.017568219453096, -0.041564829647541, -0.013484019786119, 0.027363587170839, 0.025192562490702, 0.045048061758280, 0.054917830973864, 0.018482465296984, 0.018303427845240, -0.008920487016439, -0.007414635270834, 0.028875198215246, 0.011466678231955, 0.040126051753759, -0.044541098177433, 0.036803986877203, 0.025898065418005, -0.026346731930971, -0.019869592040777, -0.021471053361893, -0.032544367015362, -0.009611818939447, -0.003697577863932, -0.022384397685528, -0.009019158780575, 0.037335645407438, -0.055421918630600, -0.032164730131626, 0.008690174669027, -0.018304534256458, -0.035510808229446, -0.047533374279737, 0.027107957750559, 0.044408034533262, 0.058658745139837, 0.053912933915854, 0.011959303170443, 0.030742775648832, -0.031115602701902, -0.012734077870846, 0.020667452365160, 0.042180676013231, 0.058500971645117, -0.025219339877367, 0.009648602455854, -0.009799856692553, -0.007105976343155, -0.039367292076349, 0.005322974175215, -0.004256557673216, -0.016397237777710, 0.035506691783667, -0.011767581105232, -0.024813044816256, 0.007747676223516, 0.048153828829527, -0.054910685867071, -0.024781815707684, 0.036939371377230, -0.014336489140987, -0.052597332745790, -0.022258542478085, 0.046528179198503, -0.021860431879759, -0.050762824714184, -0.022937182337046, -0.020061332732439, -0.031969688832760, -0.001338135451078, 0.043970007449389, -0.011398028582335, 0.052535649389029, 0.055301818996668, 0.015905942767859, -0.038550689816475, -0.048931747674942, 0.032483074814081, 0.004610653966665, -0.003175437450409, -0.017176207154989, -0.044347796589136, -0.029624313116074, 0.000061247497797, -0.018240891396999, -0.037281326949596, 0.009130153805017, 0.012289348989725, -0.025950774550438, 0.013165023177862, 0.011491533368826, 0.002748735249043, -0.017461512237787, -0.007876649498940, -0.028333911672235, 0.021258924156427, 0.035587329417467, 0.009439978748560, -0.051006920635700, -0.048166677355766, 0.002644561231136, 0.017700854688883, -0.007811177521944, 0.003138396888971, -0.027897380292416, 0.003528494387865, -0.004287302494049, 0.043692301958799, -0.019325785338879, -0.041786704212427, -0.055448111146688, -0.056527830660343, 0.057475406676531, -0.053266681730747, -0.000167261809111, -0.054095882922411, -0.020986478775740, 0.027683760970831, 0.011957917362452, 0.025151882320642, -0.040591455996037, -0.030826553702354, 0.002700433135033, 0.053880106657743, -0.044908791780472, -0.039523042738438, 0.005362804979086, 0.009461473673582, -0.009476676583290, 0.026464249938726, 0.014800030738115, 0.057161089032888, -0.028630461543798, -0.059418909251690, 0.037307847291231, -0.017302017658949, -0.008264835923910, 0.023794788867235, 0.053379166871309, 0.057337302714586, -0.016745574772358, 0.015279214829206, -0.021866753697395, 0.041651900857687, 0.025913890451193, -0.054753236472607, -0.032480753958225, -0.022453829646111, -0.038423229008913, -0.047537487000227, -0.023585207760334, 0.006041202694178, 0.027513679116964, 0.050189729779959, -0.035054609179497, -0.044334493577480, -0.032664604485035, -0.018744029104710, -0.041940413415432, 0.050304982811213, -0.006231669336557, -0.034719370305538, -0.019471835345030, -0.056934464722872, -0.036832563579082, 0.045445110648870, -0.005290213972330, 0.024897631257772, 0.049862865358591, 0.000322770327330, 0.039237860590219, -0.052964434027672, 0.041083063930273, 0.015502307564020, -0.035393901169300, -0.024087335914373, 0.048397500067949, 0.058375071734190, 0.039433915168047, -0.014523845165968, -0.025861378759146, -0.006248585879803, -0.035126417875290, -0.010714069008827, 0.056655187159777, -0.041118644177914, -0.026682689785957, -0.028662964701653, -0.011073328554630, 0.002457074820995, -0.008814416825771, -0.056959155946970, -0.047087669372559, 0.003982055932283, -0.030099429190159, 0.027836445719004, -0.003967549651861, -0.023673169314861, 0.042612936347723, -0.044233132153749, -0.018644977360964, -0.016633801162243, 0.017870698124170, -0.055784724652767, 0.018174227327108, -0.054379768669605, 0.037383858114481, -0.055109415203333, -0.050905980169773, 0.027377422899008, 0.057091575115919, -0.046862743794918, -0.036217592656612, 0.012969236820936, -0.027328927069902, 0.047629777342081, -0.033531993627548, 0.026516225188971, -0.033812634646893, 0.032294120639563, -0.052767969667912, 0.003122430294752, -0.021616280078888, -0.055966041982174, -0.010633666068316, -0.014646582305431, 0.046985451132059, 0.000694222748280, -0.002670712769032, -0.000041916966438, 0.041612561792135, -0.049270942807198, -0.005237191915512, -0.001093726605177, -0.001892279833555, -0.021934740245342, 0.013813812285662, -0.016292002052069, -0.009558487683535, 0.051981542259455, 0.047681037336588, -0.054282061755657, -0.038228556513786, 0.039244432002306, -0.018487099558115, 0.024031635373831, -0.025986552238464, -0.009426545351744, 0.017070475965738, 0.014984060078859, 0.048271272331476, -0.009741488844156, -0.026707634329796, 0.014039117842913, -0.054674118757248, -0.008967712521553, -0.033538516610861, -0.019950479269028, 0.045593205839396, 0.024215999990702, 0.045740444213152, -0.047282993793488, -0.057637255638838, 0.006873775273561, -0.015670582652092, 0.012352425605059, -0.002471584826708, 0.043388519436121, -0.054239604622126, 0.025883499532938, 0.010509174317122, -0.037871919572353, 0.033405940979719, -0.054914556443691, 0.000108625739813, -0.016898360103369, -0.026839870959520, 0.026147436350584, -0.036141116172075, 0.027367610484362, 0.016137938946486, 0.036105293780565, 0.020586248487234, 0.036735508590937, 0.022752050310373, 0.022378031164408, 0.007832307368517, 0.025540564209223, -0.053000777959824, 0.044848810881376, -0.006581794470549, 0.006276000291109, -0.036997199058533, -0.039378568530083, 0.011679176241159, -0.045991674065590, 0.036741394549608, -0.007476095110178, -0.019160535186529, -0.022443294525146, -0.034000869840384, 0.048280250281096, 0.031045291572809, -0.012919180095196, 0.003174971789122, 0.042562838643789, 0.058631744235754, 0.007257271558046, 0.002883523702621, -0.020214244723320, 0.000295329838991, -0.049739830195904, -0.047617536038160, -0.012584581971169, -0.033311791718006, 0.012938652187586, 0.002425014972687, 0.058881711214781, 0.014438364654779, 0.006047088652849, 0.047182437032461, 0.037445556372404, 0.019056234508753, 0.027490247040987, 0.027356553822756, -0.010429050773382, -0.058110967278481, -0.036702804267406, 0.051617491990328, 0.030938480049372, -0.012885317206383, 0.013328950852156, 0.014384616166353, -0.021719060838223, 0.005827713757753, -0.033435367047787, 0.032802458852530, 0.027023840695620, -0.042239867150784, 0.038532335311174, 0.007601369172335, -0.046339005231857, -0.009726502001286, 0.049453560262918, 0.029753345996141, -0.018540024757385, 0.033553224056959, -0.009189896285534, -0.030562207102776, 0.009219985455275, -0.016509693115950, -0.015756547451019, 0.031280610710382, -0.012743152678013, 0.006888244301081, -0.033053729683161, 0.009060155600309, 0.028404828161001, -0.044866703450680, 0.015754017978907, 0.013975914567709, 0.025118302553892, -0.036342598497868, 0.031342256814241, 0.022321220487356, 0.047354664653540, 0.029705587774515, 0.025191802531481, -0.014708112925291, 0.036488760262728, -0.036109138280153, 0.045547854155302, -0.010356571525335, 0.001331470906734, -0.048534173518419, -0.004926320165396, -0.003858953714371, 0.057257276028395, -0.013713777065277, -0.032830931246281, 0.000970028340816, -0.012075658887625, -0.045855112373829, 0.035633254796267, -0.024081792682409, -0.006297040730715, 0.025392230600119, -0.030052660033107, 0.045694146305323, -0.012938894331455, -0.001183733344078, 0.032932426780462, -0.055800661444664, 0.044666487723589, -0.043246552348137, 0.048434678465128, -0.000429850071669, 0.023734945803881, 0.029359515756369, 0.021575283259153, 0.033909272402525, -0.059393979609013, 0.042691756039858, -0.006247665733099, 0.030677836388350, -0.036568388342857, 0.000382754951715, -0.000364135950804, 0.009507153183222, 0.041802939027548, -0.028397455811501, 0.052420061081648, -0.011553648859262, 0.015217345207930, -0.046322625130415, -0.058241117745638, 0.010090511292219, 0.034441556781530, -0.004744224250317, -0.052270859479904, 0.034859631210566, 0.019398223608732, 0.012825939804316, -0.030104605481029, -0.036406211555004, 0.033593494445086, 0.013841677457094, 0.025315318256617, 0.050746444612741, -0.058272160589695, 0.056402217596769, -0.008582118898630, -0.032085590064526, 0.001052461564541, 0.004054393619299, 0.051327746361494, 0.051333677023649, -0.000007048249245, 0.051191117614508, 0.053380358964205, -0.043625608086586, 0.044071126729250, -0.013796381652355, -0.020061403512955, 0.057765197008848, 0.045367967337370, 0.025725003331900, -0.049933657050133, -0.015570409595966, -0.056996040046215, 0.041132014244795, -0.046755000948906, -0.048888452351093, -0.021882325410843, 0.052760343998671, -0.004762146621943, 0.042758274823427, -0.003871094435453, -0.035433419048786, 0.011114325374365, 0.041369464248419, -0.002960681915283, -0.005986340343952, -0.009985584765673, -0.025953523814678, 0.003492210060358, 0.050071608275175, 0.027934323996305, 0.044826518744230, 0.042291399091482, 0.016982693225145, 0.013554807752371, 0.012660209089518, 0.014835190027952, -0.040364488959312, -0.041946761310101, 0.044678580015898, -0.009017910808325, 0.048140343278646, 0.052712041884661, -0.027634043246508, -0.013488799333572, 0.015095461159945, -0.056243147701025, -0.022106610238552, -0.043879702687263, -0.003813575953245, 0.019596356898546, 0.035344634205103, 0.058807473629713, 0.056618217378855, 0.030109781771898, -0.011986646801233, 0.056414697319269, 0.029719468206167, -0.026077609509230, -0.039292559027672, -0.033586248755455, -0.005877885967493, 0.036164317280054, 0.022111576050520, 0.005298610776663, -0.029834970831871, -0.020758308470249, -0.031477540731430, -0.028391811996698, -0.039646867662668, -0.013972211629152, -0.033653058111668, -0.016201853752136, -0.057928700000048, 0.002787262201309, 0.016419272869825, 0.023217055946589, -0.040450256317854, -0.053043264895678, -0.046922020614147, 0.033878374844790, -0.059057839214802, 0.011597681790590, -0.005406610667706, 0.046578492969275, 0.003472272306681, -0.015333730727434, 0.046629015356302, -0.013811938464642, 0.002449516206980, 0.037499774247408, -0.002957262098789, -0.050353027880192, 0.053420063108206, 0.041761148720980, 0.001476597040892, 0.052856769412756, -0.050878524780273, -0.011992745101452, -0.007623195648193, 0.051338624209166, -0.029168073087931, 0.044662330299616, -0.055164765566587, -0.030560009181499, 0.044600855559111, 0.035509597510099, 0.029414150863886, -0.020288679748774, -0.002527654170990, 0.033351246267557, 0.029393989592791, -0.037530034780502, -0.042366676032543, 0.020728666335344, 0.017601091414690, -0.003558930009604, 0.001371573656797, 0.036753263324499, 0.016006339341402, -0.028792053461075, -0.050182685256004, 0.055590372532606, -0.023922044783831, -0.046409469097853, -0.017484031617641, -0.009212911128998, 0.019241381436586, -0.046794466674328, 0.023537743836641, 0.052120801061392, 0.052791055291891, -0.057937931269407, -0.033876843750477, -0.033258162438869, 0.052532169967890, -0.044444523751736, 0.054019931703806, 0.002329945564270, -0.010302428156137, 0.058812838047743, -0.046580206602812, -0.041565820574760, -0.004962153732777, 0.034861963242292, -0.046851232647896, 0.006398733705282, -0.009304575622082, 0.007491160184145, -0.052336193621159, 0.027574907988310, -0.016669426113367, 0.049403872340918, 0.043327044695616, 0.049133609980345, 0.005176682025194, 0.031690519303083, -0.053512651473284, 0.047043357044458, 0.004451911896467, 0.013912793248892, -0.042801897972822, -0.045797947794199, -0.020706802606583, 0.006579834967852, 0.058877680450678, -0.037985324859619, 0.015885692089796, -0.014708366245031, 0.002076957374811, 0.057870429009199, -0.033447459340096, -0.029704434797168, -0.025932110846043, -0.058302067220211, -0.040232479572296, -0.009733919054270, -0.057096369564533, 0.053956825286150, -0.011707596480846, -0.045764323323965, -0.046729885041714, 0.049199808388948, 0.034602645784616, 0.026418600231409, 0.043269399553537, -0.011944700032473, -0.051308121532202, 0.014485489577055, 0.002772331237793, 0.034994821995497, 0.009741302579641, -0.025340385735035, -0.059300202876329, -0.025315612554550, 0.010900009423494, 0.052939023822546, 0.038253638893366, -0.027298524975777, -0.036901254206896, 0.053381022065878, 0.045850869268179, 0.011376630514860, -0.057599421590567, -0.050761844962835, 0.008581776171923, -0.058696199208498, -0.000054936856031, -0.001317117363214, 0.024921286851168, -0.055229570716619, -0.003810215741396, 0.048945415765047, -0.015269845724106, 0.044916648417711, -0.019141066819429, -0.056579377502203, 0.022795896977186, 0.005917545408010, 0.058295134454966, -0.032147500663996, -0.016738243401051, -0.030116772279143, -0.006474614143372, -0.035691000521183, 0.059033218771219, -0.055273614823818, 0.054060433059931, 0.037009712308645, 0.011703047901392, -0.023065038025379, 0.029774401336908, 0.026452098041773, 0.019224818795919, -0.004142343997955, -0.047369331121445, 0.004850279539824, -0.040387906134129, -0.045600663870573, 0.026655439287424, 0.041755545884371, 0.054567817598581, -0.041443228721619, 0.049546148627996, -0.001824226230383, 0.048468459397554, 0.020986560732126, -0.026211190968752, -0.049071006476879, -0.004477936774492, -0.037028882652521, -0.028330266475677, -0.033813752233982, -0.049887653440237, 0.043029855936766, 0.056342411786318, 0.021472666412592, -0.053300857543945, 0.044884327799082, 0.035705510526896, -0.053870432078838, 0.032775174826384, 0.012061860412359, -0.014339990913868, -0.018506754189730, 0.017998654395342, -0.035207830369473, 0.018912594765425, -0.045961324125528, -0.056056994944811, 0.034107450395823, 0.020613420754671, -0.037929907441139, -0.042017299681902, 0.051929514855146, 0.040884871035814, 0.037065055221319, 0.018823597580194, -0.030623072758317, 0.031934518367052, -0.018937896937132, 0.044957417994738, -0.015846550464630, 0.016575124114752, -0.042755939066410, 0.027850244194269, 0.048632223159075, -0.005485627800226, 0.002746861428022, 0.005488190799952, -0.030038494616747, -0.016410950571299, 0.016892146319151, 0.045125048607588, 0.032990325242281, -0.004196345806122, 0.021349865943193, 0.041068743914366, 0.000896159559488, 0.030357364565134, 0.056807022541761, -0.015991538763046, -0.036867134273052, 0.041731256991625, -0.029219733551145, 0.028341386467218, -0.036046050488949, -0.028312910348177, -0.003506984561682, 0.001661472022533, 0.022528629750013, -0.027741067111492, -0.019411407411098, 0.040390644222498, 0.019774775952101, 0.015741486102343, -0.019495699554682, -0.055864192545414, 0.051674615591764, -0.050056293606758, 0.030388649553061, 0.042107645422220, 0.009597215801477, 0.006033558398485, -0.031695570796728, -0.012548536062241, 0.048336874693632, 0.005069587379694, -0.001462843269110, 0.015809457749128, -0.040570765733719, 0.030006442219019, 0.042683076113462, 0.050373662263155, -0.036300439387560, -0.029806239530444, -0.002347260713577, -0.052460841834545, 0.052703220397234, -0.039216492325068, 0.033692393451929, -0.007221296429634, -0.051163248717785, -0.041736416518688, -0.000889975577593, -0.014696341007948, -0.007039114832878, -0.038449663668871, -0.013835620135069, -0.009858299046755, -0.016759119927883, 0.011346366256475, 0.058069970458746, -0.010382395237684, 0.005676645785570, 0.037909884005785, -0.034994494169950, -0.044864349067211, 0.045067261904478, 0.031922947615385, -0.056741479784250, 0.015676762908697, -0.035349398851395, 0.003673966974020, -0.010509438812733, -0.010881289839745, -0.050050135701895, -0.037194199860096, 0.000595014542341, 0.048560354858637, 0.027597185224295, 0.049295190721750, -0.008254952728748, 0.026892032474279, 0.028213050216436, -0.003492422401905, -0.002195823937654, -0.022094301879406, 0.057767380028963, -0.029329054057598, 0.015219654887915, -0.039623837918043, 0.008083816617727, -0.055354531854391, -0.009206969290972, -0.057646885514259, 0.035416942089796, -0.008930232375860, 0.039530839771032, -0.034032873809338, -0.013339020311832, -0.044121611863375, 0.029798287898302, 0.019253563135862, -0.018351402133703, -0.021358724683523, 0.022326629608870, 0.053706761449575, -0.022043108940125, 0.053301569074392, -0.000076349824667, -0.043410640209913, 0.044442627578974, -0.043266423046589, 0.016113165766001, 0.009417850524187, 0.024255324155092, -0.011040158569813, -0.025130864232779, 0.024567630141973, -0.033181045204401, -0.022908877581358, 0.048850830644369, -0.052812512964010, 0.024568025022745, -0.034781396389008, 0.037469852715731, 0.027004655450583, -0.043555852025747, 0.016498330980539, 0.031944315880537, -0.045196749269962, 0.040472183376551, -0.011608853936195, 0.010006058961153, 0.036084350198507, 0.017402563244104, 0.049356620758772, 0.055409993976355, 0.024523738771677, 0.019176516681910, -0.033242348581553, -0.040371961891651, 0.012391369789839, 0.054552461951971, -0.024145904928446, 0.043803807348013, 0.036725152283907, -0.036185547709465, -0.004472121596336, -0.028550410643220, 0.006033238023520, -0.050430923700333, -0.016840178519487, -0.055081382393837, 0.045738842338324, 0.020311642438173, -0.035741969943047, -0.033738352358341, 0.058153223246336, 0.043772678822279, -0.056259244680405, 0.056701872497797, 0.014895994216204, 0.025329124182463, 0.050273966044188, 0.028703901916742, 0.048073437064886, -0.018730726093054, 0.053271990269423, -0.003947570919991, 0.016122128814459, -0.058662675321102, -0.004458721727133, 0.042768035084009, 0.044728752225637, 0.014683451503515, 0.023214649409056, -0.029367625713348, -0.014316350221634, -0.012279439717531, 0.041579294949770, 0.057887267321348, 0.000719025731087, -0.014998096972704, 0.023092646151781, -0.038573022931814, -0.045920256525278, -0.025000359863043, 0.039553958922625, 0.030291918665171, 0.041049141436815, -0.047254920005798, -0.012217357754707, 0.031460974365473, -0.032562062144279, -0.016634512692690, -0.053882658481598, -0.003050871193409, -0.017502155154943, -0.010528143495321, 0.041272621601820, 0.037747126072645, -0.012224886566401, -0.024496156722307, 0.044893633574247, 0.017873320728540, -0.051152318716049, 0.008684080094099, 0.020125117152929, -0.019547685980797, -0.003556206822395, 0.041519340127707, -0.047164186835289, -0.004075750708580, -0.022461555898190, -0.006263490766287, -0.044045418500900, 0.058727476745844, 0.003970149904490, 0.041536185890436, -0.032329995185137, 0.032736208289862, -0.010320536792278, 0.030774738639593, 0.006809312850237, -0.042480319738388, 0.033735457807779, 0.015556398779154, 0.020632397383451, 0.037255380302668, 0.004779431968927, -0.037859328091145, -0.033225655555725, 0.008105512708426, -0.011482760310173, 0.058160107582808, 0.055577185004950, 0.054945226758718, 0.009256359189749, -0.034791141748428, -0.017376810312271, 0.059083577245474, -0.020436048507690, -0.007698524743319, 0.049626741558313, -0.015203252434731, 0.021001439541578, -0.030177041888237, -0.000133626163006, -0.025308609008789, 0.055432897061110, -0.049957349896431, 0.023628871887922, -0.054131675511599, 0.054301973432302, -0.045819714665413, -0.007184453308582, -0.036675043404102, 0.023170728236437, 0.008625369518995, 0.050841029733419, 0.023703109472990, -0.027587529271841, -0.028719417750835, -0.019453030079603, 0.036813560873270, -0.033707767724991, 0.050042916089296, 0.056724574416876, 0.044235188513994, -0.013526674360037, 0.010122228413820, -0.006296660751104, 0.054905708879232, -0.032924756407738, -0.001368865370750, -0.018247980624437, 0.056864272803068, -0.028982615098357, -0.036963365972042, 0.052551131695509, -0.023652993142605, -0.031300604343414, -0.055421296507120, -0.041094139218330, 0.036415036767721, -0.042513333261013, 0.006072487682104, -0.032800003886223, 0.058727610856295, -0.025961425155401, 0.051237162202597, -0.031922847032547, -0.052903313189745, -0.024215929210186, -0.016448996961117, -0.055564068257809, -0.054411701858044, 0.000926055014133, 0.021990168839693, -0.049493025988340, 0.038409318774939, -0.009541127830744, 0.048463609069586, 0.016300793737173, -0.029527997598052, -0.056418836116791, 0.023956518620253, -0.018297728151083, -0.043621309101582, -0.059247195720673, -0.037281781435013, 0.027954984456301, 0.043717104941607, 0.019852090626955, -0.001696541905403, 0.055300589650869, -0.002903349697590, -0.039296813309193, -0.053973685950041, -0.019648741930723, -0.037001159042120, -0.012322209775448, -0.021868500858545, -0.056250154972076, 0.052307020872831, -0.012966487556696, -0.016918726265430, -0.044344209134579, -0.040236011147499, 0.017599862068892, 0.002528816461563, -0.014801990240812, 0.011365737766027, 0.029360879212618, -0.000476688146591, -0.054989572614431, 0.035841759294271, -0.047991715371609, 0.008122008293867, 0.015437941998243, 0.016837794333696, -0.056751403957605, -0.000527627766132, -0.005464270710945, -0.025953665375710, 0.031048554927111, 0.011229600757360, -0.042454876005650, -0.026492852717638, -0.028895687311888, 0.024236310273409, 0.008538570255041, -0.056686412543058, 0.052481491118670, 0.046728510409594, 0.032021004706621, -0.033620353788137, -0.056466512382030, -0.026726242154837, 0.052358198910952, -0.036014780402184, -0.009715877473354, 0.032125946134329, -0.051168922334909, 0.010122064501047, 0.010626260191202, 0.024803984910250, 0.003713030368090, 0.007269438356161, 0.016142126172781, 0.014619808644056, 0.045350130647421, -0.025349833071232, 0.023065518587828, -0.043294601142406, -0.055306486785412, 0.017000418156385, 0.049767170101404, -0.015559475868940, 0.025155309587717, 0.020138647407293, 0.009661722928286, 0.007553394883871, -0.009429030120373, 0.017313916236162, -0.055554199963808, -0.014094009995461, -0.000250745564699, 0.053560655564070, -0.051650874316692, 0.009500641375780, -0.051220130175352, 0.049418363720179, 0.009155463427305, 0.056602660566568, -0.037437234073877, -0.054643489420414, -0.056465618312359, -0.002781648188829, 0.001448262482882, -0.005839794874191, 0.023174855858088, 0.012925278395414, -0.027040190994740, 0.040811870247126, -0.054553881287575, -0.005135189741850, -0.017997603863478, -0.004862986505032, 0.031998772174120, -0.042277403175831, -0.004299569875002, -0.007175818085670, 0.045449350029230, -0.044181965291500, 0.053044486790895, 0.018256772309542, 0.037009481340647, 0.022064264863729, 0.001379571855068, -0.034436844289303, 0.056188512593508, -0.005876764655113, -0.013706460595131, 0.026778835803270, 0.032154027372599, -0.041255898773670, 0.019296575337648, -0.056880407035351, -0.058627519756556, -0.010961327701807, -0.006672468036413, 0.004318568855524, 0.055551659315825, 0.035098168998957, 0.029808718711138, -0.019360627979040, 0.029227416962385, -0.014754753559828, 0.029250789433718, -0.034407451748848, -0.042726680636406, 0.030412163585424, -0.030894706025720, 0.058988507837057, 0.035609859973192, 0.029054496437311, -0.045306779444218, -0.002893209457397, 0.044601503759623, -0.019419692456722, -0.028582332655787, -0.011890202760696, 0.031651508063078, -0.011926945298910, -0.002337418496609, 0.046875339001417, 0.004565883427858, 0.054723430424929, 0.012170683592558, 0.002579003572464, -0.012028153985739, -0.052710141986609, -0.017057895660400, -0.035424429923296, -0.046116534620523, -0.035796862095594, -0.031518355011940, 0.057279851287603, -0.014917735010386, 0.026966858655214, 0.034278746694326, 0.038202274590731, -0.037189181894064, -0.051971971988678, -0.055424556136131, 0.005469974130392, 0.021790605038404, -0.033218227326870, -0.015595309436321, -0.041791241616011, 0.038126867264509, -0.021750371903181, -0.038491468876600, -0.029006524011493, -0.050826538354158, 0.034315545111895, 0.041570898145437, 0.013368118554354, 0.054141428321600, -0.053726341575384, 0.047051731497049, 0.047492008656263, 0.008756887167692, -0.040367372334003, -0.008492041379213, 0.009950187057257, 0.036687631160021, -0.048146456480026, -0.030931860208511, -0.006469611078501, -0.012188073247671, -0.009498160332441, -0.041562177240849, -0.010874796658754, -0.009069047868252, 0.002422701567411, -0.027529288083315, 0.049243781715631, 0.035594511777163, -0.032069236040115, -0.018397137522697, -0.053632039576769, -0.052488125860691, 0.001574870198965, 0.030998323112726, -0.043655499815941, 0.024369362741709, -0.050738718360662, 0.042102586477995, -0.027825795114040, 0.051371734589338, -0.014506828039885, 0.047429371625185, 0.041707333177328, 0.008081901818514, 0.038603115826845, 0.037579197436571, 0.019287664443254, -0.004368670284748, 0.029150787740946, -0.055148284882307, -0.040892630815506, -0.039369519799948, -0.048488341271877, 0.031969700008631, -0.057329870760441, 0.034979175776243, -0.029614442959428, 0.048149649053812, -0.046344719827175, -0.016917135566473, -0.028145290911198, 0.047342013567686, -0.002767864614725, -0.031288720667362, -0.042946800589561, -0.028983721509576, 0.047763001173735, -0.033392112702131, -0.007611084729433, 0.013817522674799, -0.032122444361448, -0.025733184069395, 0.041199248284101, 0.020429130643606, 0.053821053355932, -0.035485450178385, -0.024947363883257, 0.049709666520357, -0.033794254064560, -0.030361166223884, -0.033381178975105, 0.011691842228174, -0.051001161336899, -0.044896867126226, -0.012197997421026, -0.050421390682459, -0.017139066010714, -0.026590488851070, -0.037920393049717, 0.047012198716402, 0.007254507392645, 0.037299197167158, -0.002039194107056, -0.048305407166481, 0.032163131982088, -0.002328682690859, 0.020552683621645, -0.042707480490208, 0.038017157465219, -0.016764819622040, 0.053293313831091, -0.011565219610929, -0.000489126890898, -0.039812911301851, -0.035461232066154, -0.001760482788086, -0.037442781031132, -0.039060175418854, -0.051124054938555, -0.015261776745319, -0.046799924224615, -0.025835368782282, -0.043904915452003, 0.006575029343367, 0.055806960910559, -0.058871202170849, 0.043777000159025, -0.025269739329815, 0.035033863037825, -0.004414871335030, 0.032364550977945, 0.039087165147066, -0.010622009634972, -0.035671163350344, 0.050903301686049, 0.037156496196985, 0.009518895298243, -0.048060376197100, -0.000212967395782, -0.034581292420626, 0.017441403120756, -0.034525405615568, 0.036577139049768, -0.015231441706419, -0.038950998336077, -0.028177510946989, -0.011083964258432, -0.025261159986258, 0.032723199576139, -0.038362689316273, 0.059212308377028, -0.035738721489906, 0.027053121477365, -0.019766088575125, -0.041121155023575, -0.053690280765295, 0.014910202473402, -0.032453976571560, -0.040447905659676, -0.059176944196224, 0.013384144753218, -0.007625944912434, -0.027888447046280, -0.030571268871427, -0.009217280894518, -0.036977306008339, -0.059181679040194, -0.034498095512390, 0.038854423910379, -0.047039750963449, -0.019869450479746, -0.004621602594852, 0.057828243821859, -0.022405229508877, 0.001926939934492, 0.052122797816992, -0.017488963901997, 0.019107144325972, 0.006066743284464, -0.024934772402048, 0.056929375976324, 0.020705949515104, 0.056888576596975, -0.027830589562654, 0.053482200950384, -0.017574347555637, -0.023983221501112, 0.033244747668505, 0.055267702788115, 0.014159072190523, -0.028157219290733, 0.015492197126150, 0.014184769243002, -0.054666221141815, 0.013713974505663, 0.039647560566664, -0.002453178167343, 0.023334193974733, 0.019498277455568, -0.044704146683216, 0.007110852748156, 0.013627853244543, -0.043491840362549, 0.049573902040720, 0.009185101836920, -0.023709729313850, 0.002107277512550, 0.014967519789934, -0.019688870757818, 0.042592715471983, 0.055545050650835, -0.035159830003977, -0.038261298090219, -0.057672437280416, 0.028352942317724, 0.038030322641134, 0.042195286601782, -0.011755514889956, -0.020449079573154, -0.058736585080624, -0.036489058285952, -0.030869521200657, -0.044021777808666, -0.004258997738361, -0.019414968788624, 0.021359805017710, -0.021672405302525, -0.034485161304474, -0.053771607577801, 0.037685383111238, 0.023430336266756, -0.025357462465763, 0.039917726069689, 0.032455336302519, -0.056700140237808, 0.018626157194376, 0.041575450450182, 0.009629618376493, -0.015348605811596, 0.009062450379133, -0.050805281847715, -0.034703291952610, 0.025524001568556, -0.016781311482191, -0.029694069176912, -0.056804951280355, 0.028087306767702, -0.036279723048210, -0.040996760129929, -0.029159279540181, 0.021441671997309, -0.049198079854250, 0.057687994092703, -0.023086339235306, 0.009601157158613, 0.043774012476206, -0.023123834282160, 0.059313219040632, 0.054439779371023, -0.057372059673071, 0.051239062100649, 0.048529963940382, -0.052927918732166, 0.037841584533453, 0.005447838455439, -0.008539106696844, -0.056217268109322, -0.050591476261616, 0.034390803426504, 0.000485751777887, 0.029815498739481, -0.027859702706337, 0.019384603947401, 0.032219495624304, -0.037405371665955, 0.044374402612448, 0.025260906666517, -0.057605348527431, -0.058099649846554, 0.046553719788790, -0.020804140716791, -0.028609247878194, 0.018855292350054, 0.042093861848116, 0.015930447727442, 0.052463721483946, -0.025042094290257, -0.057484555989504, -0.037347197532654, 0.029182534664869, 0.008581001311541, 0.035399515181780, -0.042122580111027, 0.051979880779982, 0.035135935992002, 0.013010334223509, -0.031001785770059, 0.026245143264532, -0.052294202148914, -0.010261714458466, 0.004726354032755, -0.007964286953211, 0.004180323332548, 0.029642511159182, -0.004945788532495, -0.005358014255762, -0.059070982038975, 0.042780566960573, 0.053672853857279, -0.021065551787615, 0.042521838098764, 0.035954918712378, 0.015081536024809, -0.037094824016094, -0.010513935238123, -0.032410938292742, 0.012903343886137, -0.013370573520660, -0.039416544139385, 0.058358635753393, 0.035472843796015, 0.019082855433226, -0.031621731817722, 0.040569294244051, 0.014097500592470, 0.008474241942167, 0.053787019103765, -0.026255749166012, 0.002619788050652, -0.001892820000648, 0.027226481586695, -0.004009570926428, -0.008929520845413, 0.030053939670324, -0.018809758126736, 0.000427424907684, -0.003107465803623, -0.052648101001978, 0.047335024923086, 0.012717258185148, -0.013828501105309, 0.011959847062826, 0.035138685256243, -0.026831109076738, 0.050112444907427, -0.051299698650837, 0.045747991651297, 0.029578465968370, -0.035427138209343, 0.032528076320887, -0.037765789777040, 0.025152917951345, 0.005852062255144, -0.056553367525339, 0.051927048712969, -0.002612598240376, -0.040386229753494, -0.026867978274822, 0.014899041503668, 0.035368163138628, -0.053708262741566, 0.002776328474283, 0.026379685848951, -0.059353593736887, -0.053773239254951, 0.057003613561392, -0.057256400585175, -0.005079317837954, 0.017605278640985, 0.000057786703110, 0.030437473207712, -0.054095499217510, 0.033417243510485, 0.019397314637899, 0.019472625106573, 0.001660279929638, -0.043409861624241, 0.047543529421091, -0.000457659363747, 0.014432337135077, -0.028319446370006, 0.019886653870344, -0.022603180259466, 0.050632108002901, 0.028564278036356, -0.029493367299438, -0.007003832608461, 0.012901004403830, 0.029499847441912, 0.026911173015833, 0.018324632197618, -0.002654857933521, 0.024126175791025, 0.012581121176481, 0.015684846788645, 0.052559044212103, -0.037728875875473, 0.026520360261202, 0.001202028244734, 0.035889778286219, -0.020430814474821, 0.000453334301710, -0.014687675982714, -0.026549745351076, 0.057605762034655, -0.058541782200336, -0.039089631289244, -0.044191040098667, 0.036693800240755, -0.041032623499632, -0.057243295013905, 0.058047268539667, -0.027230981737375, 0.013005953282118, 0.017408620566130, -0.012322962284088, -0.014307729899883, -0.037424571812153, -0.019877038896084, -0.040874503552914, 0.031280409544706, 0.024856436997652, 0.047406639903784, -0.053794126957655, -0.004479907453060, -0.018017854541540, -0.016697857528925, -0.024194177240133, 0.059264238923788, -0.010604467242956, 0.039983157068491, 0.021483104676008, 0.037227202206850, 0.044753637164831, -0.024060096591711, 0.010272081941366, 0.021275211125612, -0.033268779516220, 0.021332111209631, -0.031664174050093, -0.020379919558764, 0.039260115474463, 0.001666590571404, -0.011974621564150, 0.044517684727907, 0.046663422137499, 0.028842661529779, -0.030385272577405, 0.008150126785040, -0.040829762816429, 0.001160081475973, -0.031346209347248, -0.012944635003805, 0.028265092521906, 0.043141741305590, -0.052036833018064, 0.018971432000399, -0.010099783539772, 0.051798369735479, -0.058500785380602, 0.032536309212446, 0.010768670588732, -0.002603180706501, -0.037338379770517, -0.021452873945236, -0.017726991325617, 0.015165243297815, 0.044582065194845, -0.001366112381220, 0.005602378398180, -0.012017279863358, 0.054354298859835, -0.048211999237537, -0.048427674919367, -0.056667268276215, -0.001920912414789, -0.025853563100100, -0.000522904098034, 0.023357260972261, 0.040427457541227, -0.057191282510757, -0.009474307298660, -0.014504745602608, -0.030496962368488, 0.039737980812788, -0.053987838327885, -0.024313762784004, -0.010535448789597, 0.006874654442072, 0.043069418519735, 0.043915409594774, 0.047256153076887, -0.026845812797546, -0.043344035744667, 0.050722192972898, -0.037888102233410, -0.027111619710922, 0.036163222044706, -0.013244874775410, 0.007670003920794, -0.052492577582598, -0.039150580763817, 0.017286572605371, -0.031827438622713, 0.017966020852327, -0.056214887648821, 0.007903184741735, -0.015099119395018, -0.018139470368624, 0.022021848708391, 0.017582576721907, 0.029742542654276, -0.029051873832941, -0.003025885671377, 0.037881065160036, 0.049370687454939, -0.028237255290151, -0.024630889296532, 0.035823170095682, -0.025645118206739, 0.005853664129972, -0.034481998533010, 0.050057698041201, 0.027404215186834, 0.037633296102285, -0.007634524255991, 0.029609937220812, -0.033395942300558, -0.020460821688175, -0.003806654363871, -0.048807337880135, -0.050269175320864, 0.042086262255907, -0.027838971465826, 0.010041799396276, -0.035884104669094, 0.030961725860834, 0.009803544729948, -0.021312139928341, -0.053067073225975, -0.051815114915371, -0.056777864694595, -0.049264557659626, -0.026922162622213, -0.036406993865967, 0.018475305289030, 0.027949210256338, -0.052215769886971, -0.051659651100636, 0.022808250039816, -0.050088297575712, -0.043583832681179, 0.048024814575911, 0.028915043920279, -0.003762792795897, 0.025278646498919, -0.050359420478344, 0.038419205695391, 0.020920228213072, -0.041428439319134, 0.011397544294596, -0.047871433198452, 0.036068480461836, 0.033807042986155, -0.041024085134268, 0.057742830365896, -0.053246349096298, 0.032302159816027, -0.016376562416553, -0.031740128993988, -0.051872804760933, 0.054314877837896, -0.013865854591131, 0.016703460365534, 0.045072641223669, 0.014562401920557, -0.050237581133842, -0.000308576971292, -0.025878451764584, 0.030377600342035, 0.035435546189547, 0.035163756459951, 0.039808016270399, -0.036502260714769, -0.050696600228548, 0.043369274586439, 0.000450979918242, 0.042047884315252, 0.043604936450720, 0.049890358000994, -0.038051988929510, -0.050171285867691, -0.002849984914064, -0.010346546769142, -0.034985788166523, 0.026364598423243, -0.015086129307747, 0.035776954144239, 0.023639436811209, -0.017215117812157, 0.016310263425112, 0.013663221150637, -0.050547007471323, 0.000330016016960, -0.048337556421757, 0.055010262876749, 0.051703382283449, -0.055721420794725, -0.015161458402872, -0.057912394404411, -0.004542186856270, 0.042312491685152, -0.015968166291714, 0.036285381764174, 0.047941539436579, 0.000353839248419, -0.020947210490704, -0.010445851832628, 0.021278586238623, 0.001811604946852, -0.053082659840584, 0.041443344205618, -0.045139912515879, 0.000320885330439, 0.011724997311831, 0.038478206843138, -0.053745131939650, -0.055498920381069, -0.040531825274229, -0.010828297585249, -0.038429863750935, -0.000948216766119, -0.016591075807810, 0.050254199653864, 0.054976884275675, -0.028675017878413, 0.049390304833651, 0.040408987551928, 0.037233654409647, -0.039906322956085, 0.009731944650412, 0.047715041786432, 0.044445406645536, 0.049099069088697, 0.050297539681196, 0.046929497271776, -0.007191810756922, -0.036895200610161, -0.022855643182993, 0.052192311733961, 0.015828240662813, -0.033595323562622, 0.048399526625872, 0.029749158769846, -0.048613656312227, -0.001827500760555, 0.008714925497770, -0.050042748451233, -0.011287771165371, 0.034016188234091, 0.001575041562319, -0.054154872894287, -0.001734051853418, 0.044908296316862, -0.049465358257294, 0.043420579284430, 0.030391190201044, -0.001366041600704, 0.030691947788000, 0.021172944456339, 0.010738890618086, -0.045866824686527, 0.051672440022230, 0.006811495870352, 0.019903544336557, -0.036099724471569, 0.025252167135477, -0.022869739681482, -0.033775493502617, 0.047024931758642, 0.023571480065584, -0.029319623485208, -0.044693723320961, 0.056549955159426, -0.034245662391186, -0.042265892028809, -0.015830542892218, 0.027321565896273, -0.011593583971262, 0.055036839097738, -0.025689929723740, 0.000040698796511, 0.015761706978083, -0.050422456115484, -0.037129182368517, 0.004341896623373, -0.019948922097683, -0.009529612958431, 0.001661896705627, 0.034835573285818, 0.053933907300234, -0.017847161740065, 0.045519221574068, -0.039366215467453, 0.044652815908194, -0.022446285933256, -0.023973166942596, 0.024295751005411, -0.028745155781507, -0.003533702343702, -0.018155239522457, -0.028665218502283, -0.009872052818537, 0.008188929408789, -0.027233038097620, -0.049767017364502, 0.049843210726976, 0.005902361124754, -0.031432941555977, 0.013737712055445, -0.034505326300859, -0.026476643979549, -0.029081115499139, 0.003415007144213, -0.005070071667433, 0.045417305082083, -0.007124539464712, 0.030378792434931, -0.058712832629681, -0.019798729568720, -0.020254544913769, 0.039101812988520, -0.023197077214718, 0.057107206434011, -0.032188512384892, 0.022419910877943, 0.020682681351900, 0.010971579700708, 0.038757767528296, -0.039292573928833, 0.049713011831045, -0.057324893772602, 0.007964301854372, -0.041950549930334, 0.002545125782490, 0.046864833682775, -0.036206021904945, -0.014370225369930, 0.041583660990000, -0.042710006237030, -0.039219968020916, 0.029202718287706, 0.016886193305254, -0.042975120246410, 0.016981463879347, -0.055741485208273, 0.016285818070173, 0.039689484983683, 0.031296093016863, 0.026272762566805, -0.020617533475161, -0.056565947830677, -0.057985153049231, 0.013838056474924, -0.053513415157795, 0.000154074281454, -0.012547388672829, -0.042000070214272, 0.005669083446264, -0.017776764929295, 0.028802249580622, 0.048515651375055, 0.028236541897058, 0.026668783277273, 0.054960731416941, -0.049138788133860, 0.043681312352419, -0.013807740062475, -0.009977884590626, -0.015058849006891, 0.002806521952152, 0.002249285578728, -0.038440119475126, -0.041702330112457, -0.037903174757957, -0.004089094698429, -0.038057718425989, 0.006888028234243, -0.041618123650551, -0.025289747864008, -0.043456614017487, 0.009348522871733, 0.057208824902773, -0.031311370432377, -0.022427693009377, -0.003384418785572, 0.042885463684797, -0.018787860870361, 0.042844031006098, 0.030632529407740, 0.045362111181021, 0.045440476387739, 0.047547552734613, 0.019894313067198, 0.004777718335390, -0.012501880526543, -0.051565349102020, 0.020689103752375, -0.047806467860937, 0.005793806165457, -0.028091657906771, -0.039233706891537, -0.014420438557863, -0.043876737356186, 0.059319060295820, -0.054310310631990, -0.054049395024776, -0.045842688530684, 0.046195778995752, 0.016574751585722, -0.021922089159489, -0.001141972839832, 0.033525358885527, 0.025609072297812, -0.005767330527306, 0.029992956668139, -0.038574598729610, -0.006292659789324, 0.019661787897348, 0.004272039979696, -0.024523966014385, -0.031784653663635, -0.015055160969496, -0.058851961046457, -0.048665884882212, 0.005028847604990, 0.044751498848200, 0.050204437226057, 0.046725776046515, -0.018208701163530, 0.057790223509073, 0.002547152340412, 0.011249508708715, -0.015968095511198, -0.019389245659113, -0.034271340817213, -0.059349454939365, -0.054575834423304, -0.001729313284159, 0.007342029362917, -0.049966711550951, -0.034953724592924, -0.044953107833862, -0.049913134425879, -0.046123012900352, -0.024570394307375, 0.053875040262938, 0.028845515102148, 0.020953971892595, 0.039055015891790, -0.026686023920774, -0.029476789757609, 0.019560914486647, 0.049650419503450, -0.044670313596725, 0.031452324241400, -0.054841056466103, 0.023092623800039, 0.044086668640375, 0.042149093002081, -0.045254662632942, -0.017762485891581, 0.054607566446066, 0.016578923910856, 0.037423860281706, -0.009203284978867, 0.032326776534319, 0.042208727449179, -0.002238322049379, -0.042738325893879, 0.006293226033449, -0.050273597240448, 0.015710171312094, 0.059399116784334, 0.005950119346380, 0.010468404740095, -0.006722878664732, -0.028501572087407, 0.017983127385378, -0.031533710658550, -0.014688868075609, 0.057932857424021, -0.010261006653309, 0.013514947146177, 0.045815799385309, 0.032319489866495, -0.022118452936411, -0.012770961970091, 0.018094774335623, 0.047272730618715, -0.030870243906975, -0.030757110565901, -0.047270376235247, 0.024538788944483, -0.038045138120651, -0.018341235816479, -0.017691638320684, 0.026712205260992, 0.002381931990385, 0.005400184541941, -0.007645286619663, -0.000501506030560, -0.045663852244616, -0.020097296684980, -0.010617740452290, 0.055240590125322, -0.037492439150810, 0.027772601693869, 0.011968608945608, 0.053305868059397, -0.013607874512672, -0.034889072179794, -0.041552349925041, 0.010871920734644, -0.017230518162251, -0.038651499897242, 0.058655273169279, 0.004515398293734, 0.015799570828676, 0.019330535084009, -0.055082812905312, 0.035170663148165, -0.030093004927039, -0.000931400805712, 0.003924343734980, -0.053558610379696, -0.034799449145794, -0.017305947840214, 0.002312801778316, 0.054584156721830, 0.036900591105223, 0.014425788074732, -0.056872040033340, 0.034003395587206, 0.049412127584219, -0.035549178719521, 0.042868945747614, 0.023785356432199, 0.027179714292288, 0.047215964645147, 0.043441895395517, 0.038550402969122, -0.037913627922535, 0.041460726410151, 0.007964652031660, -0.049450088292360, 0.002098031342030, -0.032109383493662, -0.007163677364588, -0.030685709789395, -0.002306617796421, -0.026179000735283, -0.036023460328579, 0.032631639391184, 0.002685457468033, 0.025431361049414, 0.012256313115358, -0.006252218037844, 0.029620584100485, 0.036366309970617, -0.039854008704424, -0.040457304567099, -0.042500510811806, 0.051863741129637, 0.035622950643301, -0.013314202427864, -0.027392584830523, -0.051483593881130, 0.009983021765947, -0.032532140612602, -0.001050293445587, -0.019944511353970, -0.027992706745863, 0.012960363179445, 0.012759674340487, 0.037056405097246, -0.003566488623619, -0.008563585579395, -0.009293645620346, 0.053176093846560, 0.022339258342981, -0.000577971339226, -0.056749094277620, 0.002361878752708, -0.000585116446018, 0.018441539257765, -0.057282421737909, -0.050541277974844, -0.032608859241009, -0.035017780959606, 0.042177814990282, -0.056080762296915, 0.037319790571928, -0.043777599930763, 0.025433797389269, -0.053963545709848, -0.044323861598969, 0.018463570624590, 0.008957441896200, -0.024460125714540, 0.040309380739927, 0.049062568694353, 0.015749324113131, -0.003356922417879, 0.006692331284285, 0.029139388352633, 0.049947101622820, 0.001384351402521, -0.045731894671917, -0.011170551180840, -0.028831221163273, 0.058748748153448, 0.013240251690149, 0.058453064411879, 0.025271315127611, 0.027286317199469, 0.053366590291262, -0.049538645893335, -0.052599459886551, 0.043234985321760, -0.027466624975204, -0.052008204162121, 0.004652742296457, 0.021893527358770, -0.037977837026119, 0.015258457511663, 0.040543001145124, -0.041234940290451, 0.002623163163662, -0.008843585848808, -0.049556016921997, -0.053952571004629, 0.032210532575846, -0.021477080881596, 0.053901191800833, -0.020525995641947, 0.057871866971254, 0.043367031961679, -0.031915813684464, 0.014531817287207, -0.008837744593620, -0.015039205551147, 0.056900557130575, 0.057996127754450, 0.052649181336164, -0.016607880592346, 0.035728383809328, 0.026085238903761, 0.055276084691286, 0.002433650195599, -0.029001221060753, 0.016908939927816, -0.007275480777025, -0.059262596070766, 0.004176829010248, -0.015007894486189, -0.048900876194239, 0.046421010047197, 0.051700633019209, 0.011925388127565, -0.027409005910158, -0.003887783735991, -0.015631925314665, -0.023035954684019, 0.030653264373541, -0.014496248215437, 0.048233736306429, 0.000641174614429, 0.046002220362425, -0.055465426295996, 0.030490566045046, 0.056580636650324, -0.001825246959925, -0.008245818316936, 0.030874144285917, -0.021599289029837, 0.039216648787260, -0.032588131725788, -0.007597908377647, 0.030008982867002, -0.058664858341217, -0.001361787319183, -0.056898176670074, -0.050529934465885, 0.048906978219748, 0.049218993633986, -0.024909049272537, 0.045874286442995, -0.027536775916815, -0.037294231355190, -0.048269204795361, -0.057849373668432, 0.057161625474691, 0.047122579067945, -0.043686345219612, -0.056486845016479, -0.048038795590401, -0.029248690232635, -0.043098066002131, -0.000077158212662, -0.006515868008137, -0.035860136151314, -0.033448595553637, 0.003985304385424, -0.041852757334709, 0.034289617091417, -0.030495868995786, 0.030971553176641, -0.045845665037632, -0.031588632613420, 0.005493741482496, -0.010475009679794, -0.014114301651716, 0.042119372636080, 0.041960489004850, 0.014375414699316, -0.009729761630297, -0.054041810333729, 0.055483873933554, -0.052415575832129, -0.026477862149477, -0.042054977267981, -0.019691381603479, 0.034066412597895, 0.055282238870859, 0.030121888965368, -0.015861697494984, -0.018815726041794, 0.030397299677134, -0.059444747865200, -0.028740676119924, 0.024778004735708, 0.034681636840105, -0.012559510767460, -0.026625953614712, -0.002965644001961, -0.023300014436245, -0.028868416324258, -0.030937546864152, 0.035715963691473, -0.040345616638660, 0.017324980348349, -0.005422364920378, -0.040689036250114, -0.028233524411917, 0.016321796923876, -0.032822072505951, 0.055872146040201, -0.001742277294397, 0.011625673621893, -0.016259726136923, -0.007544122636318, -0.000480446964502, 0.024126458913088, 0.032777998596430, -0.024501800537109, -0.040288440883160, -0.024407044053078, -0.006517142057419, 0.029890503734350, -0.052097585052252, -0.055549960583448, 0.032169166952372, 0.043113011866808, 0.055737059563398, -0.045507963746786, -0.031835436820984, 0.023565609008074, -0.032872244715691, -0.005723185837269, 0.052174951881170, -0.053603265434504, -0.033076178282499, -0.020506128668785, 0.044256929308176, -0.008270055055618, -0.047453422099352, -0.037776611745358, -0.016578141599894, -0.014821276068687, 0.015478234738111, 0.041622336953878, -0.024431053549051, 0.008013110607862, 0.037075947970152, 0.005515579134226, 0.023595500737429, 0.058630909770727, -0.008419591933489, -0.023510359227657, -0.018323410302401, -0.057945802807808, -0.034093454480171, -0.047508895397186, 0.030869621783495, -0.026826996356249, 0.034693095833063, 0.028699297457933, -0.005776319652796, 0.047328162938356, 0.015606414526701, -0.018383551388979, 0.024886418133974, 0.001430224627256, 0.042827960103750, 0.041121948510408, -0.028466161340475, -0.026469707489014, 0.018556941300631, -0.009862240403891, -0.010923918336630, 0.015980090945959, 0.009547282010317, -0.050575979053974, -0.028668111190200, 0.018463220447302, -0.026455584913492, 0.047052372246981, 0.017596226185560, 0.026116717606783, 0.026580076664686, 0.027254339307547, -0.006448891013861, 0.012841131538153, 0.008959386497736, 0.004906993359327, -0.033367738127708, -0.036436960101128, -0.022575445473194, -0.008570179343224, -0.012497596442699, 0.006381813436747, 0.024224426597357, 0.001736391335726, -0.045952674001455, -0.026496909558773, 0.054212648421526, 0.059090670198202, -0.000082276761532, -0.041583705693483, 0.042317550629377, -0.039403367787600, -0.046783275902271, -0.038745619356632, -0.051774855703115, -0.033000975847244, 0.032095458358526, 0.051810253411531, 0.007969040423632, -0.016579374670982, 0.035318341106176, -0.055255111306906, -0.039256229996681, 0.002631004899740, -0.029475329443812, -0.034836038947105, 0.010136116296053, 0.036819901317358, 0.020073939114809, -0.001538824290037, 0.041928242892027, -0.044067129492760, 0.031804468482733, -0.005872964859009, -0.001442689448595, -0.058596223592758, -0.042446497827768, 0.038262914866209, 0.005589943379164, -0.054560560733080, 0.013354998081923, 0.001688644289970, 0.002893280237913, 0.001090750098228, 0.014590512961149, -0.028472004458308, -0.040009446442127, 0.001405820250511, 0.059282291680574, -0.025410782545805, -0.017366271466017, -0.038977120071650, 0.045384492725134, 0.038058992475271, 0.039489131420851, 0.023276861757040, -0.023669499903917, 0.054061818867922, 0.046814758330584, 0.046436678618193, -0.022294122725725, -0.029325239360332, -0.027906186878681, -0.040757484734058, -0.026243411004543, 0.044881012290716, -0.036493413150311, 0.000547453761101, 0.011260259896517, 0.011540275067091, -0.018299642950296, 0.048352334648371, 0.042579624801874, 0.017341639846563, -0.013014506548643, 0.001313105225563, -0.036198094487190, -0.050244104117155, 0.016063604503870, -0.035349935293198, 0.026742126792669, 0.046352911740541, 0.032947923988104, 0.013208214193583, 0.045815531164408, -0.045814197510481, -0.018991768360138, -0.052593603730202, 0.022364605218172, -0.035478614270687, -0.049086123704910, 0.037203799933195, -0.048268280923367, -0.013162355870008, -0.006765011698008, -0.027847152203321, 0.028566773980856, -0.010646454989910, -0.047338839620352, -0.017898805439472, 0.006293255835772, -0.038671892136335, 0.018866296857595, 0.052383814007044, -0.002009090036154, 0.014939371496439, -0.026802163571119, 0.001232601702213, 0.011037845164537, 0.020371835678816, 0.031762544065714, 0.045779850333929, 0.046476725488901, -0.044209860265255, 0.028446000069380, -0.002571813762188, 0.018643032759428, -0.031681761145592, 0.045887742191553, 0.051531586796045, 0.033101279288530, 0.049551878124475, -0.024976208806038, -0.047756664454937, -0.008425094187260, -0.025485288351774, 0.034000571817160, -0.023642156273127, 0.034108605235815, 0.019989650696516, 0.021373812109232, -0.038687121123075, 0.053418662399054, -0.012881077826023, 0.013346936553717, -0.028964648023248, -0.047709811478853, 0.022105161100626, 0.040520649403334, -0.025063917040825, 0.002022732049227, -0.015382468700409, 0.000251695513725, -0.055314812809229, -0.046219956129789, -0.005043353885412, -0.047496363520622, 0.048984546214342, -0.043704994022846, 0.048600908368826, 0.044941071420908, -0.048890255391598, -0.016761485487223, -0.007343675941229, 0.009083610028028, 0.039252456277609, -0.043046418577433, -0.039512362331152, 0.030717987567186, -0.021786078810692, -0.023210790008307, -0.016696453094482, -0.057427704334259, 0.054789368063211, -0.030301421880722, 0.002988900989294, 0.045368056744337, -0.001464895904064, -0.008159317076206, -0.052074287086725, -0.055496130138636, 0.016997966915369, -0.016293644905090, 0.001996524631977, -0.033549495041370, 0.008369874209166, 0.006119076162577, 0.017574150115252, -0.010834537446499, 0.033023666590452, 0.058151695877314, -0.026136912405491, 0.053508181124926, 0.032311771064997, 0.008398886770010, -0.003613654524088, 0.039289068430662, -0.008441630750895, 0.044095110148191, -0.053308900445700, 0.038752522319555, 0.013965573161840, -0.058636438101530, -0.033164426684380, 0.003704082220793, -0.031089311465621, 0.019748631864786, 0.032345298677683, -0.017071310430765, 0.040143143385649, -0.023042351007462, -0.001342218369246, 0.035929072648287, -0.024909216910601, -0.003984495997429, 0.015901234000921, -0.009060170501471, 0.046041492372751, -0.053184945136309, 0.005972344428301, -0.041165795177221, -0.001348301768303, 0.006427537649870, 0.011233802884817, 0.059165913611650, 0.050237763673067, 0.025198902934790, 0.050515819340944, -0.003528229892254, 0.054249670356512, 0.017345923930407, -0.009032886475325, 0.022284325212240, -0.038611605763435, -0.042359270155430, 0.041291039437056, 0.057508151978254, 0.019469249993563, 0.010390166193247, 0.055232126265764, -0.017135635018349, 0.012320335954428, -0.001630716025829, -0.028087135404348, -0.051710955798626, -0.036335080862045, 0.016783539205790, -0.010875847190619, 0.002058226615191, -0.028598142787814, 0.010982614010572, -0.019577778875828, -0.049212105572224, -0.009499140083790, -0.014388419687748, 0.027521815150976, -0.015732735395432, 0.008757140487432, -0.057327006012201, 0.037589196115732, -0.036653131246567, -0.038929328322411, 0.022990886121988, -0.011428855359554, -0.012536540627480, -0.015460833907127, 0.022887382656336, -0.026660639792681, 0.027120936661959, -0.046782340854406, 0.019853401929140, -0.003184825181961, 0.057271759957075, -0.021987959742546, -0.025205060839653, -0.001419220119715, -0.001342914998531, -0.028212565928698, 0.042709339410067, -0.053911004215479, -0.004816547036171, -0.022104058414698, -0.007829356938601, -0.011218782514334, -0.033832341432571, -0.000241797417402, -0.040326640009880, 0.053786698728800, 0.046302627772093, 0.046448294073343, -0.041249871253967, -0.004374329000711, 0.031201709061861, -0.027110740542412, -0.023821517825127, -0.035731926560402, -0.053832542151213, 0.050545986741781, 0.049718234688044, -0.041984513401985, -0.016981560736895, -0.002593483775854, 0.025637317448854, -0.006511371582747, 0.022848684340715, -0.046648487448692, 0.046143140643835, 0.036535020917654, -0.059006504714489, -0.050955343991518, 0.010105218738317, -0.036413248628378, 0.058500114828348, -0.013118293136358, -0.051275804638863, -0.041753917932510, -0.054336290806532, 0.036779608577490, -0.020405288785696, 0.044071864336729, -0.008558068424463, -0.004282154142857, 0.046431604772806, -0.006111700087786, -0.025966159999371, -0.021281637251377, -0.041313659399748, 0.008191462606192, -0.028967894613743, -0.046790070831776, 0.039859067648649, -0.032605826854706, -0.011577345430851, -0.054723456501961, 0.050258357077837, 0.035040911287069, -0.033271193504333, -0.008396718651056, -0.043736316263676, -0.005578838288784, -0.054708510637283, 0.010184656828642, 0.052011761814356, 0.011686321347952, -0.059019505977631, 0.009500969201326, 0.032081600278616, -0.019069779664278, -0.057306274771690, -0.043730191886425, -0.008663956075907, 0.016479101032019, -0.055893689393997, -0.026114266365767, -0.053429804742336, 0.014971818774939, -0.000525712966919, -0.044979907572269, 0.012823391705751, 0.035125028342009, 0.002095066010952, 0.051452230662107, -0.012979634106159, -0.014138553291559, 0.032427672296762, -0.026971414685249, -0.046292547136545, 0.056420620530844, -0.017899148166180, 0.040057089179754, -0.052879672497511, -0.002545792609453, -0.035063795745373, -0.033555366098881, 0.051699940115213, -0.043504234403372, 0.055210810154676, -0.039791271090508, -0.006301537156105, -0.017564211040735, -0.010863974690437, 0.052562247961760, 0.008124079555273, 0.037495743483305, 0.053253110498190, -0.021639987826347, 0.002025097608566, 0.030721191316843, -0.013519711792469, -0.005419954657555, -0.057063397020102, -0.054187264293432, 0.027860794216394, -0.045482762157917, -0.033873640000820, 0.028333786875010, -0.049980141222477, 0.027934607118368, 0.048650275915861, -0.008886370807886, 0.056128326803446, -0.028877278789878, -0.037005044519901, -0.058836914598942, 0.033925939351320, -0.055582433938980, -0.055492598563433, -0.044602487236261, -0.010644711554050, -0.019310910254717, -0.020454086363316, 0.008556749671698, -0.028232688084245, -0.016507692635059, -0.035608395934105, 0.021012473851442, -0.005576740950346, -0.032453395426273, -0.018829710781574, -0.025142621248960, 0.040968056768179, -0.018604531884193, -0.013272214680910, 0.049517747014761, 0.047048214823008, -0.004005003720522, 0.039384070783854, -0.039617683738470, -0.045470565557480, -0.014180187135935, -0.007701996713877, -0.020803503692150, -0.024785831570625, -0.044999934732914, 0.046501744538546, -0.057941447943449, -0.027711383998394, -0.021651346236467, 0.029865402728319, -0.011171717196703, -0.010047413408756, 0.056210417300463, -0.049456410109997, 0.034922312945127, -0.037743695080280, -0.042482770979404, 0.048438314348459, -0.029288709163666, 0.046067822724581, 0.056831214576960, 0.037317607551813, -0.048299439251423, 0.045837070792913, 0.056377839297056, 0.009014930576086, -0.009944092482328, 0.030682619661093, -0.028757834807038, 0.046249751001596, 0.017034258693457, -0.017482217401266, -0.045041240751743, 0.058770600706339, -0.028929635882378, 0.049379523843527, 0.031440127640963, 0.018557209521532, 0.048674944788218, -0.042471386492252, -0.043314054608345, 0.018179658800364, -0.031290605664253, 0.005165580660105, -0.041100986301899, 0.054370310157537, -0.042101137340069, -0.010367106646299, 0.026121001690626, 0.058827925473452, 0.059066910296679, -0.005326446145773, -0.031484857201576, -0.052983563393354, -0.055217757821083, 0.001884099096060, 0.017568234354258, 0.047578696161509, -0.020531401038170, 0.021083619445562, 0.017731670290232, -0.035102255642414, 0.022835563868284, 0.057015690952539, -0.037974730134010, -0.024270270019770, 0.031202685087919, -0.039399340748787, -0.017293509095907, 0.034510683268309, -0.025847610086203, -0.034321725368500, 0.040006805211306, 0.018793802708387, 0.011086996644735, 0.031150441616774, 0.038979459553957, -0.014975022524595, -0.035925228148699, 0.008777286857367, -0.037249181419611, -0.003177989274263, 0.010924872010946, -0.026206482201815, 0.051654223352671, 0.022592689841986, -0.037131369113922, -0.010993063449860, -0.041142694652081, 0.036182653158903, -0.049519345164299, -0.006574932485819, 0.041258465498686, -0.054922286421061, 0.027299020439386, -0.006549391895533, 0.011539127677679, 0.019372198730707, -0.011119645088911, 0.035469766706228, -0.029237955808640, -0.028520418331027, 0.047689955681562, -0.043825685977936, 0.003299321979284, 0.025184568017721, -0.035605888813734, 0.017762828618288, -0.008419167250395, -0.003597330302000, 0.056916754692793, 0.025036435574293, -0.015057172626257, 0.021434362977743, 0.007047731429338, -0.031793504953384, 0.008476581424475, 0.020993057638407, 0.038882266730070, -0.041782323271036, -0.057946495711803, -0.022088006138802, 0.025021824985743, -0.052435796707869, 0.017801586538553, 0.022279273718596, 0.022952850908041, 0.027001660317183, -0.026460066437721, -0.002312216907740, -0.019580148160458, 0.026929210871458, -0.052452221512794, 0.035765510052443, -0.038199979811907, -0.039223812520504, -0.058333877474070, -0.031382203102112, -0.036881387233734, 0.047787647694349, -0.059074912220240, 0.051169361919165, 0.024940285831690, 0.024325136095285, 0.014548007398844, -0.039121538400650, -0.051053874194622, -0.038967605680227, 0.055820588022470, -0.020453363656998, 0.040479075163603, 0.005974557250738, -0.010051384568214, -0.029868436977267, -0.019600398838520, -0.011377450078726, 0.029015939682722, 0.053778696805239, 0.045699279755354, -0.035210568457842, 0.014591518789530, 0.054634954780340, -0.016737293452024, 0.032136667519808, 0.032114472240210, 0.047628182917833, -0.017286617308855, 0.039842706173658, -0.038523588329554, -0.050785854458809, -0.050241760909557, 0.053091097623110, -0.032759010791779, 0.027265097945929, -0.007728785276413, -0.056046444922686, 0.010364938527346, -0.044493690133095, -0.034967608749866, 0.044469442218542, 0.029848482459784, -0.045301742851734, 0.015769567340612, -0.007065050303936, -0.020013272762299, 0.020821753889322, 0.000087197870016, -0.026093363761902, -0.021614108234644, -0.032992608845234, -0.007603980600834, 0.049526069313288, 0.039718989282846, 0.055216934531927, 0.023162018507719, -0.053508140146732, -0.015825096517801, -0.007248863577843, -0.051995310932398, 0.051420036703348, -0.040705569088459, -0.054208789020777, -0.057159870862961, -0.012291975319386, 0.033087719231844, -0.044973358511925, -0.020698633044958, 0.023019190877676, 0.047104883939028, -0.010395016521215, 0.013745997101068, -0.022104497998953, -0.051043167710304, -0.052482794970274, -0.049761470407248, 0.000622864812613, -0.051780529320240, -0.009561575949192, -0.055359438061714, 0.042434688657522, 0.003589745610952, 0.027458880096674, -0.032714776694775, -0.037905700504780, 0.006592404097319, 0.018723625689745, -0.003705430775881, 0.020791437476873, -0.013864252716303, 0.039656411856413, 0.050274919718504, 0.020453486591578, 0.059307690709829, -0.001050375401974, 0.024704899638891, -0.030816683545709, -0.030664224177599, 0.038980338722467, -0.002279929816723, 0.019856389611959, -0.044676780700684, -0.005105096846819, -0.045374535024166, 0.026658814400434, 0.047673609107733, 0.044104013592005, -0.012402176856995, -0.035694632679224, 0.007068525999784, 0.030245009809732, 0.033802989870310, 0.024018701165915, 0.059311989694834, -0.059353467077017, 0.056109141558409, 0.029864709824324, -0.037385828793049, 0.039391595870256, -0.002366289496422, -0.019024029374123, -0.026401612907648, -0.056437768042088, -0.010998524725437, 0.011255953460932, 0.048793587833643, 0.039440367370844, -0.008278846740723, 0.043912839144468, 0.050761219114065, -0.014375187456608, 0.019991431385279, -0.027406949549913, -0.023438036441803, -0.019915256649256, -0.035804674029350, 0.037390578538179, -0.025881230831146, -0.029855037108064, 0.007258366793394, 0.034587305039167, -0.018018435686827, -0.054355517029762, 0.015441518276930, 0.040977377444506, 0.003896038979292, 0.046913389116526, -0.037759520113468, -0.042995255440474, 0.049766194075346, -0.005491130053997, -0.034956179559231, 0.044578593224287, 0.051723081618547, 0.014590408653021, 0.020657893270254, 0.027137812227011, -0.046093262732029, -0.049441747367382, 0.036084447056055, -0.057112306356430, -0.058738369494677, 0.050888877362013, 0.002437278628349, -0.019768215715885, -0.000767625868320, 0.016930412501097, 0.036943424493074, 0.017988171428442, -0.052276376634836, 0.045147698372602, -0.054502390325069, 0.031181361526251, -0.055504649877548, -0.054449085146189, -0.005196478217840, 0.030808035284281, -0.035856977105141, 0.047653440386057, 0.039323773235083, -0.037856109440327, -0.010947104543447, -0.015703424811363, 0.040899325162172, 0.044151026755571, 0.000680483877659, 0.005210433155298, -0.034363642334938, -0.012449014931917, 0.051533211022615, -0.055686861276627, 0.040819969028234, 0.054431017488241, 0.031190168112516, 0.027380350977182, 0.003093983978033, -0.048960551619530, -0.029124295338988, -0.057390876114368, -0.017146285623312, -0.018194280564785, -0.048621002584696, 0.039309579879045, 0.031097296625376, -0.050662197172642, 0.028620492666960, -0.016694653779268, -0.041514005511999, 0.015200655907393, -0.047924567013979, 0.052642997354269, -0.056236285716295, 0.020750250667334, 0.029096115380526, 0.015762086957693, 0.048571329563856, -0.015856917947531, -0.013220112770796, -0.007115773856640, -0.042411088943481, 0.044456664472818, -0.004599012434483, 0.009081441909075, -0.048819802701473, -0.013311211019754, -0.012526486068964, -0.044847957789898, -0.052241008728743, -0.009613875299692, -0.023642200976610, -0.026558522135019, 0.025443907827139, -0.024745572358370, 0.010470043867826, 0.021504972130060, -0.028484852984548, -0.039140440523624, -0.031361609697342, 0.033355694264174, -0.031849462538958, 0.019732933491468, 0.029587049037218, 0.058198746293783, 0.040097270160913, 0.010668773204088, 0.006657522171736, 0.015585381537676, -0.056261043995619, 0.017923254519701, -0.010721616446972, 0.052706111222506, 0.024961236864328, 0.027140248566866, -0.040800526738167, -0.013843275606632, 0.004804406315088, 0.055386725813150, -0.054129119962454, -0.007919885218143, 0.037503752857447, 0.046574506908655, 0.033686008304358, -0.030168177559972, -0.047788415104151, 0.040666159242392, 0.053953956812620, 0.046683128923178, -0.027584269642830, 0.038758043199778, 0.055468533188105, 0.028055939823389, -0.053852535784245, 0.030680123716593, -0.015731319785118, -0.027169279754162, -0.044744633138180, 0.011664714664221, -0.010055866092443, -0.030041430145502, 0.057142999023199, 0.025515351444483, -0.033115811645985, 0.027502316981554, -0.036304011940956, -0.044294293969870, -0.047410666942596, 0.045550551265478, 0.002672694623470, -0.051353983581066, 0.056545261293650, 0.052659433335066, -0.009825300425291, -0.011383280158043, -0.032933846116066, -0.008882738649845, 0.040448185056448, -0.018759530037642, 0.039945702999830, 0.033404324203730, 0.028269249945879, -0.052144423127174, 0.024528119713068, -0.042326413094997, 0.031066324561834, 0.049453545361757, -0.044591695070267, -0.001940056681633, -0.019080966711044, -0.037206754088402, -0.041291493922472, -0.036146946251392, 0.053811509162188, -0.042123243212700, -0.054123066365719, -0.033831592649221, -0.057931903749704, -0.027125388383865, -0.018493369221687, 0.001154266297817, -0.012163184583187, -0.040575105696917, -0.025450330227613, -0.024348817765713, 0.016370195895433, -0.019495543092489, -0.000467516481876, -0.020435538142920, -0.023522384464741, -0.026760276407003, 0.055472079664469, -0.051682054996490, -0.010006517171860, -0.023743435740471, -0.044994063675404, -0.034002926200628, 0.027059588581324, -0.036208618432283, 0.043524485081434, 0.052431713789701, 0.040917035192251, -0.045962046831846, -0.005077317357063, 0.013462077826262, 0.010984737426043, 0.046020682901144, -0.025024052709341, -0.029014792293310, 0.022812079638243, -0.027335423976183, 0.056097324937582, -0.027406569570303, 0.018241655081511, 0.028433982282877, 0.053931411355734, -0.022121019661427, 0.024568069726229, 0.036559622734785, -0.019360966980457, 0.058598097413778, -0.002837747335434, -0.022669676691294, -0.024500537663698, 0.049863491207361, -0.049322020262480, 0.045863773673773, 0.024794306606054, 0.008982103317976, 0.052600312978029, -0.008128769695759, 0.047234792262316, 0.032920073717833, 0.006000418215990, 0.008274991065264, -0.036006100475788, -0.020356066524982, -0.003595303744078, 0.004709888249636, -0.011476632207632, 0.036535788327456, -0.011001784354448, -0.039254680275917, 0.045629505068064, -0.027407303452492, -0.058312617242336, -0.034214705228806, -0.002900950610638, -0.021019916981459, 0.022423464804888, -0.022145889699459, 0.044592317193747, 0.052366357296705, -0.019266907125711, -0.033504806458950, -0.040718417614698, -0.038065463304520, 0.055829975754023, -0.002559632062912, 0.021055523306131, 0.033532690256834, 0.024283092468977, 0.007159326225519, -0.057457201182842, -0.010182913392782, -0.051330186426640, 0.022584903985262, 0.039043243974447, -0.008012857288122, -0.035936061292887, -0.023896180093288, -0.048598270863295, 0.009637389332056, -0.033625371754169, 0.040025983005762, -0.005321938544512, -0.029003305360675, -0.041643366217613, -0.042700007557869, -0.007388755679131, -0.040489271283150, -0.019676238298416, 0.047840174287558, -0.035293497145176, -0.030065167695284, 0.028991874307394, -0.034900292754173, -0.002559278160334, 0.026299152523279, 0.053473580628633, -0.038415629416704, -0.057161018252373, 0.024379748851061, -0.016796428710222, -0.040042161941528, 0.038141485303640, 0.014725569635630, 0.033874858170748, -0.006940968334675, 0.036637675017118, 0.055036898702383, -0.016728743910789, 0.044063623994589, -0.030472826212645, 0.056034985929728, -0.022746678441763, 0.026385832577944, 0.054008942097425, 0.010792139917612, 0.050414729863405, 0.055830512195826, -0.038079287856817, -0.028845500200987, 0.013489264994860, 0.006083693355322, -0.058024719357491, 0.028816159814596, -0.006390947848558, 0.022701200097799, 0.033940073102713, -0.010399043560028, -0.040838684886694, -0.003465082496405, 0.055197421461344, -0.018914382904768, 0.022671479731798, 0.045318040996790, -0.029702549800277, 0.048297595232725, -0.006936188787222, 0.052200380712748, -0.023600123822689, 0.005810115486383, -0.052472271025181, -0.055115286260843, -0.005513165146112, 0.003365349024534, 0.014857206493616, 0.004104126244783, -0.041508279740810, 0.027510244399309, -0.030937958508730, 0.057783361524343, 0.014364209026098, 0.032336164265871, -0.038691416382790, 0.016386788338423, -0.009782020002604, 0.023920554667711, 0.000550132244825, -0.027398131787777, 0.019182767719030, 0.038169432431459, -0.039419833570719, -0.001935489475727, 0.032077860087156, 0.054877590388060, 0.029481712728739, 0.006710808724165, 0.013036232441664, 0.035330299288034, 0.057099390774965, 0.006058905273676, 0.050086442381144, -0.022285543382168, -0.010278604924679, 0.058901581913233, 0.052385557442904, 0.031559530645609, 0.032505031675100, 0.034284796565771, -0.052459254860878, -0.036611694842577, -0.053659804165363, -0.027016706764698, 0.024956751614809, -0.012129731476307, 0.037350784987211, -0.046529326587915, 0.000437878072262, 0.027596119791269, 0.004966024309397, 0.022099163383245, 0.028929945081472, -0.050181861966848, 0.042872164398432, 0.043126087635756, -0.027761969715357, -0.040863614529371, 0.009541470557451, -0.037879195064306, -0.031543310731649, 0.052514303475618, -0.057484157383442, 0.042213108390570, 0.024561587721109, 0.001048605889082, -0.043253999203444, 0.037328001111746, -0.004608951508999, 0.030289057642221, -0.031030246987939, 0.016438458114862, -0.000231206417084, 0.054823402315378, 0.021523024886847, 0.000586349517107, 0.011419523507357, -0.028887674212456, 0.049898643046618, 0.000981204211712, -0.027977433055639, -0.016164757311344, -0.010496903210878, -0.018154941499233, 0.024004857987165, 0.051266927272081, 0.000700917094946, -0.009883865714073, -0.047340795397758, -0.011513389647007, -0.014070894569159, 0.017428766936064, 0.008096862584352, 0.036248791962862, 0.010761406272650, -0.047420464456081, 0.025718647986650, 0.044638786464930, -0.052582740783691, 0.054092112928629, 0.045425120741129, 0.033503104001284, -0.059294559061527, -0.058686044067144, 0.044395018368959, 0.032384041696787, 0.020763639360666, -0.049079015851021, 0.001753464341164, 0.020518470555544, -0.015106808394194, -0.057263676077127, 0.048377785831690, 0.003026422113180, -0.033116340637207, 0.028772514313459, 0.039976831525564, 0.008992765098810, -0.043208621442318, -0.030172191560268, 0.013515602797270, -0.049024224281311, -0.045490775257349, 0.001309134066105, 0.056666661053896, -0.033269762992859, 0.011818107217550, 0.041931111365557, 0.042336639016867, 0.046698275953531, -0.054415035992861, 0.030648354440928, -0.054927192628384, 0.007654022425413, -0.021437671035528, -0.054766777902842, -0.033747598528862, 0.009942945092916, 0.034212891012430, -0.027479074895382, 0.045935485512018, -0.028938895091414, -0.017324455082417, -0.049288481473923, -0.000278003513813, 0.031532261520624, -0.027983117848635, 0.020586792379618, 0.002417027950287, 0.055819947272539, 0.029851604253054, 0.024578433483839, -0.026528105139732, -0.036462046205997, 0.041024755686522, 0.040351461619139, 0.044601593166590, 0.007179830223322, -0.058165039867163, -0.022155661135912, 0.024383578449488, 0.022659014910460, 0.006034839898348, -0.059237863868475, -0.011765569448471, 0.015399474650621, -0.036528609693050, 0.045210871845484, -0.055797331035137, -0.058654434978962, 0.029343586415052, 0.040623191744089, 0.052997361868620, 0.022436443716288, 0.057351727038622, -0.008836921304464, 0.057475965470076, 0.006319459527731, 0.036181006580591, 0.009011644870043, -0.030248895287514, -0.041353210806847, 0.024352643638849, -0.037521339952946, 0.025190357118845, -0.048593051731586, 0.007811021059752, -0.002883099019527, 0.005159001797438, 0.028259549289942, 0.010863166302443, 0.041109170764685, -0.001186769455671, -0.053922504186630, -0.024097152054310, -0.007587812840939, 0.054727543145418, -0.050330296158791, -0.001627326011658, 0.047950018197298, 0.022904578596354, 0.050381612032652, 0.044482473284006, 0.035136122256517, -0.041786108165979, -0.040721438825130, -0.022642277181149, -0.000399064272642, -0.001254156231880, 0.022506881505251, -0.012473903596401, -0.053415894508362, 0.008003864437342, 0.044567901641130, -0.045641575008631, 0.049992721527815, -0.027799081057310, -0.007434062659740, -0.005647771060467, -0.049750521779060, -0.052372351288795, -0.046123113483191, -0.040335021913052, -0.008740503340960, -0.053299244493246, 0.035965200513601, -0.022152513265610, -0.044022433459759, 0.038470070809126, 0.046431120485067, -0.041581775993109, -0.048910334706306, 0.047971349209547, 0.021598767489195, -0.015246331691742, -0.000535044819117, 0.014821533113718, -0.018185246735811, 0.046458531171083, -0.022081281989813, 0.011916171759367, -0.000852651894093, 0.007892321795225, 0.000766064971685, 0.019266393035650, -0.027648180723190, -0.008778326213360, 0.054993871599436, 0.045623552054167, -0.015219118446112, 0.027974214404821, 0.021005582064390, -0.019121821969748, 0.006251070648432, -0.037951491773129, 0.057837840169668, 0.051925610750914, -0.022624935954809, -0.053656999021769, 0.001191943883896, -0.046822797507048, -0.057282451540232, 0.055714588612318, 0.023540791124105, -0.038888376206160, -0.059101700782776, -0.059052634984255, -0.006637439131737, 0.049948249012232, -0.057437319308519, 0.057853613048792, -0.051376231014729, -0.042424205690622, 0.044625129550695, -0.008146438747644, 0.053146246820688, 0.016605082899332, -0.035659719258547, 0.020248632878065, -0.046708598732948, 0.050667215138674, 0.010769803076982, 0.018720265477896, 0.038990903645754, 0.018186096101999, 0.054215583950281, -0.055330835282803, -0.000771820545197, -0.026654954999685, -0.012185279279947, 0.006473850458860, -0.024486385285854, -0.055977880954742, 0.015260186046362, -0.044805146753788, -0.025994762778282, 0.039753023535013, 0.039253991097212, -0.048284761607647, -0.030904391780496, 0.008458193391562, 0.048718299716711, 0.017877276986837, -0.056774307042360, 0.034385848790407, 0.030978698283434, 0.052732121199369, -0.021349608898163, -0.020695783197880, 0.006849866360426, -0.022582393139601, -0.028404787182808, -0.051036104559898, -0.006541889160872, 0.032715473324060, 0.030207645148039, -0.043978754431009, -0.031853504478931, 0.005220215767622, -0.019338846206665, 0.034140978008509, -0.058582011610270, -0.018881570547819, 0.038967166095972, 0.006896141916513, 0.057270761579275, 0.000252276659012, 0.026189591735601, -0.008191477507353, 0.016473304480314, 0.004315745085478, 0.022225033491850, 0.024469751864672, 0.009277436882257, 0.030468884855509, -0.050822172313929, -0.004280522465706, -0.003756370395422, 0.024553630501032, 0.002252575010061, -0.024648543447256, -0.005312349647284, -0.035421635955572, 0.003177139908075, -0.042635470628738, -0.026243012398481, 0.044929441064596, 0.015033137053251, 0.027910780161619, 0.023706171661615, -0.027090035378933, -0.050766892731190, 